%YAML:1.0
---
opencv_ml_svm:
   format: 3
   svmType: C_SVC
   kernel:
      type: RBF
      gamma: 5.0625000000000009e-01
   C: 6.2500000000000000e+01
   term_criteria: { iterations:100 }
   var_count: 64
   class_count: 36
   class_labels: !!opencv-matrix
      rows: 36
      cols: 1
      dt: i
      data: [ 0, 1, 2, 3, 4, 5, 6, 7, 8, 9, 10, 11, 12, 13, 14, 15, 16,
          17, 18, 19, 20, 21, 22, 23, 24, 25, 26, 27, 28, 29, 30, 31, 32,
          33, 34, 35 ]
   sv_total: 271
   support_vectors:
      - [ 0., 1.91387553e-02, 2.87081338e-02, 2.39234455e-02,
          2.55183410e-02, 3.18979248e-02, 1.43540669e-02, 0.,
          1.27591705e-02, 3.98724079e-02, 3.34928222e-02, 3.18979248e-02,
          3.18979248e-02, 3.18979248e-02, 3.82775106e-02, 1.11642741e-02,
          2.71132383e-02, 1.11642741e-02, 0., 0., 0., 0., 1.43540669e-02,
          2.71132383e-02, 3.18979248e-02, 0., 0., 0., 0., 0., 0.,
          3.18979248e-02, 3.18979248e-02, 0., 0., 0., 0., 0.,
          1.59489631e-03, 3.18979248e-02, 2.71132383e-02, 9.56937764e-03,
          0., 0., 0., 0., 1.43540669e-02, 2.71132383e-02, 1.11642741e-02,
          3.66826169e-02, 2.87081338e-02, 2.39234455e-02, 3.03030312e-02,
          3.18979248e-02, 3.82775106e-02, 7.97448121e-03, 0.,
          1.43540669e-02, 3.03030312e-02, 2.39234455e-02, 2.39234455e-02,
          2.39234455e-02, 1.27591705e-02, 0. ]
      - [ 0., 7.16845877e-03, 1.79211479e-02, 2.50896066e-02,
          2.68817209e-02, 2.68817209e-02, 1.25448033e-02, 0.,
          5.37634408e-03, 4.12186384e-02, 3.58422957e-02, 3.58422957e-02,
          3.58422957e-02, 3.58422957e-02, 4.12186384e-02, 5.37634408e-03,
          1.79211479e-02, 2.15053763e-02, 0., 0., 0., 0., 1.61290318e-02,
          2.15053763e-02, 3.04659493e-02, 3.58422939e-03, 0., 0., 0., 0.,
          5.37634408e-03, 3.04659493e-02, 3.04659493e-02, 3.58422939e-03,
          0., 0., 0., 0., 7.16845877e-03, 3.04659493e-02, 1.97132621e-02,
          1.61290318e-02, 0., 0., 0., 0., 2.50896066e-02, 1.79211479e-02,
          8.96057393e-03, 4.48028669e-02, 3.58422957e-02, 4.12186384e-02,
          4.48028669e-02, 4.48028669e-02, 3.94265242e-02, 1.79211469e-03,
          3.58422939e-03, 7.16845877e-03, 1.97132621e-02, 1.79211479e-02,
          1.79211479e-02, 1.79211479e-02, 3.58422939e-03, 0. ]
      - [ 0., 7.57575780e-03, 1.89393945e-02, 1.89393945e-02,
          1.89393945e-02, 1.89393945e-02, 7.57575780e-03, 0.,
          7.57575780e-03, 4.54545468e-02, 3.78787890e-02, 3.78787890e-02,
          3.78787890e-02, 3.78787890e-02, 4.54545468e-02, 7.57575780e-03,
          2.08333340e-02, 2.65151523e-02, 0., 0., 0., 0., 2.65151523e-02,
          2.08333340e-02, 2.84090918e-02, 3.78787890e-03, 0., 0., 0., 0.,
          3.78787890e-03, 2.84090918e-02, 2.65151523e-02, 3.78787890e-03,
          0., 0., 0., 0., 3.78787890e-03, 2.84090918e-02, 1.51515156e-02,
          2.65151523e-02, 0., 0., 0., 0., 2.27272734e-02, 2.08333340e-02,
          5.68181835e-03, 4.54545468e-02, 3.78787890e-02, 3.78787890e-02,
          3.78787890e-02, 3.78787890e-02, 4.35606055e-02, 7.57575780e-03,
          0., 7.57575780e-03, 1.89393945e-02, 1.89393945e-02,
          1.89393945e-02, 1.89393945e-02, 7.57575780e-03, 0. ]
      - [ 0., 1.47058824e-02, 2.45098043e-02, 2.45098043e-02,
          2.61437912e-02, 2.94117648e-02, 1.47058824e-02, 0.,
          8.16993508e-03, 4.08496745e-02, 3.26797403e-02, 2.77777780e-02,
          2.45098043e-02, 2.45098043e-02, 3.59477140e-02, 9.80392192e-03,
          2.61437912e-02, 1.79738570e-02, 0., 0., 0., 0., 6.53594779e-03,
          2.77777780e-02, 3.26797403e-02, 8.16993508e-03, 0., 0., 0., 0.,
          0., 3.26797403e-02, 3.26797403e-02, 8.16993508e-03, 0., 0., 0.,
          0., 0., 3.26797403e-02, 2.45098043e-02, 1.79738570e-02, 0., 0.,
          0., 0., 1.30718956e-02, 2.77777780e-02, 8.16993508e-03,
          3.75817008e-02, 3.26797403e-02, 3.26797403e-02, 2.94117648e-02,
          3.26797403e-02, 3.92156877e-02, 8.16993508e-03, 0.,
          1.47058824e-02, 3.26797403e-02, 2.77777780e-02, 2.45098043e-02,
          2.12418307e-02, 1.14379087e-02, 0. ]
      - [ 0., 4.25531901e-03, 2.12765951e-02, 2.12765951e-02,
          2.12765951e-02, 2.12765951e-02, 4.25531901e-03, 0.,
          2.12765951e-03, 4.89361696e-02, 4.25531901e-02, 4.25531901e-02,
          4.25531901e-02, 4.25531901e-02, 4.68085110e-02, 2.12765951e-03,
          1.70212761e-02, 1.70212761e-02, 0., 0., 0., 0., 1.48936175e-02,
          2.34042555e-02, 2.55319141e-02, 1.06382975e-02, 0., 0., 0., 0.,
          0., 3.19148935e-02, 2.12765951e-02, 1.06382975e-02, 0., 0., 0.,
          0., 0., 3.19148935e-02, 1.70212761e-02, 1.70212761e-02, 0., 0.,
          0., 0., 1.48936175e-02, 2.76595745e-02, 0., 4.04255316e-02,
          4.25531901e-02, 4.25531901e-02, 4.25531901e-02, 4.25531901e-02,
          4.89361696e-02, 2.12765951e-03, 0., 4.25531901e-03,
          2.12765951e-02, 2.12765951e-02, 2.12765951e-02, 2.12765951e-02,
          4.25531901e-03, 0. ]
      - [ 0., 4.84652678e-03, 2.42326334e-02, 2.42326334e-02,
          2.42326334e-02, 2.42326334e-02, 8.07754416e-03, 0.,
          8.07754416e-03, 3.71567048e-02, 4.03877236e-02, 4.03877236e-02,
          4.03877236e-02, 2.74636503e-02, 4.03877236e-02, 8.07754416e-03,
          2.42326334e-02, 2.42326334e-02, 0., 0., 0., 0., 1.61550883e-02,
          2.42326334e-02, 3.23101766e-02, 9.69305355e-03, 0., 0., 0., 0.,
          8.07754416e-03, 3.23101766e-02, 3.23101766e-02, 8.07754416e-03,
          0., 0., 0., 0., 8.07754416e-03, 3.06946691e-02, 2.42326334e-02,
          2.10016146e-02, 0., 0., 0., 0., 2.26171240e-02, 2.26171240e-02,
          3.23101785e-03, 3.71567048e-02, 4.03877236e-02, 4.03877236e-02,
          4.03877236e-02, 4.03877236e-02, 3.71567048e-02, 3.23101785e-03,
          0., 4.84652678e-03, 2.42326334e-02, 1.77705977e-02,
          8.07754416e-03, 8.07754416e-03, 1.61550893e-03, 0. ]
      - [ 0., 1.89753319e-03, 9.48766619e-03, 9.48766619e-03,
          9.48766619e-03, 1.32827321e-02, 5.69259981e-03, 0.,
          1.89753319e-03, 3.98481973e-02, 3.98481973e-02, 3.79506648e-02,
          3.79506648e-02, 3.79506648e-02, 4.17457297e-02, 5.69259981e-03,
          1.89753324e-02, 2.65654642e-02, 1.89753319e-03, 0., 0., 0.,
          2.27703992e-02, 2.46679317e-02, 3.22580636e-02, 1.51802655e-02,
          0., 0., 0., 0., 9.48766619e-03, 3.79506648e-02, 3.22580636e-02,
          1.13851996e-02, 0., 0., 0., 0., 9.48766619e-03, 3.79506648e-02,
          1.89753324e-02, 2.65654642e-02, 0., 0., 0., 0., 2.46679317e-02,
          2.46679317e-02, 1.89753319e-03, 3.98481973e-02, 3.79506648e-02,
          3.79506648e-02, 3.79506648e-02, 3.79506648e-02, 4.36432622e-02,
          5.69259981e-03, 0., 5.69259981e-03, 2.84629986e-02,
          2.84629986e-02, 1.32827321e-02, 9.48766619e-03, 3.79506638e-03,
          0. ]
      - [ 0., 4.67289705e-03, 2.02492215e-02, 2.33644862e-02,
          2.33644862e-02, 2.33644862e-02, 9.34579410e-03, 0.,
          3.11526470e-03, 3.58255468e-02, 3.89408097e-02, 3.89408097e-02,
          3.89408097e-02, 3.89408097e-02, 3.58255468e-02, 3.11526470e-03,
          2.02492215e-02, 2.18068529e-02, 6.23052940e-03, 0., 0., 0.,
          1.55763244e-02, 2.02492215e-02, 3.11526489e-02, 7.78816221e-03,
          0., 0., 0., 0., 7.78816221e-03, 2.95950156e-02, 3.11526489e-02,
          7.78816221e-03, 0., 0., 0., 0., 7.78816221e-03, 2.64797509e-02,
          2.64797509e-02, 2.18068529e-02, 1.55763244e-02, 1.55763244e-02,
          1.55763244e-02, 1.55763244e-02, 2.64797509e-02, 1.24610588e-02,
          7.78816221e-03, 3.89408097e-02, 3.89408097e-02, 3.89408097e-02,
          3.89408097e-02, 3.89408097e-02, 3.42679136e-02, 0., 0.,
          6.23052940e-03, 1.09034264e-02, 7.78816221e-03, 7.78816221e-03,
          7.78816221e-03, 1.55763235e-03, 0. ]
      - [ 0., 1.14942528e-02, 2.46305410e-02, 2.46305410e-02,
          2.46305410e-02, 2.46305410e-02, 1.64203607e-02, 0.,
          6.56814454e-03, 3.77668291e-02, 4.10509035e-02, 4.10509035e-02,
          3.28407213e-02, 3.28407213e-02, 3.61247957e-02, 1.14942528e-02,
          2.29885057e-02, 1.47783253e-02, 0., 0., 0., 0., 9.85221658e-03,
          2.95566507e-02, 3.28407213e-02, 3.28407227e-03, 0., 0., 0., 0.,
          0., 3.28407213e-02, 3.28407213e-02, 3.28407227e-03, 0., 0., 0.,
          0., 0., 3.28407213e-02, 2.62725782e-02, 1.47783253e-02, 0., 0.,
          0., 0., 1.80623978e-02, 2.13464703e-02, 6.56814454e-03,
          3.94088663e-02, 4.10509035e-02, 4.10509035e-02, 4.10509035e-02,
          4.10509035e-02, 3.61247957e-02, 1.64203614e-03, 0.,
          1.31362891e-02, 2.46305410e-02, 2.46305410e-02, 1.47783253e-02,
          8.21018033e-03, 4.92610829e-03, 0. ]
      - [ 0., 1.46818925e-02, 2.44698208e-02, 2.44698208e-02,
          2.61011422e-02, 2.93637849e-02, 1.46818925e-02, 0.,
          8.15660693e-03, 4.07830328e-02, 3.26264277e-02, 2.77324636e-02,
          2.44698208e-02, 2.44698208e-02, 3.58890705e-02, 9.78792831e-03,
          2.77324636e-02, 1.79445352e-02, 0., 0., 0., 0., 6.52528554e-03,
          2.77324636e-02, 3.26264277e-02, 8.15660693e-03, 0., 0., 0., 0.,
          0., 3.26264277e-02, 3.26264277e-02, 8.15660693e-03, 0., 0., 0.,
          0., 0., 3.26264277e-02, 2.44698208e-02, 1.79445352e-02, 0., 0.,
          0., 0., 1.30505711e-02, 2.77324636e-02, 8.15660693e-03,
          3.75203900e-02, 3.26264277e-02, 3.26264277e-02, 2.93637849e-02,
          3.26264277e-02, 3.91517133e-02, 8.15660693e-03, 0.,
          1.46818925e-02, 3.26264277e-02, 2.77324636e-02, 2.44698208e-02,
          2.12071780e-02, 1.14192497e-02, 0. ]
      - [ 0., 6.98080286e-03, 0., 0., 0., 0., 0., 0., 1.04712043e-02,
          3.14136110e-02, 0., 0., 0., 0., 0., 0., 2.44328100e-02,
          1.91972069e-02, 0., 0., 0., 0., 0., 0., 2.96684112e-02,
          1.74520072e-02, 0., 0., 0., 0., 0., 0., 3.49040143e-02,
          3.66492160e-02, 2.61780098e-02, 2.61780098e-02, 2.61780098e-02,
          2.61780098e-02, 2.61780098e-02, 1.57068055e-02, 3.49040143e-02,
          4.36300188e-02, 4.36300188e-02, 4.36300188e-02, 4.36300188e-02,
          4.36300188e-02, 4.36300188e-02, 3.14136110e-02, 2.79232115e-02,
          3.49040143e-02, 3.49040143e-02, 3.49040143e-02, 3.66492160e-02,
          4.36300188e-02, 4.36300188e-02, 3.31588127e-02, 0., 0., 0., 0.,
          1.74520072e-03, 8.72600358e-03, 8.72600358e-03, 5.23560215e-03 ]
      - [ 0., 6.16332842e-03, 1.54083211e-03, 0., 0., 0., 0., 0., 0.,
          3.54391374e-02, 7.70416018e-03, 0., 0., 0., 0., 0.,
          1.07858246e-02, 3.54391374e-02, 0., 0., 0., 0., 0., 0.,
          2.31124815e-02, 3.23574729e-02, 7.70416018e-03, 7.70416018e-03,
          7.70416018e-03, 7.70416018e-03, 1.23266568e-02, 2.00308170e-02,
          3.08166407e-02, 3.85208018e-02, 3.85208018e-02, 3.85208018e-02,
          3.85208018e-02, 3.85208018e-02, 3.85208018e-02, 3.08166407e-02,
          3.08166407e-02, 3.85208018e-02, 3.85208018e-02, 3.85208018e-02,
          3.85208018e-02, 3.85208018e-02, 3.85208018e-02, 3.08166407e-02,
          2.77349763e-02, 3.54391374e-02, 2.31124815e-02, 2.31124815e-02,
          2.31124815e-02, 2.31124815e-02, 2.31124815e-02, 9.24499240e-03,
          4.62249620e-03, 6.16332842e-03, 0., 0., 0., 0., 0., 0. ]
      - [ 0., 0., 0., 0., 0., 0., 0., 0., 0., 4.14078683e-02, 0., 0., 0.,
          0., 0., 0., 6.21118024e-03, 3.51966880e-02, 0., 0., 0., 0., 0.,
          0., 2.07039341e-02, 3.51966880e-02, 0., 0., 4.14078683e-03,
          1.24223605e-02, 1.65631473e-02, 1.24223605e-02, 2.69151144e-02,
          4.76190485e-02, 3.10559012e-02, 3.10559012e-02, 3.51966880e-02,
          4.34782617e-02, 4.76190485e-02, 3.10559012e-02, 3.10559012e-02,
          5.17598353e-02, 5.17598353e-02, 5.17598353e-02, 5.17598353e-02,
          5.17598353e-02, 5.17598353e-02, 3.10559012e-02, 1.24223605e-02,
          2.07039341e-02, 2.07039341e-02, 2.07039341e-02, 2.07039341e-02,
          2.07039341e-02, 2.07039341e-02, 1.24223605e-02, 0., 0., 0., 0.,
          0., 0., 0., 0. ]
      - [ 0., 7.05218595e-03, 1.41043728e-03, 0., 0., 0., 0., 0.,
          4.23131185e-03, 3.52609307e-02, 4.23131185e-03, 0., 0., 0., 0.,
          0., 1.69252474e-02, 2.82087438e-02, 0., 0., 0., 0., 0., 0.,
          2.39774324e-02, 2.25669965e-02, 5.64174913e-03, 7.05218595e-03,
          7.05218595e-03, 7.05218595e-03, 9.87306051e-03, 9.87306051e-03,
          2.82087438e-02, 3.38504948e-02, 3.38504948e-02, 3.52609307e-02,
          3.52609307e-02, 3.52609307e-02, 3.52609307e-02, 2.82087438e-02,
          2.82087438e-02, 3.52609307e-02, 3.52609307e-02, 3.52609307e-02,
          3.52609307e-02, 3.52609307e-02, 3.52609307e-02, 2.82087438e-02,
          2.82087438e-02, 3.52609307e-02, 3.52609307e-02, 3.52609307e-02,
          3.52609307e-02, 3.52609307e-02, 3.52609307e-02, 2.53878701e-02,
          8.46262369e-03, 2.82087456e-03, 0., 0., 0., 0., 0., 0. ]
      - [ 0., 5.97014930e-03, 1.49253733e-03, 0., 0., 0., 0., 0., 0.,
          3.43283564e-02, 7.46268639e-03, 0., 0., 0., 0., 0.,
          1.04477610e-02, 3.43283564e-02, 0., 0., 0., 0., 0., 0.,
          2.23880596e-02, 2.98507456e-02, 0., 0., 0., 0., 1.49253733e-03,
          2.98507465e-03, 2.98507456e-02, 3.58208939e-02, 2.98507456e-02,
          2.98507456e-02, 2.98507456e-02, 2.98507456e-02, 3.13432850e-02,
          2.23880596e-02, 2.98507456e-02, 3.73134315e-02, 3.73134315e-02,
          3.73134315e-02, 3.73134315e-02, 3.73134315e-02, 3.73134315e-02,
          2.98507456e-02, 2.98507456e-02, 3.73134315e-02, 3.73134315e-02,
          3.73134315e-02, 3.73134315e-02, 3.73134315e-02, 3.73134315e-02,
          1.94029845e-02, 5.97014930e-03, 7.46268639e-03, 7.46268639e-03,
          7.46268639e-03, 7.46268639e-03, 7.46268639e-03, 7.46268639e-03,
          2.98507465e-03 ]
      - [ 0., 0., 0., 0., 0., 0., 0., 0., 3.41296918e-03, 3.92491482e-02,
          0., 0., 0., 0., 0., 0., 1.36518767e-02, 3.41296941e-02, 0., 0.,
          0., 0., 0., 0., 2.55972687e-02, 3.75426635e-02, 1.70648471e-02,
          1.70648471e-02, 6.82593836e-03, 0., 0., 0., 2.55972687e-02,
          4.26621176e-02, 4.26621176e-02, 4.26621176e-02, 3.24232094e-02,
          2.55972687e-02, 2.55972687e-02, 1.53583614e-02, 2.55972687e-02,
          4.26621176e-02, 4.26621176e-02, 4.26621176e-02, 4.26621176e-02,
          4.26621176e-02, 4.26621176e-02, 2.55972687e-02, 1.02389082e-02,
          1.70648471e-02, 3.24232094e-02, 3.24232094e-02, 4.26621176e-02,
          4.26621176e-02, 4.26621176e-02, 2.55972687e-02, 0., 0., 0., 0.,
          0., 0., 0., 0. ]
      - [ 0., 0., 0., 0., 0., 0., 4.57665883e-03, 9.15331766e-03,
          2.28832942e-03, 4.34782617e-02, 2.05949657e-02, 0., 0.,
          2.28832942e-03, 3.89016010e-02, 3.43249440e-02, 2.05949657e-02,
          4.11899313e-02, 4.57665883e-03, 0., 0., 2.05949657e-02,
          5.26315793e-02, 3.43249440e-02, 3.43249440e-02, 1.37299774e-02,
          0., 0., 9.15331766e-03, 3.43249440e-02, 1.60183068e-02,
          3.43249440e-02, 3.43249440e-02, 1.14416480e-02, 0.,
          2.28832942e-03, 4.11899313e-02, 1.37299774e-02, 1.14416480e-02,
          3.43249440e-02, 2.51716245e-02, 2.51716245e-02, 0.,
          2.51716245e-02, 2.28832960e-02, 0., 1.14416480e-02,
          3.43249440e-02, 9.15331766e-03, 4.80549186e-02, 3.66132706e-02,
          3.89016010e-02, 2.28832942e-03, 0., 1.14416480e-02,
          3.43249440e-02, 0., 9.15331766e-03, 2.28832960e-02,
          4.57665883e-03, 0., 0., 4.57665883e-03, 1.37299774e-02 ]
      - [ 0., 8.75656772e-03, 7.00525381e-03, 0., 0., 0., 5.25394036e-03,
          1.92644484e-02, 7.00525381e-03, 4.20315228e-02, 1.57618206e-02,
          0., 0., 1.75131345e-03, 3.85288969e-02, 3.50262709e-02,
          2.27670744e-02, 3.15236412e-02, 1.75131345e-03, 0., 0.,
          2.45183893e-02, 4.02802117e-02, 3.50262709e-02, 3.15236412e-02,
          8.75656772e-03, 0., 0., 1.40105076e-02, 3.85288969e-02,
          1.05078807e-02, 3.50262709e-02, 3.32749560e-02, 8.75656772e-03,
          0., 1.75131345e-03, 3.85288969e-02, 1.40105076e-02,
          8.75656772e-03, 3.50262709e-02, 2.45183893e-02, 2.27670744e-02,
          1.75131345e-03, 3.15236412e-02, 2.45183893e-02, 0.,
          8.75656772e-03, 3.50262709e-02, 1.05078807e-02, 4.20315228e-02,
          3.50262709e-02, 3.85288969e-02, 1.75131345e-03, 0.,
          8.75656772e-03, 3.50262709e-02, 0., 1.22591946e-02,
          2.45183893e-02, 7.00525381e-03, 0., 0., 3.50262690e-03,
          1.75131354e-02 ]
      - [ 0., 1.30718956e-02, 6.53594779e-03, 0., 0., 0., 1.14379087e-02,
          2.61437912e-02, 6.53594779e-03, 4.08496745e-02, 1.30718956e-02,
          0., 0., 1.63398695e-03, 3.75817008e-02, 3.26797403e-02,
          2.77777780e-02, 2.45098043e-02, 1.63398695e-03, 0., 0.,
          2.77777780e-02, 3.26797403e-02, 3.26797403e-02, 3.26797403e-02,
          8.16993508e-03, 0., 0., 1.63398702e-02, 3.43137272e-02,
          9.80392192e-03, 3.26797403e-02, 3.26797403e-02, 8.16993508e-03,
          0., 3.26797389e-03, 3.92156877e-02, 1.14379087e-02,
          8.16993508e-03, 3.26797403e-02, 2.77777780e-02, 1.96078438e-02,
          0., 3.10457516e-02, 2.45098043e-02, 0., 8.16993508e-03,
          3.26797403e-02, 9.80392192e-03, 4.08496745e-02, 3.59477140e-02,
          3.75817008e-02, 1.63398695e-03, 0., 8.16993508e-03,
          3.26797403e-02, 0., 1.96078438e-02, 3.10457516e-02,
          9.80392192e-03, 0., 0., 3.26797389e-03, 1.96078438e-02 ]
      - [ 0., 1.62748639e-02, 5.42495493e-03, 0., 0., 0., 9.04159155e-03,
          1.62748639e-02, 1.26582282e-02, 4.33996394e-02, 5.42495493e-03,
          0., 0., 3.61663662e-03, 3.97830009e-02, 2.71247737e-02,
          2.71247737e-02, 2.16998197e-02, 0., 0., 0., 2.89330930e-02,
          4.33996394e-02, 2.71247737e-02, 3.61663662e-02, 7.23327324e-03,
          0., 0., 1.80831831e-02, 3.79746817e-02, 1.44665465e-02,
          2.71247737e-02, 3.61663662e-02, 3.61663662e-03, 0.,
          5.42495493e-03, 4.15913202e-02, 1.08499099e-02, 1.80831831e-02,
          2.71247737e-02, 2.71247737e-02, 2.16998197e-02, 3.61663662e-03,
          3.79746817e-02, 1.80831831e-02, 0., 1.80831831e-02,
          2.71247737e-02, 1.26582282e-02, 4.33996394e-02, 4.52079549e-02,
          3.43580469e-02, 0., 0., 1.80831831e-02, 2.53164563e-02, 0.,
          1.26582282e-02, 2.16998197e-02, 0., 0., 0., 1.08499099e-02,
          1.08499099e-02 ]
      - [ 0., 1.19863013e-02, 1.02739725e-02, 0., 0., 0., 1.02739725e-02,
          1.71232875e-02, 6.84931502e-03, 3.93835604e-02, 1.71232875e-02,
          0., 0., 3.42465751e-03, 3.59589048e-02, 3.25342454e-02,
          1.88356172e-02, 3.08219176e-02, 3.42465751e-03, 0., 0.,
          2.73972601e-02, 4.28082198e-02, 2.56849322e-02, 2.56849322e-02,
          1.36986300e-02, 0., 0., 1.54109588e-02, 3.76712345e-02,
          1.71232875e-02, 2.56849322e-02, 2.91095898e-02, 1.02739725e-02,
          0., 8.56164377e-03, 4.10958901e-02, 1.54109588e-02,
          8.56164377e-03, 2.56849322e-02, 2.05479451e-02, 2.73972601e-02,
          1.02739725e-02, 3.42465751e-02, 2.73972601e-02, 0.,
          8.56164377e-03, 2.56849322e-02, 8.56164377e-03, 4.10958901e-02,
          4.28082198e-02, 3.42465751e-02, 5.13698626e-03, 0.,
          8.56164377e-03, 2.56849322e-02, 1.71232875e-03, 1.54109588e-02,
          2.39726026e-02, 6.84931502e-03, 5.13698626e-03, 0.,
          5.13698626e-03, 1.36986300e-02 ]
      - [ 0., 1.59857906e-02, 5.32859704e-03, 0., 0., 0., 1.06571941e-02,
          1.77619886e-02, 1.24333929e-02, 4.44049723e-02, 7.10479589e-03,
          0., 0., 3.55239795e-03, 4.08525765e-02, 2.84191836e-02,
          2.66429838e-02, 2.13143881e-02, 0., 0., 0., 3.37477811e-02,
          4.44049723e-02, 2.66429838e-02, 3.55239771e-02, 8.88099428e-03,
          0., 0., 2.30905861e-02, 3.90763767e-02, 1.06571941e-02,
          2.66429838e-02, 3.55239771e-02, 8.88099428e-03, 0.,
          1.59857906e-02, 4.26287763e-02, 8.88099428e-03, 8.88099428e-03,
          2.66429838e-02, 2.66429838e-02, 2.84191836e-02, 8.88099428e-03,
          4.26287763e-02, 2.13143881e-02, 0., 8.88099428e-03,
          2.66429838e-02, 8.88099428e-03, 4.26287763e-02, 4.44049723e-02,
          2.66429838e-02, 0., 0., 1.42095918e-02, 2.66429838e-02, 0.,
          1.06571941e-02, 1.42095918e-02, 0., 0., 0., 5.32859704e-03,
          1.24333929e-02 ]
      - [ 0., 2.14007776e-02, 5.83657576e-03, 0., 0., 0., 7.78210117e-03,
          1.94552522e-02, 1.36186769e-02, 4.86381315e-02, 7.78210117e-03,
          0., 0., 1.94552529e-03, 3.89105044e-02, 3.89105044e-02,
          3.11284047e-02, 2.14007776e-02, 0., 0., 0., 2.91828793e-02,
          4.47470807e-02, 3.89105044e-02, 3.89105044e-02, 0., 0., 0.,
          1.94552522e-02, 3.89105044e-02, 3.89105058e-03, 3.89105044e-02,
          3.89105044e-02, 3.89105058e-03, 0., 9.72762611e-03,
          4.47470807e-02, 9.72762611e-03, 0., 3.89105044e-02,
          2.52918284e-02, 2.14007776e-02, 0., 4.08560298e-02,
          1.94552522e-02, 0., 0., 3.89105044e-02, 7.78210117e-03,
          4.47470807e-02, 4.86381315e-02, 2.33463030e-02, 0., 0., 0.,
          3.89105044e-02, 0., 5.83657576e-03, 9.72762611e-03, 0., 0., 0.,
          0., 1.94552522e-02 ]
      - [ 0., 2.09267568e-02, 1.04633784e-02, 0., 0., 8.96861032e-03,
          2.09267568e-02, 0., 1.04633784e-02, 3.58744413e-02,
          8.96861032e-03, 0., 0., 7.47384178e-03, 3.73692065e-02,
          1.34529145e-02, 2.54110619e-02, 1.49476836e-02, 0.,
          2.98953662e-03, 2.98953662e-03, 0., 1.64424516e-02,
          2.69058291e-02, 2.98953671e-02, 7.47384178e-03, 0.,
          2.09267568e-02, 2.24215239e-02, 0., 7.47384178e-03,
          2.98953671e-02, 2.98953671e-02, 7.47384178e-03, 0.,
          2.24215239e-02, 2.24215239e-02, 0., 7.47384178e-03,
          2.98953671e-02, 2.24215239e-02, 2.39162929e-02, 1.49476831e-03,
          3.13901342e-02, 3.13901342e-02, 1.49476831e-03, 1.94319878e-02,
          2.54110619e-02, 5.97907323e-03, 3.73692065e-02, 3.73692065e-02,
          3.43796723e-02, 3.28849033e-02, 3.43796723e-02, 3.73692065e-02,
          1.04633784e-02, 0., 1.49476836e-02, 2.84005981e-02,
          8.96861032e-03, 7.47384178e-03, 2.98953671e-02, 2.09267568e-02,
          0. ]
      - [ 0., 1.25000002e-02, 4.16666688e-03, 0., 0., 4.16666688e-03,
          8.33333377e-03, 0., 4.16666688e-03, 5.00000007e-02,
          6.25000009e-03, 0., 0., 1.04166670e-02, 4.37499993e-02, 0.,
          2.50000004e-02, 1.87500007e-02, 0., 0., 0., 0., 2.50000004e-02,
          1.87500007e-02, 3.12500000e-02, 1.04166670e-02, 0.,
          2.70833336e-02, 2.08333340e-02, 0., 1.04166670e-02,
          3.12500000e-02, 3.12500000e-02, 1.04166670e-02, 0.,
          3.12500000e-02, 2.70833336e-02, 0., 1.04166670e-02,
          2.91666668e-02, 1.87500007e-02, 3.12500000e-02, 1.04166670e-02,
          4.79166657e-02, 4.79166657e-02, 1.04166670e-02, 3.12500000e-02,
          1.45833334e-02, 4.16666688e-03, 4.37499993e-02, 5.20833321e-02,
          2.08333340e-02, 3.33333351e-02, 5.20833321e-02, 4.16666679e-02,
          0., 0., 6.25000009e-03, 1.04166670e-02, 0., 2.08333344e-03,
          1.45833334e-02, 4.16666688e-03, 0. ]
      - [ 0., 1.44927539e-02, 6.44122390e-03, 0., 0., 8.05152953e-03,
          9.66183562e-03, 0., 1.12721417e-02, 4.02576476e-02,
          9.66183562e-03, 0., 0., 1.61030591e-02, 3.86473425e-02,
          8.05152953e-03, 2.73752008e-02, 2.57648956e-02, 0., 0., 0.,
          3.22061195e-03, 2.89855078e-02, 2.41545886e-02, 3.22061181e-02,
          8.05152953e-03, 0., 2.25442834e-02, 1.44927539e-02, 0.,
          9.66183562e-03, 3.22061181e-02, 3.22061181e-02, 8.05152953e-03,
          0., 2.41545886e-02, 1.93236712e-02, 0., 8.05152953e-03,
          2.89855078e-02, 2.41545886e-02, 2.25442834e-02, 1.61030598e-03,
          3.70370373e-02, 3.22061181e-02, 1.61030598e-03, 2.25442834e-02,
          2.41545886e-02, 9.66183562e-03, 3.86473425e-02, 4.02576476e-02,
          3.22061181e-02, 3.38164233e-02, 3.86473425e-02, 3.70370373e-02,
          6.44122390e-03, 0., 1.44927539e-02, 2.25442834e-02,
          3.22061195e-03, 4.83091781e-03, 2.57648956e-02, 1.44927539e-02,
          0. ]
      - [ 0., 2.09267568e-02, 1.04633784e-02, 0., 0., 1.04633784e-02,
          1.64424516e-02, 0., 1.49476836e-02, 3.73692065e-02,
          1.19581465e-02, 0., 0., 1.19581465e-02, 3.73692065e-02,
          1.04633784e-02, 2.69058291e-02, 2.09267568e-02, 0.,
          2.98953662e-03, 1.49476831e-03, 0., 2.24215239e-02,
          2.39162929e-02, 2.98953671e-02, 7.47384178e-03, 0.,
          1.94319878e-02, 1.49476836e-02, 0., 8.96861032e-03,
          2.98953671e-02, 2.98953671e-02, 7.47384178e-03, 0.,
          2.24215239e-02, 1.79372206e-02, 0., 5.97907323e-03,
          2.98953671e-02, 2.54110619e-02, 2.39162929e-02, 4.48430516e-03,
          3.43796723e-02, 3.13901342e-02, 5.97907323e-03, 2.39162929e-02,
          2.09267568e-02, 1.04633784e-02, 3.73692065e-02, 3.73692065e-02,
          2.98953671e-02, 3.28849033e-02, 3.73692065e-02, 3.58744413e-02,
          7.47384178e-03, 0., 1.79372206e-02, 2.69058291e-02,
          4.48430516e-03, 7.47384178e-03, 2.84005981e-02, 1.04633784e-02,
          0. ]
      - [ 0., 8.01603217e-03, 8.01603217e-03, 0., 0., 8.01603217e-03,
          8.01603217e-03, 0., 4.00801608e-03, 4.80961911e-02,
          1.60320643e-02, 0., 0., 2.00400800e-02, 4.80961911e-02, 0.,
          1.60320643e-02, 3.20641287e-02, 0., 0., 0., 0., 3.60721461e-02,
          1.60320643e-02, 2.20440887e-02, 2.00400800e-02, 0.,
          2.00400800e-02, 2.00400800e-02, 0., 1.80360731e-02,
          3.00601199e-02, 2.60521043e-02, 2.00400800e-02, 0.,
          2.00400800e-02, 2.00400800e-02, 0., 1.40280565e-02,
          2.60521043e-02, 1.60320643e-02, 3.20641287e-02, 0.,
          3.40681374e-02, 3.40681374e-02, 0., 3.20641287e-02,
          1.60320643e-02, 0., 4.20841686e-02, 5.01001999e-02,
          3.60721461e-02, 4.20841686e-02, 5.01001999e-02, 4.20841686e-02,
          0., 0., 4.00801608e-03, 2.00400800e-02, 0., 0., 2.00400800e-02,
          4.00801608e-03, 0. ]
      - [ 0., 1.07238609e-02, 2.68096523e-03, 0., 0., 5.36193047e-03,
          5.36193047e-03, 0., 5.36193047e-03, 5.36193028e-02,
          8.04289524e-03, 0., 0., 1.07238609e-02, 4.82573733e-02, 0.,
          3.75335105e-02, 1.34048257e-02, 0., 0., 0., 0., 3.21715809e-02,
          1.07238609e-02, 4.02144790e-02, 0., 0., 1.07238609e-02,
          5.36193047e-03, 0., 1.34048257e-02, 2.41286866e-02,
          4.02144790e-02, 0., 0., 2.68096514e-02, 2.14477219e-02, 0.,
          1.34048257e-02, 1.34048257e-02, 2.14477219e-02, 1.87667552e-02,
          1.34048257e-02, 6.16621971e-02, 4.55764085e-02, 1.34048257e-02,
          5.09383380e-02, 5.36193047e-03, 0., 5.09383380e-02,
          6.43431619e-02, 3.21715809e-02, 4.28954437e-02, 6.43431619e-02,
          3.75335105e-02, 0., 0., 2.68096523e-03, 1.07238609e-02, 0., 0.,
          1.07238609e-02, 0., 0. ]
      - [ 0., 0., 0., 0., 0., 0., 0., 0., 2.38095247e-03, 4.52380963e-02,
          2.14285720e-02, 0., 0., 9.52380989e-03, 4.28571440e-02,
          2.38095247e-03, 1.66666675e-02, 3.57142873e-02, 2.38095247e-03,
          0., 0., 0., 2.38095243e-02, 2.14285720e-02, 3.09523810e-02,
          1.66666675e-02, 0., 1.42857144e-02, 1.42857144e-02, 0.,
          1.19047621e-02, 3.57142873e-02, 3.57142873e-02, 1.19047621e-02,
          0., 2.38095243e-02, 2.85714287e-02, 0., 1.19047621e-02,
          3.57142873e-02, 2.14285720e-02, 3.57142873e-02, 1.19047621e-02,
          3.57142873e-02, 4.52380963e-02, 1.19047621e-02, 3.09523810e-02,
          2.14285720e-02, 2.38095247e-03, 4.52380963e-02, 5.95238097e-02,
          3.57142873e-02, 3.09523810e-02, 5.95238097e-02, 4.04761918e-02,
          2.38095247e-03, 0., 0., 1.42857144e-02, 0., 0., 0., 0., 0. ]
      - [ 0., 1.55642023e-02, 7.78210117e-03, 0., 0., 3.89105058e-03,
          9.72762611e-03, 0., 5.83657576e-03, 4.66926061e-02,
          7.78210117e-03, 0., 0., 9.72762611e-03, 4.86381315e-02,
          5.83657576e-03, 2.91828793e-02, 1.36186769e-02, 0., 0., 0., 0.,
          2.33463030e-02, 2.91828793e-02, 3.89105044e-02, 0., 0.,
          1.55642023e-02, 2.14007776e-02, 0., 0., 3.69649790e-02,
          3.69649790e-02, 0., 0., 2.52918284e-02, 2.91828793e-02, 0., 0.,
          3.89105044e-02, 2.72373538e-02, 2.14007776e-02, 0.,
          3.50194536e-02, 3.50194536e-02, 0., 1.55642023e-02,
          2.91828793e-02, 1.94552529e-03, 4.66926061e-02, 4.86381315e-02,
          3.50194536e-02, 3.50194536e-02, 4.28015552e-02, 4.86381315e-02,
          1.16731515e-02, 0., 5.83657576e-03, 1.75097268e-02,
          1.94552529e-03, 1.94552529e-03, 2.52918284e-02, 1.36186769e-02,
          0. ]
      - [ 0., 1.53550860e-02, 1.15163149e-02, 0., 0., 1.15163149e-02,
          1.72744729e-02, 0., 5.75815747e-03, 4.41458747e-02,
          1.34357009e-02, 0., 0., 1.34357009e-02, 4.41458747e-02,
          9.59692895e-03, 2.49520149e-02, 1.91938579e-02, 0., 0., 0., 0.,
          1.91938579e-02, 2.68714018e-02, 3.07101719e-02, 1.91938574e-03,
          0., 1.53550860e-02, 1.53550860e-02, 0., 3.83877149e-03,
          3.26295570e-02, 3.07101719e-02, 3.83877149e-03, 0.,
          2.11132430e-02, 2.11132430e-02, 0., 3.83877149e-03,
          3.07101719e-02, 2.49520149e-02, 1.91938579e-02, 1.91938574e-03,
          3.64683308e-02, 3.64683308e-02, 1.91938574e-03, 2.11132430e-02,
          2.68714018e-02, 5.75815747e-03, 4.22264859e-02, 4.03071009e-02,
          3.64683308e-02, 3.64683308e-02, 4.03071009e-02, 4.41458747e-02,
          5.75815747e-03, 0., 1.15163149e-02, 2.68714018e-02,
          5.75815747e-03, 5.75815747e-03, 2.68714018e-02, 1.53550860e-02,
          0. ]
      - [ 0., 0., 0., 0., 0., 1.97238661e-02, 1.57790929e-02, 0., 0., 0.,
          0., 3.94477323e-03, 3.74753438e-02, 4.93096635e-02,
          2.95857992e-02, 0., 0., 0., 1.97238661e-02, 4.53648902e-02,
          3.55029590e-02, 3.15581858e-02, 2.95857992e-02, 0.,
          9.86193307e-03, 3.94477323e-02, 4.73372787e-02, 2.16962527e-02,
          0., 1.97238661e-02, 2.95857992e-02, 0., 3.74753438e-02,
          4.14201170e-02, 5.91715984e-03, 3.94477323e-03, 9.86193307e-03,
          3.15581858e-02, 3.74753438e-02, 1.18343197e-02, 1.77514795e-02,
          0., 0., 2.95857992e-02, 4.93096635e-02, 4.93096635e-02,
          4.93096635e-02, 2.95857992e-02, 0., 0., 0., 7.88954645e-03,
          1.97238661e-02, 3.15581858e-02, 2.95857992e-02, 0., 0., 0., 0.,
          0., 0., 5.91715984e-03, 1.57790929e-02, 0. ]
      - [ 0., 0., 0., 0., 0., 1.55945420e-02, 1.75438598e-02, 0., 0., 0.,
          0., 7.79727101e-03, 3.70370373e-02, 4.87329438e-02,
          2.92397663e-02, 0., 0., 1.94931775e-03, 3.11890841e-02,
          4.87329438e-02, 3.70370373e-02, 2.33918130e-02, 2.92397663e-02,
          0., 1.75438598e-02, 4.48343083e-02, 4.67836261e-02,
          2.33918130e-02, 0., 9.74658877e-03, 2.92397663e-02, 0.,
          3.89863551e-02, 3.70370373e-02, 7.79727101e-03, 3.89863551e-03,
          1.16959065e-02, 2.14424953e-02, 3.89863551e-02, 1.55945420e-02,
          1.16959065e-02, 0., 0., 1.94931775e-02, 4.87329438e-02,
          4.87329438e-02, 4.87329438e-02, 3.89863551e-02, 0., 0., 0.,
          5.84795326e-03, 1.55945420e-02, 1.94931775e-02, 3.70370373e-02,
          7.79727101e-03, 0., 0., 0., 0., 0., 5.84795326e-03,
          1.75438598e-02, 0. ]
      - [ 0., 0., 0., 0., 1.87265920e-03, 2.24719103e-02, 1.68539323e-02,
          0., 0., 0., 0., 1.31086139e-02, 4.11985032e-02, 4.68164794e-02,
          2.80898884e-02, 0., 0., 1.87265920e-03, 3.18352059e-02,
          4.68164794e-02, 3.37078646e-02, 1.31086139e-02, 2.99625471e-02,
          0., 1.31086139e-02, 4.11985032e-02, 4.49438207e-02,
          2.24719103e-02, 0., 9.36329551e-03, 3.18352059e-02, 0.,
          3.55805233e-02, 3.55805233e-02, 5.61797759e-03, 5.61797759e-03,
          1.87265910e-02, 2.43445691e-02, 4.30711620e-02, 2.05992516e-02,
          1.31086139e-02, 0., 0., 1.87265910e-02, 4.68164794e-02,
          4.68164794e-02, 4.68164794e-02, 3.74531820e-02, 0., 0., 0.,
          7.49063678e-03, 1.68539323e-02, 1.68539323e-02, 3.93258445e-02,
          5.61797759e-03, 0., 0., 0., 0., 0., 3.74531839e-03,
          2.05992516e-02, 0. ]
      - [ 0., 0., 0., 0., 7.35294120e-03, 2.94117648e-02, 2.75735296e-02,
          0., 0., 0., 1.83823530e-03, 2.38970593e-02, 4.41176482e-02,
          4.59558815e-02, 3.67647074e-02, 0., 0., 1.65441185e-02,
          4.22794111e-02, 4.41176482e-02, 2.38970593e-02, 9.19117685e-03,
          3.67647074e-02, 0., 2.94117648e-02, 4.59558815e-02,
          3.30882370e-02, 7.35294120e-03, 0., 9.19117685e-03,
          3.12500000e-02, 0., 3.12500000e-02, 1.47058824e-02, 0.,
          7.35294120e-03, 1.83823537e-02, 2.38970593e-02, 4.04411778e-02,
          1.47058824e-02, 0., 0., 0., 1.83823537e-02, 4.59558815e-02,
          4.59558815e-02, 4.59558815e-02, 3.67647074e-02, 0., 0., 0.,
          3.67647060e-03, 9.19117685e-03, 1.83823537e-02, 3.86029407e-02,
          7.35294120e-03, 0., 0., 0., 0., 0., 5.51470602e-03,
          2.75735296e-02, 0. ]
      - [ 0., 0., 0., 0., 1.89753319e-03, 2.46679317e-02, 2.65654642e-02,
          0., 0., 0., 3.79506638e-03, 2.27703992e-02, 4.36432622e-02,
          4.74383309e-02, 3.79506648e-02, 0., 0., 1.70777980e-02,
          4.36432622e-02, 4.74383309e-02, 3.03605311e-02, 1.51802655e-02,
          3.03605311e-02, 0., 3.41555960e-02, 4.74383309e-02,
          2.84629986e-02, 7.59013277e-03, 0., 9.48766619e-03,
          2.84629986e-02, 0., 2.84629986e-02, 1.32827321e-02, 0.,
          7.59013277e-03, 1.89753324e-02, 2.46679317e-02, 3.60531323e-02,
          1.32827321e-02, 0., 0., 0., 1.89753324e-02, 4.74383309e-02,
          4.74383309e-02, 4.74383309e-02, 3.79506648e-02, 0., 0., 0.,
          3.79506638e-03, 9.48766619e-03, 1.89753324e-02, 3.60531323e-02,
          1.51802655e-02, 0., 0., 0., 0., 0., 5.69259981e-03,
          2.08728649e-02, 0. ]
      - [ 4.82315104e-03, 1.76848881e-02, 2.41157562e-02, 2.41157562e-02,
          1.44694531e-02, 0., 1.76848881e-02, 0., 3.05466242e-02,
          4.01929244e-02, 3.69774923e-02, 4.01929244e-02, 2.09003221e-02,
          0., 3.69774923e-02, 1.28617361e-02, 3.21543403e-02,
          1.44694531e-02, 1.12540191e-02, 3.53697762e-02, 1.60771701e-03,
          0., 9.64630209e-03, 2.89389063e-02, 3.21543403e-02,
          8.03858507e-03, 8.03858507e-03, 2.41157562e-02, 0., 0., 0.,
          3.21543403e-02, 3.21543403e-02, 8.03858507e-03, 6.43086806e-03,
          2.57234722e-02, 0., 0., 1.60771701e-03, 3.05466242e-02,
          3.21543403e-02, 8.03858507e-03, 0., 3.53697762e-02,
          1.12540191e-02, 8.03858507e-03, 2.57234722e-02, 1.92926042e-02,
          3.21543403e-02, 8.03858507e-03, 0., 1.76848881e-02,
          3.85852084e-02, 3.85852084e-02, 2.89389063e-02, 1.60771701e-03,
          1.60771701e-02, 1.60771701e-03, 0., 0., 6.43086806e-03,
          6.43086806e-03, 0., 0. ]
      - [ 5.44464588e-03, 9.07441042e-03, 9.07441042e-03, 9.07441042e-03,
          5.44464588e-03, 0., 1.08892918e-02, 0., 3.44827585e-02,
          4.53720503e-02, 4.53720503e-02, 4.53720503e-02, 2.72232313e-02,
          0., 4.35571671e-02, 7.25952815e-03, 3.62976417e-02,
          1.63339376e-02, 9.07441042e-03, 3.81125212e-02, 0., 0.,
          1.27041740e-02, 2.72232313e-02, 3.62976417e-02, 9.07441042e-03,
          9.07441042e-03, 2.72232313e-02, 0., 0., 0., 3.62976417e-02,
          3.62976417e-02, 9.07441042e-03, 9.07441042e-03, 2.72232313e-02,
          0., 0., 3.62976408e-03, 3.26678753e-02, 3.62976417e-02,
          9.07441042e-03, 0., 3.99274044e-02, 7.25952815e-03,
          7.25952815e-03, 2.72232313e-02, 1.99637022e-02, 3.62976417e-02,
          9.07441042e-03, 0., 1.45190563e-02, 3.62976417e-02,
          3.62976417e-02, 2.90381126e-02, 1.81488204e-03, 1.45190563e-02,
          1.81488204e-03, 0., 0., 0., 0., 0., 0. ]
      - [ 5.42495493e-03, 1.26582282e-02, 2.71247737e-02, 2.71247737e-02,
          1.80831831e-02, 0., 1.44665465e-02, 0., 2.71247737e-02,
          3.97830009e-02, 3.79746817e-02, 4.52079549e-02, 2.89330930e-02,
          0., 4.15913202e-02, 7.23327324e-03, 2.71247737e-02,
          1.08499099e-02, 3.61663662e-03, 3.97830009e-02, 1.80831831e-03,
          0., 1.80831831e-02, 2.35081371e-02, 2.71247737e-02,
          9.04159155e-03, 9.04159155e-03, 2.71247737e-02, 0., 0.,
          1.80831831e-03, 2.71247737e-02, 2.53164563e-02, 9.04159155e-03,
          7.23327324e-03, 2.89330930e-02, 0., 0., 9.04159155e-03,
          2.71247737e-02, 1.80831831e-02, 9.04159155e-03, 0.,
          3.97830009e-02, 1.26582282e-02, 9.04159155e-03, 3.07414103e-02,
          1.62748639e-02, 1.80831831e-02, 9.04159155e-03, 0.,
          1.98915005e-02, 4.33996394e-02, 4.52079549e-02, 3.07414103e-02,
          1.80831831e-03, 1.08499099e-02, 1.80831831e-03, 0., 0.,
          7.23327324e-03, 9.04159155e-03, 1.80831831e-03, 0. ]
      - [ 6.26959233e-03, 1.25391847e-02, 1.56739820e-02, 1.56739820e-02,
          1.41065829e-02, 3.13479616e-03, 1.25391847e-02, 0.,
          3.13479640e-02, 3.91849540e-02, 3.91849540e-02, 3.91849540e-02,
          2.97805648e-02, 4.70219413e-03, 3.91849540e-02, 7.83699099e-03,
          3.13479640e-02, 3.13479616e-03, 1.09717865e-02, 3.13479640e-02,
          3.13479616e-03, 0., 1.88087765e-02, 2.03761756e-02,
          3.13479640e-02, 0., 1.41065829e-02, 2.03761756e-02, 0., 0.,
          7.83699099e-03, 3.13479640e-02, 3.13479640e-02, 0.,
          1.41065829e-02, 2.19435729e-02, 0., 0., 7.83699099e-03,
          2.97805648e-02, 3.13479640e-02, 4.70219413e-03, 3.13479616e-03,
          3.44827585e-02, 6.26959233e-03, 0., 2.19435729e-02,
          1.88087765e-02, 3.13479640e-02, 7.83699099e-03, 0.,
          2.50783693e-02, 3.91849540e-02, 3.91849540e-02, 3.60501558e-02,
          4.70219413e-03, 1.56739820e-02, 3.13479616e-03, 0.,
          3.13479616e-03, 1.41065829e-02, 1.56739820e-02, 4.70219413e-03,
          0. ]
      - [ 9.60000046e-03, 1.60000008e-02, 1.60000008e-02, 2.08000001e-02,
          1.75999999e-02, 4.80000023e-03, 1.27999997e-02, 0.,
          3.20000015e-02, 3.99999991e-02, 3.99999991e-02, 3.99999991e-02,
          2.72000004e-02, 9.60000046e-03, 3.99999991e-02, 8.00000038e-03,
          3.04000005e-02, 9.60000046e-03, 8.00000038e-03, 3.20000015e-02,
          0., 0., 1.92000009e-02, 2.23999992e-02, 2.40000002e-02,
          8.00000038e-03, 1.43999998e-02, 2.40000002e-02, 0., 0.,
          8.00000038e-03, 2.40000002e-02, 2.40000002e-02, 8.00000038e-03,
          1.11999996e-02, 2.40000002e-02, 0., 0., 8.00000038e-03,
          2.40000002e-02, 2.40000002e-02, 8.00000038e-03, 4.80000023e-03,
          3.84000018e-02, 1.11999996e-02, 9.60000046e-03, 3.04000005e-02,
          1.60000008e-02, 2.40000002e-02, 9.60000046e-03, 0.,
          2.08000001e-02, 3.99999991e-02, 3.99999991e-02, 3.04000005e-02,
          0., 1.43999998e-02, 4.80000023e-03, 0., 0., 6.39999984e-03,
          8.00000038e-03, 1.59999996e-03, 0. ]
      - [ 1.23456791e-02, 1.85185187e-02, 2.31481474e-02, 2.31481474e-02,
          1.85185187e-02, 4.62962966e-03, 1.54320989e-02, 0.,
          3.08641978e-02, 3.39506157e-02, 3.39506157e-02, 3.85802463e-02,
          2.46913582e-02, 6.17283955e-03, 3.70370373e-02, 7.71604944e-03,
          3.08641978e-02, 0., 1.08024692e-02, 2.93209869e-02, 0., 0.,
          1.69753078e-02, 1.85185187e-02, 3.08641978e-02, 0.,
          1.54320989e-02, 2.31481474e-02, 0., 0., 7.71604944e-03,
          2.62345672e-02, 3.08641978e-02, 4.62962966e-03, 1.54320989e-02,
          2.46913582e-02, 0., 0., 9.25925933e-03, 2.31481474e-02,
          3.08641978e-02, 7.71604944e-03, 3.08641978e-03, 3.54938284e-02,
          1.69753078e-02, 1.54320989e-02, 2.93209869e-02, 1.23456791e-02,
          3.08641978e-02, 7.71604944e-03, 0., 2.00617276e-02,
          3.85802463e-02, 3.85802463e-02, 3.08641978e-02, 1.54320989e-03,
          1.38888890e-02, 3.08641978e-03, 0., 0., 7.71604944e-03,
          7.71604944e-03, 1.54320989e-03, 0. ]
      - [ 8.23045243e-03, 2.05761325e-02, 2.05761325e-02, 2.05761325e-02,
          1.64609049e-02, 4.11522621e-03, 8.23045243e-03, 0.,
          2.05761325e-02, 3.90946493e-02, 3.49794254e-02, 5.14403284e-02,
          3.29218097e-02, 6.17283955e-03, 4.52674888e-02, 4.11522621e-03,
          2.05761325e-02, 1.02880662e-02, 2.05761311e-03, 3.49794254e-02,
          0., 0., 1.44032920e-02, 1.64609049e-02, 2.46913582e-02,
          1.02880662e-02, 1.02880662e-02, 2.05761325e-02, 0., 0.,
          1.02880662e-02, 2.46913582e-02, 2.46913582e-02, 1.02880662e-02,
          1.02880662e-02, 2.46913582e-02, 0., 0., 1.02880662e-02,
          2.05761325e-02, 3.08641978e-02, 1.02880662e-02, 0.,
          4.11522649e-02, 2.05761325e-02, 2.05761325e-02, 3.70370373e-02,
          8.23045243e-03, 3.08641978e-02, 1.02880662e-02, 0.,
          2.05761325e-02, 4.93827164e-02, 5.14403284e-02, 3.08641978e-02,
          0., 4.11522621e-03, 0., 0., 0., 0., 0., 0., 0. ]
      - [ 6.89655170e-03, 8.62068962e-03, 8.62068962e-03, 8.62068962e-03,
          6.89655170e-03, 0., 3.44827585e-03, 0., 3.44827585e-02,
          3.96551713e-02, 3.79310362e-02, 4.31034490e-02, 3.27586196e-02,
          0., 4.13793102e-02, 5.17241377e-03, 3.44827585e-02,
          1.20689655e-02, 1.03448275e-02, 3.62068973e-02, 5.17241377e-03,
          0., 2.24137940e-02, 2.58620698e-02, 3.44827585e-02,
          8.62068962e-03, 1.03448275e-02, 1.89655181e-02, 0., 0.,
          1.72413792e-03, 3.44827585e-02, 3.44827585e-02, 8.62068962e-03,
          1.03448275e-02, 1.89655181e-02, 0., 0., 1.72413792e-03,
          3.44827585e-02, 3.44827585e-02, 8.62068962e-03, 1.72413792e-03,
          3.44827585e-02, 3.44827585e-03, 0., 2.24137940e-02,
          2.24137940e-02, 3.44827585e-02, 8.62068962e-03, 0.,
          2.75862068e-02, 3.79310362e-02, 3.44827585e-02, 3.96551713e-02,
          5.17241377e-03, 2.06896551e-02, 1.72413792e-03, 0., 0.,
          8.62068962e-03, 8.62068962e-03, 3.44827585e-03, 0. ]
      - [ 1.43312104e-02, 2.38853507e-02, 2.38853507e-02, 2.38853507e-02,
          1.91082805e-02, 0., 1.59235671e-02, 0., 2.38853507e-02,
          3.66242044e-02, 2.70700641e-02, 3.98089178e-02, 2.54777074e-02,
          0., 3.66242044e-02, 7.96178356e-03, 2.38853507e-02,
          9.55414027e-03, 7.96178356e-03, 3.50318477e-02, 0., 0.,
          1.27388537e-02, 2.70700641e-02, 2.38853507e-02, 7.96178356e-03,
          1.27388537e-02, 2.38853507e-02, 0., 0., 1.59235671e-03,
          3.18471342e-02, 2.54777074e-02, 7.96178356e-03, 9.55414027e-03,
          2.70700641e-02, 0., 0., 3.18471342e-03, 3.18471342e-02,
          3.18471342e-02, 1.43312104e-02, 1.59235671e-03, 3.66242044e-02,
          3.18471342e-03, 0., 1.91082805e-02, 2.38853507e-02,
          3.18471342e-02, 1.59235671e-02, 0., 1.59235671e-02,
          3.98089178e-02, 3.98089178e-02, 3.66242044e-02, 3.18471342e-03,
          1.43312104e-02, 6.36942685e-03, 0., 0., 1.11464970e-02,
          7.96178356e-03, 4.77707013e-03, 0. ]
      - [ 6.62251655e-03, 8.27814545e-03, 8.27814545e-03, 2.15231795e-02,
          1.15894042e-02, 0., 1.65562909e-02, 0., 3.31125818e-02,
          4.13907282e-02, 4.13907282e-02, 4.13907282e-02, 2.15231795e-02,
          0., 4.13907282e-02, 8.27814545e-03, 3.31125818e-02,
          8.27814545e-03, 3.31125828e-03, 3.31125818e-02, 0., 0.,
          1.15894042e-02, 2.81456951e-02, 3.31125818e-02, 8.27814545e-03,
          6.62251655e-03, 2.48344373e-02, 0., 0., 1.65562914e-03,
          3.31125818e-02, 3.31125818e-02, 8.27814545e-03, 8.27814545e-03,
          2.48344373e-02, 0., 0., 4.96688765e-03, 3.14569548e-02,
          3.31125818e-02, 8.27814545e-03, 0., 3.47682126e-02,
          1.82119198e-02, 1.65562909e-02, 2.48344373e-02, 1.65562909e-02,
          3.31125818e-02, 8.27814545e-03, 0., 1.82119198e-02,
          4.13907282e-02, 4.13907282e-02, 3.64238396e-02, 0.,
          1.65562909e-02, 1.65562914e-03, 0., 0., 4.96688765e-03,
          8.27814545e-03, 0., 0. ]
      - [ 0., 6.98080286e-03, 1.74520072e-02, 1.74520072e-02,
          1.74520072e-02, 1.74520072e-02, 1.04712043e-02, 0.,
          3.49040143e-03, 3.66492160e-02, 4.36300188e-02, 4.36300188e-02,
          4.36300188e-02, 3.31588127e-02, 4.18848172e-02, 3.49040143e-03,
          1.57068055e-02, 2.44328100e-02, 0., 4.01396155e-02,
          1.74520072e-03, 0., 1.57068055e-02, 2.09424086e-02,
          2.61780098e-02, 8.72600358e-03, 3.49040143e-03, 2.61780098e-02,
          0., 0., 0., 2.61780098e-02, 2.61780098e-02, 8.72600358e-03,
          3.49040143e-03, 2.61780098e-02, 0., 0., 3.49040143e-03,
          2.61780098e-02, 1.57068055e-02, 1.57068055e-02, 0.,
          3.49040143e-02, 1.74520072e-03, 0., 1.57068055e-02,
          1.91972069e-02, 3.49040143e-03, 4.18848172e-02, 5.23560215e-03,
          1.91972069e-02, 4.36300188e-02, 4.36300188e-02, 4.01396155e-02,
          3.49040143e-03, 0., 1.04712043e-02, 3.49040143e-03,
          1.74520072e-03, 1.57068055e-02, 1.74520072e-02, 6.98080286e-03,
          0. ]
      - [ 0., 8.55920091e-03, 1.42653352e-02, 1.42653352e-02,
          1.42653352e-02, 1.42653352e-02, 1.14122685e-02, 0.,
          2.85306713e-03, 3.42368037e-02, 3.56633365e-02, 3.56633365e-02,
          3.56633365e-02, 3.56633365e-02, 3.56633365e-02, 8.55920091e-03,
          1.71184018e-02, 1.99714694e-02, 7.13266758e-03, 3.28102708e-02,
          1.42653356e-03, 0., 1.99714694e-02, 2.42510699e-02,
          2.56776027e-02, 1.14122685e-02, 7.13266758e-03, 2.85306703e-02,
          0., 0., 7.13266758e-03, 2.85306703e-02, 2.56776027e-02,
          1.14122685e-02, 7.13266758e-03, 2.85306703e-02, 0., 0.,
          7.13266758e-03, 2.85306703e-02, 1.99714694e-02, 1.99714694e-02,
          2.85306713e-03, 3.42368037e-02, 1.42653356e-03, 0.,
          1.71184018e-02, 2.28245370e-02, 2.85306713e-03, 3.42368037e-02,
          1.14122685e-02, 2.28245370e-02, 3.56633365e-02, 3.56633365e-02,
          3.42368037e-02, 8.55920091e-03, 0., 8.55920091e-03,
          5.70613425e-03, 2.85306713e-03, 1.42653352e-02, 1.42653352e-02,
          9.98573471e-03, 0. ]
      - [ 0., 1.12834983e-02, 2.11565588e-02, 2.11565588e-02,
          2.11565588e-02, 2.11565588e-02, 9.87306051e-03, 0.,
          5.64174913e-03, 3.52609307e-02, 2.96191815e-02, 3.52609307e-02,
          3.52609307e-02, 3.52609307e-02, 3.52609307e-02, 5.64174913e-03,
          1.83356833e-02, 1.55148096e-02, 7.05218595e-03, 3.10296193e-02,
          1.41043728e-03, 0., 2.11565588e-02, 1.97461210e-02,
          2.82087438e-02, 4.23131185e-03, 7.05218595e-03, 2.11565588e-02,
          0., 0., 5.64174913e-03, 2.82087438e-02, 2.82087438e-02,
          4.23131185e-03, 8.46262369e-03, 2.11565588e-02, 0., 0.,
          2.82087456e-03, 2.82087438e-02, 1.97461210e-02, 1.55148096e-02,
          4.23131185e-03, 3.10296193e-02, 1.41043728e-03, 0.,
          1.41043719e-02, 2.25669965e-02, 7.05218595e-03, 3.52609307e-02,
          5.64174913e-03, 2.39774324e-02, 3.10296193e-02, 2.82087438e-02,
          3.52609307e-02, 8.46262369e-03, 0., 1.69252474e-02,
          4.23131185e-03, 4.23131185e-03, 2.25669965e-02, 2.82087438e-02,
          1.55148096e-02, 0. ]
      - [ 0., 3.96825420e-03, 1.98412705e-02, 1.98412705e-02,
          1.98412705e-02, 1.98412705e-02, 7.93650839e-03, 0.,
          1.98412710e-03, 3.37301604e-02, 3.96825410e-02, 4.96031754e-02,
          4.16666679e-02, 3.17460336e-02, 3.96825410e-02, 7.93650839e-03,
          1.58730168e-02, 2.18253974e-02, 0., 3.17460336e-02,
          3.96825420e-03, 0., 1.38888890e-02, 2.18253974e-02,
          2.77777780e-02, 9.92063526e-03, 7.93650839e-03, 2.77777780e-02,
          0., 0., 5.95238106e-03, 2.57936511e-02, 2.38095243e-02,
          1.19047621e-02, 7.93650839e-03, 2.77777780e-02, 0., 0.,
          5.95238106e-03, 2.38095243e-02, 1.58730168e-02, 2.77777780e-02,
          0., 2.77777780e-02, 3.96825420e-03, 0., 2.57936511e-02,
          1.58730168e-02, 1.98412710e-03, 3.76984142e-02, 7.93650839e-03,
          1.78571437e-02, 4.16666679e-02, 3.96825410e-02, 3.76984142e-02,
          1.98412710e-03, 0., 3.96825420e-03, 3.96825420e-03, 0.,
          1.19047621e-02, 1.98412705e-02, 3.96825420e-03, 0. ]
      - [ 0., 1.27186012e-02, 2.38473769e-02, 2.38473769e-02,
          2.38473769e-02, 2.38473769e-02, 1.27186012e-02, 0.,
          6.35930058e-03, 3.65659781e-02, 2.38473769e-02, 3.97456288e-02,
          3.02066766e-02, 2.86168531e-02, 3.81558016e-02, 6.35930058e-03,
          2.38473769e-02, 1.43084265e-02, 1.58982514e-03, 3.17965038e-02,
          0., 0., 1.74880754e-02, 2.38473769e-02, 2.54372023e-02, 0.,
          9.53895040e-03, 2.38473769e-02, 0., 0., 4.76947520e-03,
          2.54372023e-02, 2.54372023e-02, 4.76947520e-03, 9.53895040e-03,
          2.38473769e-02, 0., 0., 4.76947520e-03, 2.70270277e-02,
          2.06677262e-02, 1.74880754e-02, 1.58982514e-03, 3.33863273e-02,
          0., 0., 1.74880754e-02, 2.06677262e-02, 6.35930058e-03,
          3.97456288e-02, 6.35930058e-03, 2.38473769e-02, 3.49761508e-02,
          3.17965038e-02, 3.81558016e-02, 6.35930058e-03, 0.,
          7.94912595e-03, 3.17965029e-03, 3.17965029e-03, 2.22575516e-02,
          2.38473769e-02, 1.27186012e-02, 0. ]
      - [ 0., 1.10410098e-02, 2.36593056e-02, 1.73501577e-02,
          1.57728698e-02, 1.57728698e-02, 7.88643491e-03, 0.,
          9.46372282e-03, 3.62776034e-02, 3.15457396e-02, 3.94321755e-02,
          3.47003154e-02, 3.15457396e-02, 3.94321755e-02, 4.73186141e-03,
          2.52365936e-02, 1.41955838e-02, 1.57728710e-03, 3.31230275e-02,
          0., 0., 1.89274456e-02, 2.36593056e-02, 3.15457396e-02, 0.,
          1.10410098e-02, 2.36593056e-02, 0., 0., 1.57728710e-03,
          2.99684536e-02, 3.15457396e-02, 0., 1.10410098e-02,
          2.36593056e-02, 0., 0., 0., 3.15457396e-02, 2.36593056e-02,
          1.73501577e-02, 1.57728710e-03, 3.47003154e-02, 0., 0.,
          1.57728698e-02, 2.36593056e-02, 6.30914839e-03, 3.94321755e-02,
          0., 2.83911675e-02, 3.47003154e-02, 3.15457396e-02,
          3.78548913e-02, 4.73186141e-03, 0., 9.46372282e-03, 0.,
          3.15457419e-03, 2.05047317e-02, 2.36593056e-02, 1.26182968e-02,
          0. ]
      - [ 0., 1.13851996e-02, 1.89753324e-02, 1.89753324e-02,
          1.89753324e-02, 1.89753324e-02, 7.59013277e-03, 0.,
          3.79506638e-03, 4.17457297e-02, 2.84629986e-02, 4.74383309e-02,
          3.60531323e-02, 2.84629986e-02, 4.17457297e-02, 3.79506638e-03,
          2.08728649e-02, 1.32827321e-02, 1.89753319e-03, 3.22580636e-02,
          0., 0., 1.32827321e-02, 2.08728649e-02, 2.84629986e-02,
          9.48766619e-03, 9.48766619e-03, 1.89753324e-02, 0., 0.,
          3.79506638e-03, 2.84629986e-02, 2.84629986e-02, 9.48766619e-03,
          9.48766619e-03, 2.27703992e-02, 0., 0., 7.59013277e-03,
          2.84629986e-02, 1.51802655e-02, 2.65654642e-02, 1.89753319e-03,
          3.60531323e-02, 7.59013277e-03, 0., 2.08728649e-02,
          1.51802655e-02, 0., 3.98481973e-02, 5.69259981e-03,
          2.84629986e-02, 4.74383309e-02, 4.74383309e-02, 3.98481973e-02,
          3.79506638e-03, 0., 0., 0., 0., 7.59013277e-03, 1.89753324e-02,
          3.79506638e-03, 0. ]
      - [ 0., 5.83090400e-03, 1.45772593e-02, 1.60349850e-02,
          2.18658894e-02, 2.18658894e-02, 1.16618080e-02, 0.,
          5.83090400e-03, 3.49854231e-02, 3.64431478e-02, 3.64431478e-02,
          3.20699699e-02, 2.91545186e-02, 3.49854231e-02, 7.28862965e-03,
          2.33236160e-02, 1.89504381e-02, 7.28862965e-03, 3.06122452e-02,
          1.45772600e-03, 0., 1.60349850e-02, 2.04081628e-02,
          2.91545186e-02, 7.28862965e-03, 1.16618080e-02, 2.18658894e-02,
          0., 0., 7.28862965e-03, 2.91545186e-02, 2.91545186e-02,
          7.28862965e-03, 1.02040814e-02, 2.33236160e-02, 0., 0.,
          7.28862965e-03, 2.91545186e-02, 2.62390673e-02, 1.60349850e-02,
          0., 3.35276984e-02, 4.37317789e-03, 0., 2.33236160e-02,
          1.89504381e-02, 8.74635577e-03, 3.64431478e-02, 7.28862965e-03,
          2.47813407e-02, 3.64431478e-02, 3.64431478e-02, 3.20699699e-02,
          2.91545200e-03, 0., 1.31195337e-02, 5.83090400e-03,
          1.45772600e-03, 1.31195337e-02, 1.45772593e-02, 4.37317789e-03,
          0. ]
      - [ 0., 5.22648077e-03, 1.56794433e-02, 1.74216032e-02,
          1.74216032e-02, 1.74216032e-02, 5.22648077e-03, 0., 0.,
          3.65853645e-02, 4.35540080e-02, 4.35540080e-02, 4.35540080e-02,
          4.35540080e-02, 3.65853645e-02, 0., 1.56794433e-02,
          2.43902430e-02, 8.71080160e-03, 3.31010446e-02, 1.74216030e-03,
          0., 2.09059231e-02, 1.56794433e-02, 2.61324048e-02,
          8.71080160e-03, 8.71080160e-03, 2.26480830e-02, 0., 0.,
          5.22648077e-03, 2.61324048e-02, 2.61324048e-02, 8.71080160e-03,
          8.71080160e-03, 2.26480830e-02, 0., 0., 5.22648077e-03,
          2.61324048e-02, 1.74216032e-02, 2.09059231e-02, 0.,
          3.31010446e-02, 3.48432059e-03, 0., 1.74216032e-02,
          1.56794433e-02, 3.48432059e-03, 4.00696881e-02, 8.71080160e-03,
          2.61324048e-02, 4.35540080e-02, 4.35540080e-02, 3.65853645e-02,
          0., 0., 6.96864119e-03, 3.48432059e-03, 1.74216030e-03,
          1.39372824e-02, 1.74216032e-02, 5.22648077e-03, 0. ]
      - [ 0., 0., 1.74825173e-02, 1.74825173e-02, 1.74825173e-02,
          1.74825173e-02, 3.49650346e-03, 0., 0., 3.67132872e-02,
          4.37062941e-02, 4.37062941e-02, 3.67132872e-02, 3.67132872e-02,
          4.02097888e-02, 3.49650346e-03, 1.39860138e-02, 2.79720277e-02,
          0., 3.84615399e-02, 0., 0., 1.92307699e-02, 1.39860138e-02,
          2.27272734e-02, 1.74825173e-02, 5.24475519e-03, 2.62237769e-02,
          0., 0., 8.74125864e-03, 2.62237769e-02, 2.27272734e-02,
          1.74825173e-02, 1.74825173e-03, 2.97202803e-02, 0., 0.,
          8.74125864e-03, 2.62237769e-02, 1.39860138e-02, 2.79720277e-02,
          0., 3.14685330e-02, 3.49650346e-03, 0., 2.09790207e-02,
          1.39860138e-02, 3.49650346e-03, 4.02097888e-02, 1.39860138e-02,
          2.62237769e-02, 3.67132872e-02, 2.97202803e-02, 4.02097888e-02,
          3.49650346e-03, 0., 6.99300691e-03, 6.99300691e-03, 0.,
          1.74825173e-02, 1.74825173e-02, 3.49650346e-03, 0. ]
      - [ 8.73362459e-03, 1.09170303e-02, 0., 0., 0., 0., 0.,
          8.73362459e-03, 4.36681211e-02, 5.45851514e-02, 0., 0., 0.,
          2.18340615e-03, 3.27510908e-02, 4.14847173e-02, 4.36681211e-02,
          1.09170303e-02, 0., 0., 2.18340615e-03, 3.71179022e-02,
          5.02183400e-02, 1.52838426e-02, 4.36681211e-02, 0., 0.,
          1.09170303e-02, 4.14847173e-02, 4.58515286e-02, 1.09170303e-02,
          0., 4.36681211e-02, 0., 1.74672492e-02, 5.02183400e-02,
          4.14847173e-02, 4.36681230e-03, 0., 0., 4.36681211e-02,
          3.49344984e-02, 5.02183400e-02, 3.27510908e-02, 2.18340615e-03,
          0., 0., 0., 4.36681211e-02, 5.24017476e-02, 2.40174681e-02, 0.,
          0., 0., 0., 0., 2.62008738e-02, 1.74672492e-02, 0., 0., 0., 0.,
          0., 0. ]
      - [ 2.83185840e-02, 3.53982300e-02, 0., 0., 0., 0., 1.76991150e-03,
          2.30088495e-02, 3.53982300e-02, 4.42477874e-02, 0., 0., 0.,
          5.30973449e-03, 3.36283185e-02, 3.53982300e-02, 3.53982300e-02,
          1.59292035e-02, 0., 0., 8.84955749e-03, 3.89380530e-02,
          4.42477874e-02, 1.76991150e-02, 3.53982300e-02, 3.53982300e-03,
          0., 1.76991150e-02, 4.24778759e-02, 4.24778759e-02,
          1.06194690e-02, 0., 3.53982300e-02, 8.84955749e-03,
          2.12389380e-02, 4.42477874e-02, 3.53982300e-02, 5.30973449e-03,
          0., 0., 3.53982300e-02, 3.53982300e-02, 4.42477874e-02,
          2.83185840e-02, 1.76991150e-03, 0., 0., 0., 3.53982300e-02,
          4.42477874e-02, 2.30088495e-02, 0., 0., 0., 0., 0.,
          2.83185840e-02, 1.76991150e-02, 0., 0., 0., 0., 0., 0. ]
      - [ 1.48514854e-02, 1.73267331e-02, 4.95049497e-03, 0., 0., 0., 0.,
          0., 3.71287130e-02, 6.18811883e-02, 2.47524753e-02, 0., 0., 0.,
          4.95049497e-03, 2.97029708e-02, 3.71287130e-02, 2.72277221e-02,
          2.47524749e-03, 0., 0., 1.98019799e-02, 5.69306947e-02,
          2.72277221e-02, 3.71287130e-02, 1.23762377e-02, 0., 0.,
          2.47524753e-02, 6.18811883e-02, 2.47524753e-02, 0.,
          3.71287130e-02, 1.23762377e-02, 0., 3.71287130e-02,
          5.19801974e-02, 1.48514854e-02, 0., 0., 3.71287130e-02,
          2.22772285e-02, 4.20792066e-02, 4.95049506e-02, 4.95049497e-03,
          0., 0., 0., 3.71287130e-02, 6.18811883e-02, 2.97029708e-02, 0.,
          0., 0., 0., 0., 1.48514854e-02, 1.98019799e-02, 0., 0., 0., 0.,
          0., 0. ]
      - [ 2.80373823e-02, 3.73831764e-02, 1.30841117e-02, 0., 0., 0.,
          1.86915894e-03, 1.86915882e-02, 3.73831764e-02, 4.67289723e-02,
          1.68224294e-02, 0., 0., 1.86915894e-03, 3.36448587e-02,
          3.73831764e-02, 3.73831764e-02, 1.12149529e-02, 0., 0.,
          7.47663574e-03, 3.55140194e-02, 4.11214940e-02, 1.12149529e-02,
          3.73831764e-02, 9.34579410e-03, 0., 5.60747646e-03,
          4.11214940e-02, 4.11214940e-02, 5.60747646e-03, 0.,
          3.73831764e-02, 9.34579410e-03, 1.12149529e-02, 4.48598117e-02,
          3.55140194e-02, 1.86915894e-03, 0., 0., 3.73831764e-02,
          2.80373823e-02, 4.48598117e-02, 2.99065430e-02, 3.73831787e-03,
          0., 0., 0., 3.73831764e-02, 4.67289723e-02, 2.61682235e-02, 0.,
          0., 0., 0., 0., 2.99065430e-02, 1.86915882e-02, 0., 0., 0., 0.,
          0., 0. ]
      - [ 1.98807158e-02, 2.98210736e-02, 7.95228593e-03, 0., 0., 0., 0.,
          3.97614297e-03, 3.97614315e-02, 4.97017875e-02, 1.78926438e-02,
          0., 0., 0., 1.98807158e-02, 3.57852876e-02, 3.97614315e-02,
          1.98807158e-02, 1.98807148e-03, 0., 3.97614297e-03,
          2.58449297e-02, 4.77137193e-02, 1.98807158e-02, 3.97614315e-02,
          9.94035788e-03, 0., 7.95228593e-03, 3.77733596e-02,
          4.57256474e-02, 1.59045719e-02, 0., 3.97614315e-02,
          9.94035788e-03, 1.19284298e-02, 4.37375754e-02, 4.17495035e-02,
          9.94035788e-03, 0., 0., 3.97614315e-02, 2.98210736e-02,
          4.77137193e-02, 3.18091437e-02, 9.94035788e-03, 0., 0., 0.,
          3.97614315e-02, 4.77137193e-02, 2.18687877e-02, 0., 0., 0., 0.,
          0., 2.18687877e-02, 1.19284298e-02, 0., 0., 0., 0., 0., 0. ]
      - [ 1.21212117e-02, 2.02020202e-02, 8.08080845e-03, 0., 0., 0., 0.,
          0., 3.83838378e-02, 5.05050495e-02, 2.02020202e-02, 0., 0., 0.,
          1.01010101e-02, 2.82828286e-02, 4.04040404e-02, 2.22222228e-02,
          4.04040422e-03, 0., 0., 1.81818176e-02, 4.64646481e-02,
          3.03030312e-02, 4.04040404e-02, 1.01010101e-02, 0.,
          2.02020211e-03, 3.03030312e-02, 5.05050495e-02, 2.62626261e-02,
          2.02020211e-03, 4.04040404e-02, 1.01010101e-02, 6.06060587e-03,
          3.63636352e-02, 4.64646481e-02, 2.02020202e-02, 0., 0.,
          4.04040404e-02, 2.62626261e-02, 4.24242429e-02, 4.04040404e-02,
          1.21212117e-02, 0., 0., 0., 4.04040404e-02, 5.05050495e-02,
          2.82828286e-02, 4.04040422e-03, 0., 0., 0., 0., 2.42424235e-02,
          2.02020202e-02, 0., 0., 0., 0., 0., 0. ]
      - [ 0., 0., 0., 0., 1.15830116e-02, 1.93050187e-02, 0., 0.,
          1.93050189e-03, 2.50965245e-02, 3.66795361e-02, 1.35135138e-02,
          4.24710438e-02, 3.86100374e-02, 4.05405387e-02, 1.93050189e-03,
          1.35135138e-02, 3.66795361e-02, 3.28185335e-02, 4.82625477e-02,
          7.72200758e-03, 0., 2.89575290e-02, 1.35135138e-02,
          2.50965245e-02, 7.72200758e-03, 0., 3.86100374e-02, 0., 0., 0.,
          1.93050187e-02, 2.50965245e-02, 7.72200758e-03, 0.,
          4.24710438e-02, 0., 0., 7.72200758e-03, 1.93050187e-02,
          1.73745174e-02, 3.28185335e-02, 2.12355219e-02, 4.82625477e-02,
          1.35135138e-02, 5.79150580e-03, 2.89575290e-02, 1.15830116e-02,
          1.93050189e-03, 3.28185335e-02, 4.05405387e-02, 1.35135138e-02,
          4.44015451e-02, 4.44015451e-02, 2.89575290e-02, 0., 0., 0., 0.,
          0., 0., 7.72200758e-03, 0., 0. ]
      - [ 0., 1.48588407e-03, 1.48588407e-03, 0., 8.91530421e-03,
          2.22882610e-02, 7.42942048e-03, 0., 2.97176815e-03,
          2.97176819e-02, 2.97176819e-02, 1.63447242e-02, 3.56612168e-02,
          3.71471010e-02, 3.41753326e-02, 4.45765210e-03, 1.93164926e-02,
          2.67459136e-02, 2.22882610e-02, 3.71471010e-02, 8.91530421e-03,
          0., 2.08023768e-02, 1.93164926e-02, 2.97176819e-02,
          4.45765210e-03, 0., 2.97176819e-02, 0., 0., 4.45765210e-03,
          2.67459136e-02, 2.97176819e-02, 4.45765210e-03, 0.,
          2.97176819e-02, 0., 0., 4.45765210e-03, 2.97176819e-02,
          2.37741452e-02, 2.52600294e-02, 2.22882610e-02, 3.71471010e-02,
          8.91530421e-03, 0., 1.63447242e-02, 1.93164926e-02,
          5.94353629e-03, 3.41753326e-02, 3.41753326e-02, 2.37741452e-02,
          3.71471010e-02, 3.71471010e-02, 3.41753326e-02, 5.94353629e-03,
          0., 4.45765210e-03, 4.45765210e-03, 0., 1.63447242e-02,
          2.22882610e-02, 7.42942048e-03, 0. ]
      - [ 0., 5.44217695e-03, 8.16326495e-03, 0., 1.76870748e-02,
          2.04081628e-02, 1.36054419e-02, 0., 9.52380989e-03,
          3.26530598e-02, 3.26530598e-02, 2.44897958e-02, 3.12925167e-02,
          2.72108838e-02, 3.12925167e-02, 9.52380989e-03, 2.44897958e-02,
          2.04081628e-02, 1.36054419e-02, 3.40136066e-02, 8.16326495e-03,
          0., 1.49659868e-02, 2.31292509e-02, 2.72108838e-02,
          8.16326495e-03, 0., 3.40136066e-02, 0., 0., 6.80272095e-03,
          2.72108838e-02, 2.58503407e-02, 8.16326495e-03, 1.36054424e-03,
          3.40136066e-02, 0., 0., 6.80272095e-03, 2.72108838e-02,
          1.90476198e-02, 2.72108838e-02, 2.44897958e-02, 3.40136066e-02,
          8.16326495e-03, 0., 1.76870748e-02, 2.31292509e-02,
          5.44217695e-03, 2.85714287e-02, 2.99319737e-02, 2.17687078e-02,
          3.12925167e-02, 2.72108838e-02, 3.12925167e-02, 9.52380989e-03,
          0., 2.72108847e-03, 2.72108847e-03, 0., 1.49659868e-02,
          2.04081628e-02, 1.08843539e-02, 0. ]
      - [ 0., 1.11662531e-02, 1.36476429e-02, 1.24069478e-03,
          2.10918114e-02, 2.48138960e-02, 1.36476429e-02, 0.,
          9.92555823e-03, 3.10173705e-02, 3.10173705e-02, 2.60545909e-02,
          3.10173705e-02, 3.10173705e-02, 3.10173705e-02, 7.44416891e-03,
          2.23325063e-02, 1.98511165e-02, 1.48883378e-02, 3.10173705e-02,
          7.44416891e-03, 0., 1.61290318e-02, 1.98511165e-02,
          2.48138960e-02, 6.20347401e-03, 0., 2.48138960e-02, 0., 0.,
          6.20347401e-03, 2.48138960e-02, 2.48138960e-02, 6.20347401e-03,
          1.24069478e-03, 2.60545909e-02, 0., 0., 6.20347401e-03,
          2.48138960e-02, 1.98511165e-02, 2.35732011e-02, 1.98511165e-02,
          3.10173705e-02, 6.20347401e-03, 0., 1.48883378e-02,
          2.23325063e-02, 7.44416891e-03, 2.97766756e-02, 3.10173705e-02,
          2.23325063e-02, 3.10173705e-02, 3.10173705e-02, 3.10173705e-02,
          9.92555823e-03, 0., 6.20347401e-03, 7.44416891e-03,
          1.24069478e-03, 2.10918114e-02, 2.48138960e-02, 1.61290318e-02,
          0. ]
      - [ 0., 7.77202053e-03, 9.06735752e-03, 0., 1.68393776e-02,
          2.59067360e-02, 1.68393776e-02, 0., 7.77202053e-03,
          3.23834196e-02, 3.23834196e-02, 2.33160630e-02, 2.97927465e-02,
          2.59067360e-02, 3.23834196e-02, 9.06735752e-03, 2.07253881e-02,
          2.07253881e-02, 1.42487045e-02, 3.23834196e-02, 6.47668401e-03,
          0., 1.42487045e-02, 2.07253881e-02, 2.59067360e-02,
          6.47668401e-03, 0., 2.72020716e-02, 0., 0., 6.47668401e-03,
          2.59067360e-02, 2.59067360e-02, 7.77202053e-03, 1.29533675e-03,
          2.72020716e-02, 0., 0., 6.47668401e-03, 2.59067360e-02,
          2.07253881e-02, 2.46113986e-02, 1.94300525e-02, 3.23834196e-02,
          7.77202053e-03, 0., 1.55440411e-02, 2.33160630e-02,
          7.77202053e-03, 3.10880821e-02, 3.23834196e-02, 2.33160630e-02,
          3.23834196e-02, 2.84974091e-02, 3.23834196e-02, 7.77202053e-03,
          0., 7.77202053e-03, 7.77202053e-03, 1.29533675e-03,
          1.94300525e-02, 2.59067360e-02, 1.29533680e-02, 0. ]
      - [ 0., 6.53594779e-03, 7.84313772e-03, 0., 1.43790850e-02,
          2.61437912e-02, 1.17647061e-02, 0., 7.84313772e-03,
          3.13725509e-02, 3.26797403e-02, 1.96078438e-02, 3.13725509e-02,
          3.26797403e-02, 3.26797403e-02, 6.53594779e-03, 2.09150333e-02,
          2.22222228e-02, 1.83006544e-02, 3.26797403e-02, 9.15032718e-03,
          0., 1.96078438e-02, 1.83006544e-02, 2.61437912e-02,
          6.53594779e-03, 0., 2.61437912e-02, 0., 0., 6.53594779e-03,
          2.61437912e-02, 2.61437912e-02, 6.53594779e-03, 0.,
          2.61437912e-02, 0., 0., 6.53594779e-03, 2.61437912e-02,
          2.22222228e-02, 2.22222228e-02, 1.96078438e-02, 3.26797403e-02,
          5.22875832e-03, 0., 1.69934649e-02, 2.09150333e-02,
          7.84313772e-03, 3.26797403e-02, 3.26797403e-02, 2.22222228e-02,
          3.00653595e-02, 2.74509806e-02, 3.26797403e-02, 7.84313772e-03,
          0., 9.15032718e-03, 7.84313772e-03, 1.30718958e-03,
          2.09150333e-02, 2.61437912e-02, 1.56862754e-02, 0. ]
      - [ 0., 2.94117653e-03, 4.41176491e-03, 0., 1.61764715e-02,
          2.64705885e-02, 1.61764715e-02, 0., 2.94117653e-03,
          3.23529430e-02, 3.52941193e-02, 2.05882359e-02, 3.52941193e-02,
          2.94117648e-02, 3.52941193e-02, 1.17647061e-02, 2.05882359e-02,
          2.50000004e-02, 2.05882359e-02, 3.67647074e-02, 5.88235306e-03,
          0., 8.82352982e-03, 2.50000004e-02, 2.79411767e-02,
          2.94117653e-03, 0., 2.94117648e-02, 0., 0., 0., 2.94117648e-02,
          2.94117648e-02, 1.47058826e-03, 0., 2.79411767e-02, 0., 0., 0.,
          2.94117648e-02, 2.35294122e-02, 1.61764715e-02, 8.82352982e-03,
          3.67647074e-02, 5.88235306e-03, 0., 1.17647061e-02,
          2.50000004e-02, 7.35294120e-03, 3.67647074e-02, 3.67647074e-02,
          8.82352982e-03, 3.52941193e-02, 2.94117648e-02, 3.67647074e-02,
          8.82352982e-03, 0., 1.02941180e-02, 1.02941180e-02,
          4.41176491e-03, 1.91176478e-02, 2.50000004e-02, 1.32352943e-02,
          0. ]
      - [ 0., 8.51063803e-03, 8.51063803e-03, 1.41843967e-03,
          2.41134744e-02, 2.83687934e-02, 1.70212761e-02, 0.,
          7.09219836e-03, 3.54609936e-02, 3.54609936e-02, 2.69503538e-02,
          3.26241143e-02, 2.26950347e-02, 3.26241143e-02, 7.09219836e-03,
          2.26950347e-02, 1.70212761e-02, 1.13475174e-02, 3.40425521e-02,
          1.41843967e-03, 0., 1.13475174e-02, 2.12765951e-02,
          2.83687934e-02, 2.83687934e-03, 0., 2.83687934e-02, 0., 0.,
          4.25531901e-03, 2.83687934e-02, 2.83687934e-02, 4.25531901e-03,
          0., 2.83687934e-02, 0., 0., 4.25531901e-03, 2.83687934e-02,
          2.26950347e-02, 1.84397157e-02, 1.70212761e-02, 3.54609936e-02,
          2.83687934e-03, 0., 1.27659570e-02, 2.26950347e-02,
          5.67375869e-03, 3.40425521e-02, 3.40425521e-02, 2.41134744e-02,
          3.26241143e-02, 2.26950347e-02, 3.54609936e-02, 8.51063803e-03,
          0., 7.09219836e-03, 7.09219836e-03, 0., 1.98581554e-02,
          2.83687934e-02, 1.56028373e-02, 0. ]
      - [ 0., 1.00882724e-02, 1.00882724e-02, 1.26103405e-03,
          2.01765448e-02, 2.52206810e-02, 1.38713745e-02, 0.,
          1.13493064e-02, 3.15258503e-02, 3.15258503e-02, 2.52206810e-02,
          3.15258503e-02, 3.15258503e-02, 3.15258503e-02, 1.00882724e-02,
          2.39596460e-02, 2.01765448e-02, 1.51324086e-02, 3.15258503e-02,
          6.30517025e-03, 0., 1.51324086e-02, 2.26986129e-02,
          2.52206810e-02, 6.30517025e-03, 0., 2.52206810e-02, 0., 0.,
          3.78310215e-03, 2.52206810e-02, 2.52206810e-02, 6.30517025e-03,
          1.26103405e-03, 2.64817141e-02, 0., 0., 3.78310215e-03,
          2.52206810e-02, 2.01765448e-02, 2.39596460e-02, 2.01765448e-02,
          3.15258503e-02, 6.30517025e-03, 0., 1.38713745e-02,
          2.39596460e-02, 7.56620429e-03, 3.02648172e-02, 3.02648172e-02,
          2.26986129e-02, 3.15258503e-02, 2.90037822e-02, 3.15258503e-02,
          1.13493064e-02, 0., 5.04413620e-03, 5.04413620e-03, 0.,
          2.01765448e-02, 2.52206810e-02, 1.63934417e-02, 0. ]
      - [ 0., 8.49858392e-03, 8.49858392e-03, 1.41643058e-03,
          2.40793210e-02, 2.83286124e-02, 1.69971678e-02, 0.,
          7.08215311e-03, 3.54107656e-02, 3.54107656e-02, 2.69121807e-02,
          3.25779021e-02, 2.26628892e-02, 3.25779021e-02, 7.08215311e-03,
          2.26628892e-02, 1.84135977e-02, 1.13314446e-02, 3.39943357e-02,
          1.41643058e-03, 0., 1.13314446e-02, 2.12464593e-02,
          2.83286124e-02, 2.83286115e-03, 0., 2.83286124e-02, 0., 0.,
          4.24929196e-03, 2.83286124e-02, 2.83286124e-02, 4.24929196e-03,
          0., 2.83286124e-02, 0., 0., 4.24929196e-03, 2.83286124e-02,
          2.26628892e-02, 1.84135977e-02, 1.69971678e-02, 3.54107656e-02,
          2.83286115e-03, 0., 1.27478754e-02, 2.26628892e-02,
          5.66572230e-03, 3.39943357e-02, 3.39943357e-02, 2.40793210e-02,
          3.25779021e-02, 2.26628892e-02, 3.54107656e-02, 8.49858392e-03,
          0., 7.08215311e-03, 7.08215311e-03, 0., 1.98300276e-02,
          2.83286124e-02, 1.55807361e-02, 0. ]
      - [ 0., 3.51493852e-03, 1.75746921e-02, 1.40597541e-02, 0.,
          7.02987704e-03, 7.02987704e-03, 0., 1.75746926e-03,
          3.51493843e-02, 3.51493843e-02, 3.69068533e-02, 2.46045701e-02,
          7.02987704e-03, 3.51493843e-02, 1.75746926e-03, 1.40597541e-02,
          2.81195082e-02, 0., 3.51493852e-03, 3.51493843e-02, 0.,
          2.46045701e-02, 1.40597541e-02, 2.46045701e-02, 1.75746921e-02,
          0., 0., 2.81195082e-02, 7.02987704e-03, 3.51493852e-03,
          2.10896302e-02, 2.10896302e-02, 1.75746921e-02, 0., 0.,
          2.81195082e-02, 8.78734607e-03, 1.05448151e-02, 2.10896302e-02,
          1.40597541e-02, 2.81195082e-02, 0., 3.51493852e-03,
          4.21792604e-02, 8.78734607e-03, 3.16344462e-02, 1.40597541e-02,
          1.75746926e-03, 3.51493843e-02, 3.51493843e-02, 3.69068533e-02,
          4.39367294e-02, 3.69068533e-02, 3.69068533e-02, 1.75746926e-03,
          0., 3.51493852e-03, 1.75746921e-02, 1.75746921e-02,
          1.75746921e-02, 1.75746921e-02, 0., 0. ]
      - [ 0., 1.58730168e-02, 2.64550261e-02, 2.11640205e-02,
          2.64550257e-03, 3.96825420e-03, 1.19047621e-02, 0.,
          1.05820103e-02, 3.30687836e-02, 2.64550261e-02, 3.04232799e-02,
          2.24867724e-02, 6.61375653e-03, 3.17460336e-02, 5.29100513e-03,
          2.38095243e-02, 1.32275131e-02, 0., 3.96825420e-03,
          3.04232799e-02, 2.64550257e-03, 2.11640205e-02, 1.71957668e-02,
          2.64550261e-02, 6.61375653e-03, 0., 0., 2.11640205e-02,
          6.61375653e-03, 7.93650839e-03, 2.64550261e-02, 2.64550261e-02,
          6.61375653e-03, 0., 0., 2.11640205e-02, 6.61375653e-03,
          6.61375653e-03, 2.64550261e-02, 1.85185187e-02, 1.85185187e-02,
          0., 3.96825420e-03, 3.04232799e-02, 3.96825420e-03,
          1.58730168e-02, 2.38095243e-02, 9.25925933e-03, 3.17460336e-02,
          3.30687836e-02, 3.30687836e-02, 3.30687836e-02, 2.77777780e-02,
          3.30687836e-02, 1.05820103e-02, 5.29100513e-03, 1.19047621e-02,
          1.98412705e-02, 2.11640205e-02, 2.38095243e-02, 2.64550261e-02,
          1.45502649e-02, 0. ]
      - [ 0., 3.69685772e-03, 2.77264323e-02, 1.66358594e-02, 0., 0.,
          9.24214441e-03, 0., 1.84842886e-03, 3.69685777e-02,
          3.69685777e-02, 4.06654328e-02, 2.21811458e-02, 0.,
          3.32717188e-02, 7.39371544e-03, 1.84842888e-02, 2.21811458e-02,
          0., 3.69685772e-03, 3.32717188e-02, 0., 1.47874309e-02,
          2.40295753e-02, 2.95748618e-02, 1.84842886e-03, 0., 0.,
          2.21811458e-02, 0., 0., 3.32717188e-02, 3.51201482e-02, 0., 0.,
          0., 2.58780029e-02, 0., 0., 3.32717188e-02, 2.40295753e-02,
          1.47874309e-02, 0., 0., 2.95748618e-02, 0., 9.24214441e-03,
          2.40295753e-02, 7.39371544e-03, 3.69685777e-02, 2.77264323e-02,
          3.14232893e-02, 4.43622917e-02, 2.95748618e-02, 3.51201482e-02,
          7.39371544e-03, 0., 1.84842888e-02, 2.77264323e-02,
          2.77264323e-02, 2.77264323e-02, 2.77264323e-02, 1.47874309e-02,
          0. ]
      - [ 0., 5.93471806e-03, 2.07715128e-02, 1.78041551e-02, 0.,
          2.96735903e-03, 7.41839781e-03, 0., 2.96735903e-03,
          3.56083103e-02, 3.70919891e-02, 3.70919891e-02, 1.92878339e-02,
          7.41839781e-03, 3.56083103e-02, 2.96735903e-03, 1.63204744e-02,
          2.37388723e-02, 0., 5.93471806e-03, 3.26409489e-02,
          2.96735903e-03, 2.07715128e-02, 1.78041551e-02, 2.37388723e-02,
          8.90207756e-03, 0., 0., 2.22551934e-02, 1.18694361e-02,
          5.93471806e-03, 2.67062318e-02, 2.67062318e-02, 7.41839781e-03,
          0., 0., 2.22551934e-02, 1.48367956e-02, 2.96735903e-03,
          2.81899106e-02, 1.78041551e-02, 2.07715128e-02, 0., 0.,
          2.96735913e-02, 8.90207756e-03, 1.78041551e-02, 1.92878339e-02,
          5.93471806e-03, 3.70919891e-02, 2.96735913e-02, 3.26409489e-02,
          3.70919891e-02, 3.41246277e-02, 3.70919891e-02, 7.41839781e-03,
          0., 1.03857564e-02, 2.22551934e-02, 2.22551934e-02,
          2.22551934e-02, 2.22551934e-02, 1.03857564e-02, 0. ]
      - [ 0., 1.28617361e-02, 1.60771701e-02, 1.44694531e-02, 0., 0.,
          1.28617361e-02, 0., 9.64630209e-03, 4.01929244e-02,
          4.01929244e-02, 4.01929244e-02, 1.28617361e-02, 0.,
          4.01929244e-02, 9.64630209e-03, 2.73311902e-02, 1.44694531e-02,
          0., 1.60771701e-03, 3.05466242e-02, 0., 1.12540191e-02,
          2.25080382e-02, 3.21543403e-02, 0., 0., 0., 3.53697762e-02, 0.,
          0., 3.21543403e-02, 3.21543403e-02, 3.21543403e-03, 0., 0.,
          3.53697762e-02, 0., 3.21543403e-03, 2.89389063e-02,
          2.25080382e-02, 1.76848881e-02, 8.03858507e-03, 8.03858507e-03,
          4.01929244e-02, 8.03858507e-03, 1.76848881e-02, 2.25080382e-02,
          3.21543403e-03, 3.85852084e-02, 4.01929244e-02, 4.01929244e-02,
          4.01929244e-02, 4.01929244e-02, 3.69774923e-02, 3.21543403e-03,
          0., 8.03858507e-03, 1.60771701e-02, 8.03858507e-03,
          8.03858507e-03, 8.03858507e-03, 4.82315104e-03, 0. ]
      - [ 0., 4.56620986e-03, 1.97869111e-02, 1.36986300e-02, 0., 0.,
          1.21765602e-02, 0., 6.08828012e-03, 3.50076109e-02,
          3.80517505e-02, 3.80517505e-02, 1.82648394e-02, 0.,
          3.50076109e-02, 6.08828012e-03, 2.13089809e-02, 2.13089809e-02,
          7.61034992e-03, 1.06544904e-02, 2.89193299e-02, 0.,
          1.82648394e-02, 2.13089809e-02, 3.04413997e-02, 7.61034992e-03,
          0., 0., 2.89193299e-02, 0., 1.52207003e-03, 2.89193299e-02,
          3.04413997e-02, 7.61034992e-03, 0., 0., 3.04413997e-02, 0.,
          1.52207003e-03, 2.89193299e-02, 2.28310507e-02, 1.97869111e-02,
          0., 4.56620986e-03, 3.50076109e-02, 1.52207003e-03,
          1.97869111e-02, 2.13089809e-02, 6.08828012e-03, 3.50076109e-02,
          3.04413997e-02, 3.50076109e-02, 3.80517505e-02, 3.19634713e-02,
          3.50076109e-02, 6.08828012e-03, 0., 1.21765602e-02,
          2.28310507e-02, 2.28310507e-02, 2.28310507e-02, 1.97869111e-02,
          4.56620986e-03, 0. ]
      - [ 0., 1.45772600e-03, 1.02040814e-02, 8.74635577e-03, 0.,
          2.91545200e-03, 1.02040814e-02, 0., 1.45772600e-03,
          2.62390673e-02, 3.49854231e-02, 3.64431478e-02, 1.89504381e-02,
          5.83090400e-03, 3.49854231e-02, 8.74635577e-03, 1.31195337e-02,
          2.76967939e-02, 7.28862965e-03, 1.02040814e-02, 3.35276984e-02,
          5.83090400e-03, 2.18658894e-02, 2.33236160e-02, 2.04081628e-02,
          1.45772593e-02, 0., 0., 2.33236160e-02, 1.45772593e-02,
          8.74635577e-03, 2.91545186e-02, 2.18658894e-02, 1.45772593e-02,
          0., 0., 2.18658894e-02, 1.45772593e-02, 8.74635577e-03,
          2.91545186e-02, 1.74927115e-02, 2.33236160e-02, 0.,
          2.91545200e-03, 3.06122452e-02, 1.89504381e-02, 2.18658894e-02,
          2.04081628e-02, 7.28862965e-03, 3.49854231e-02, 2.91545186e-02,
          3.20699699e-02, 3.64431478e-02, 3.64431478e-02, 3.20699699e-02,
          4.37317789e-03, 0., 1.16618080e-02, 2.18658894e-02,
          1.89504381e-02, 1.45772593e-02, 1.45772593e-02, 4.37317789e-03,
          0. ]
      - [ 0., 1.55279506e-03, 7.76397530e-03, 7.76397530e-03, 0.,
          6.21118024e-03, 1.08695654e-02, 0., 1.55279506e-03,
          3.10559012e-02, 3.88198756e-02, 3.72670814e-02, 2.48447210e-02,
          7.76397530e-03, 3.72670814e-02, 7.76397530e-03, 1.55279506e-02,
          2.79503111e-02, 7.76397530e-03, 7.76397530e-03, 3.57142873e-02,
          1.55279506e-03, 2.32919250e-02, 2.17391308e-02, 2.63975151e-02,
          1.55279506e-02, 0., 0., 2.32919250e-02, 7.76397530e-03,
          9.31677036e-03, 3.10559012e-02, 2.95031052e-02, 1.55279506e-02,
          0., 0., 2.32919250e-02, 7.76397530e-03, 1.39751555e-02,
          2.63975151e-02, 2.01863348e-02, 2.48447210e-02, 3.10559012e-03,
          9.31677036e-03, 3.41614895e-02, 9.31677036e-03, 2.95031052e-02,
          1.39751555e-02, 4.65838518e-03, 3.72670814e-02, 3.41614895e-02,
          3.88198756e-02, 3.88198756e-02, 3.88198756e-02, 2.63975151e-02,
          1.55279506e-03, 0., 6.21118024e-03, 2.01863348e-02,
          7.76397530e-03, 7.76397530e-03, 1.55279506e-03, 0., 0. ]
      - [ 0., 1.16110304e-02, 2.17706822e-02, 1.88679248e-02,
          1.45137880e-03, 0., 1.88679248e-02, 0., 5.80551522e-03,
          3.48330922e-02, 3.62844691e-02, 3.62844691e-02, 1.74165461e-02,
          0., 3.62844691e-02, 1.01596517e-02, 1.88679248e-02,
          1.88679248e-02, 0., 5.80551522e-03, 2.90275756e-02, 0.,
          1.01596517e-02, 2.32220609e-02, 2.90275756e-02, 7.25689391e-03,
          0., 0., 2.46734396e-02, 0., 7.25689391e-03, 2.90275756e-02,
          2.90275756e-02, 7.25689391e-03, 0., 0., 2.46734396e-02, 0.,
          7.25689391e-03, 2.90275756e-02, 2.17706822e-02, 1.59651674e-02,
          0., 5.80551522e-03, 3.48330922e-02, 0., 1.88679248e-02,
          2.03193035e-02, 5.80551522e-03, 3.48330922e-02, 3.62844691e-02,
          3.62844691e-02, 3.62844691e-02, 3.62844691e-02, 3.33817117e-02,
          5.80551522e-03, 0., 1.45137878e-02, 2.17706822e-02,
          2.17706822e-02, 2.17706822e-02, 2.17706822e-02, 5.80551522e-03,
          0. ]
      - [ 0., 1.16618080e-02, 2.18658894e-02, 2.04081628e-02,
          1.45772600e-03, 5.83090400e-03, 1.45772593e-02, 0.,
          1.02040814e-02, 3.64431478e-02, 3.64431478e-02, 3.64431478e-02,
          2.47813407e-02, 5.83090400e-03, 3.64431478e-02, 7.28862965e-03,
          2.47813407e-02, 1.60349850e-02, 0., 4.37317789e-03,
          3.20699699e-02, 2.91545200e-03, 1.60349850e-02, 2.33236160e-02,
          2.91545186e-02, 1.45772600e-03, 0., 0., 2.18658894e-02,
          8.74635577e-03, 2.91545200e-03, 2.91545186e-02, 2.91545186e-02,
          0., 0., 0., 2.18658894e-02, 7.28862965e-03, 2.91545200e-03,
          2.91545186e-02, 2.47813407e-02, 1.02040814e-02, 0.,
          1.45772600e-03, 3.06122452e-02, 7.28862965e-03, 1.45772593e-02,
          2.04081628e-02, 1.02040814e-02, 3.35276984e-02, 2.18658894e-02,
          3.06122452e-02, 3.64431478e-02, 3.06122452e-02, 3.49854231e-02,
          7.28862965e-03, 0., 1.31195337e-02, 2.47813407e-02,
          2.18658894e-02, 2.18658894e-02, 2.18658894e-02, 8.74635577e-03,
          0. ]
      - [ 0., 0., 0., 0., 0., 0., 3.38409469e-03, 1.35363787e-02, 0., 0.,
          0., 0., 1.35363787e-02, 3.04568522e-02, 4.23011854e-02,
          3.38409469e-02, 0., 5.07614203e-03, 1.86125208e-02,
          3.89170907e-02, 4.23011854e-02, 4.23011854e-02, 2.03045681e-02,
          3.38409469e-03, 3.04568522e-02, 4.23011854e-02, 4.23011854e-02,
          3.21489014e-02, 6.76818937e-03, 2.70727575e-02, 0., 0.,
          3.38409469e-02, 4.23011854e-02, 4.23011854e-02, 3.21489014e-02,
          3.38409469e-03, 2.70727575e-02, 0., 0., 3.38409469e-03,
          1.18443314e-02, 2.53807101e-02, 4.23011854e-02, 4.23011854e-02,
          4.23011854e-02, 2.36886628e-02, 6.76818937e-03, 0., 0., 0., 0.,
          1.35363787e-02, 3.04568522e-02, 4.06091362e-02, 3.38409469e-02,
          0., 0., 0., 0., 0., 0., 0., 1.35363787e-02 ]
      - [ 0., 0., 0., 0., 0., 0., 9.69305355e-03, 2.42326334e-02, 0., 0.,
          0., 3.23101785e-03, 1.77705977e-02, 2.90791597e-02,
          4.03877236e-02, 3.23101766e-02, 1.61550893e-03, 1.29240714e-02,
          2.26171240e-02, 3.87722142e-02, 3.55411954e-02, 4.03877236e-02,
          1.61550883e-02, 4.84652678e-03, 3.06946691e-02, 4.03877236e-02,
          4.03877236e-02, 2.26171240e-02, 1.61550893e-03, 3.23101766e-02,
          0., 0., 3.23101766e-02, 4.03877236e-02, 4.03877236e-02,
          2.74636503e-02, 3.23101785e-03, 3.23101766e-02, 0., 0.,
          4.84652678e-03, 1.61550883e-02, 2.10016146e-02, 3.71567048e-02,
          4.03877236e-02, 4.03877236e-02, 2.26171240e-02, 9.69305355e-03,
          0., 0., 0., 0., 1.45395799e-02, 2.58481428e-02, 3.87722142e-02,
          3.23101766e-02, 0., 0., 0., 0., 0., 0., 4.84652678e-03,
          1.77705977e-02 ]
      - [ 0., 0., 0., 0., 0., 0., 8.35654605e-03, 1.81058496e-02, 0., 0.,
          0., 2.78551527e-03, 1.39275771e-02, 2.50696372e-02,
          3.48189399e-02, 2.78551541e-02, 2.78551527e-03, 1.11420611e-02,
          2.36768797e-02, 3.34261842e-02, 3.48189399e-02, 3.48189399e-02,
          2.92479116e-02, 1.53203346e-02, 2.78551541e-02, 3.48189399e-02,
          3.48189399e-02, 3.06406692e-02, 1.39275771e-02, 3.06406692e-02,
          1.39275764e-03, 0., 2.78551541e-02, 3.48189399e-02,
          3.48189399e-02, 2.64623947e-02, 8.35654605e-03, 2.92479116e-02,
          0., 0., 8.35654605e-03, 1.94986071e-02, 3.06406692e-02,
          3.48189399e-02, 3.48189399e-02, 3.48189399e-02, 1.94986071e-02,
          8.35654605e-03, 0., 0., 0., 8.35654605e-03, 2.08913647e-02,
          3.20334248e-02, 3.48189399e-02, 2.78551541e-02, 0., 0., 0., 0.,
          0., 0., 1.25348186e-02, 2.08913647e-02 ]
      - [ 0., 0., 0., 0., 0., 0., 8.35654605e-03, 1.81058496e-02, 0., 0.,
          0., 2.78551527e-03, 1.39275771e-02, 2.50696372e-02,
          3.48189399e-02, 2.78551541e-02, 2.78551527e-03, 1.11420611e-02,
          2.36768797e-02, 3.34261842e-02, 3.48189399e-02, 3.48189399e-02,
          2.92479116e-02, 1.53203346e-02, 2.78551541e-02, 3.48189399e-02,
          3.48189399e-02, 3.06406692e-02, 1.39275771e-02, 3.06406692e-02,
          1.39275764e-03, 0., 2.78551541e-02, 3.48189399e-02,
          3.48189399e-02, 2.64623947e-02, 8.35654605e-03, 2.92479116e-02,
          0., 0., 8.35654605e-03, 1.94986071e-02, 3.06406692e-02,
          3.48189399e-02, 3.48189399e-02, 3.48189399e-02, 1.94986071e-02,
          8.35654605e-03, 0., 0., 0., 8.35654605e-03, 2.08913647e-02,
          3.20334248e-02, 3.48189399e-02, 2.78551541e-02, 0., 0., 0., 0.,
          0., 0., 1.25348186e-02, 2.08913647e-02 ]
      - [ 0., 0., 0., 0., 0., 0., 1.43312104e-02, 2.38853507e-02, 0., 0.,
          0., 3.18471342e-03, 1.91082805e-02, 3.50318477e-02,
          3.98089178e-02, 2.70700641e-02, 4.77707013e-03, 1.91082805e-02,
          3.34394909e-02, 3.98089178e-02, 3.50318477e-02, 3.98089178e-02,
          4.77707013e-03, 0., 3.18471342e-02, 3.98089178e-02,
          2.86624208e-02, 1.11464970e-02, 0., 3.18471342e-02, 0., 0.,
          3.18471342e-02, 3.98089178e-02, 1.75159238e-02, 1.59235671e-03,
          0., 3.18471342e-02, 0., 0., 1.75159238e-02, 3.50318477e-02,
          3.98089178e-02, 3.82165611e-02, 2.70700641e-02, 3.82165611e-02,
          4.77707013e-03, 0., 0., 0., 1.59235671e-03, 1.43312104e-02,
          2.86624208e-02, 3.82165611e-02, 3.98089178e-02, 3.02547775e-02,
          0., 0., 0., 0., 0., 3.18471342e-03, 1.43312104e-02,
          2.38853507e-02 ]
      - [ 2.16535442e-02, 1.96850393e-02, 1.96850393e-02, 2.36220472e-02,
          2.46062987e-02, 2.46062987e-02, 2.46062987e-02, 2.46062987e-02,
          2.46062987e-02, 2.46062987e-02, 2.46062987e-02, 2.46062987e-02,
          2.46062987e-02, 2.46062987e-02, 2.46062987e-02, 2.46062987e-02,
          2.46062987e-02, 1.37795275e-02, 9.84251965e-03, 1.77165363e-02,
          1.37795275e-02, 4.92125982e-03, 4.92125982e-03, 2.46062987e-02,
          2.46062987e-02, 4.92125982e-03, 0., 7.87401572e-03,
          9.84251965e-03, 0., 0., 2.26377957e-02, 2.36220472e-02,
          2.95275589e-03, 0., 5.90551179e-03, 9.84251965e-03, 0., 0.,
          1.96850393e-02, 1.96850393e-02, 1.27952760e-02, 7.87401572e-03,
          1.67322829e-02, 1.96850393e-02, 8.85826815e-03, 1.08267721e-02,
          2.16535442e-02, 1.18110236e-02, 2.46062987e-02, 2.46062987e-02,
          2.26377957e-02, 2.16535442e-02, 2.46062987e-02, 2.46062987e-02,
          1.67322829e-02, 9.84251965e-04, 1.08267721e-02, 1.47637799e-02,
          9.84251965e-03, 7.87401572e-03, 1.77165363e-02, 1.96850393e-02,
          2.95275589e-03 ]
      - [ 2.16535442e-02, 1.96850393e-02, 1.96850393e-02, 2.36220472e-02,
          2.46062987e-02, 2.46062987e-02, 2.46062987e-02, 2.46062987e-02,
          2.46062987e-02, 2.46062987e-02, 2.46062987e-02, 2.46062987e-02,
          2.46062987e-02, 2.46062987e-02, 2.46062987e-02, 2.46062987e-02,
          2.46062987e-02, 1.37795275e-02, 9.84251965e-03, 1.77165363e-02,
          1.37795275e-02, 4.92125982e-03, 4.92125982e-03, 2.46062987e-02,
          2.46062987e-02, 4.92125982e-03, 0., 7.87401572e-03,
          9.84251965e-03, 0., 0., 2.26377957e-02, 2.36220472e-02,
          2.95275589e-03, 0., 5.90551179e-03, 9.84251965e-03, 0., 0.,
          1.96850393e-02, 1.96850393e-02, 1.27952760e-02, 7.87401572e-03,
          1.67322829e-02, 1.96850393e-02, 8.85826815e-03, 1.08267721e-02,
          2.16535442e-02, 1.18110236e-02, 2.46062987e-02, 2.46062987e-02,
          2.26377957e-02, 2.16535442e-02, 2.46062987e-02, 2.46062987e-02,
          1.67322829e-02, 9.84251965e-04, 1.08267721e-02, 1.47637799e-02,
          9.84251965e-03, 7.87401572e-03, 1.77165363e-02, 1.96850393e-02,
          2.95275589e-03 ]
      - [ 2.16535442e-02, 1.96850393e-02, 1.96850393e-02, 2.36220472e-02,
          2.46062987e-02, 2.46062987e-02, 2.46062987e-02, 2.46062987e-02,
          2.46062987e-02, 2.46062987e-02, 2.46062987e-02, 2.46062987e-02,
          2.46062987e-02, 2.46062987e-02, 2.46062987e-02, 2.46062987e-02,
          2.46062987e-02, 1.37795275e-02, 9.84251965e-03, 1.77165363e-02,
          1.37795275e-02, 4.92125982e-03, 4.92125982e-03, 2.46062987e-02,
          2.46062987e-02, 4.92125982e-03, 0., 7.87401572e-03,
          9.84251965e-03, 0., 0., 2.26377957e-02, 2.36220472e-02,
          2.95275589e-03, 0., 5.90551179e-03, 9.84251965e-03, 0., 0.,
          1.96850393e-02, 1.96850393e-02, 1.27952760e-02, 7.87401572e-03,
          1.67322829e-02, 1.96850393e-02, 8.85826815e-03, 1.08267721e-02,
          2.16535442e-02, 1.18110236e-02, 2.46062987e-02, 2.46062987e-02,
          2.26377957e-02, 2.16535442e-02, 2.46062987e-02, 2.46062987e-02,
          1.67322829e-02, 9.84251965e-04, 1.08267721e-02, 1.47637799e-02,
          9.84251965e-03, 7.87401572e-03, 1.77165363e-02, 1.96850393e-02,
          2.95275589e-03 ]
      - [ 2.16535442e-02, 1.96850393e-02, 1.96850393e-02, 2.36220472e-02,
          2.46062987e-02, 2.46062987e-02, 2.46062987e-02, 2.46062987e-02,
          2.46062987e-02, 2.46062987e-02, 2.46062987e-02, 2.46062987e-02,
          2.46062987e-02, 2.46062987e-02, 2.46062987e-02, 2.46062987e-02,
          2.46062987e-02, 1.37795275e-02, 9.84251965e-03, 1.77165363e-02,
          1.37795275e-02, 4.92125982e-03, 4.92125982e-03, 2.46062987e-02,
          2.46062987e-02, 4.92125982e-03, 0., 7.87401572e-03,
          9.84251965e-03, 0., 0., 2.26377957e-02, 2.36220472e-02,
          2.95275589e-03, 0., 5.90551179e-03, 9.84251965e-03, 0., 0.,
          1.96850393e-02, 1.96850393e-02, 1.27952760e-02, 7.87401572e-03,
          1.67322829e-02, 1.96850393e-02, 8.85826815e-03, 1.08267721e-02,
          2.16535442e-02, 1.18110236e-02, 2.46062987e-02, 2.46062987e-02,
          2.26377957e-02, 2.16535442e-02, 2.46062987e-02, 2.46062987e-02,
          1.67322829e-02, 9.84251965e-04, 1.08267721e-02, 1.47637799e-02,
          9.84251965e-03, 7.87401572e-03, 1.77165363e-02, 1.96850393e-02,
          2.95275589e-03 ]
      - [ 2.16535442e-02, 1.96850393e-02, 1.96850393e-02, 2.36220472e-02,
          2.46062987e-02, 2.46062987e-02, 2.46062987e-02, 2.46062987e-02,
          2.46062987e-02, 2.46062987e-02, 2.46062987e-02, 2.46062987e-02,
          2.46062987e-02, 2.46062987e-02, 2.46062987e-02, 2.46062987e-02,
          2.46062987e-02, 1.37795275e-02, 9.84251965e-03, 1.77165363e-02,
          1.37795275e-02, 4.92125982e-03, 4.92125982e-03, 2.46062987e-02,
          2.46062987e-02, 4.92125982e-03, 0., 7.87401572e-03,
          9.84251965e-03, 0., 0., 2.26377957e-02, 2.36220472e-02,
          2.95275589e-03, 0., 5.90551179e-03, 9.84251965e-03, 0., 0.,
          1.96850393e-02, 1.96850393e-02, 1.27952760e-02, 7.87401572e-03,
          1.67322829e-02, 1.96850393e-02, 8.85826815e-03, 1.08267721e-02,
          2.16535442e-02, 1.18110236e-02, 2.46062987e-02, 2.46062987e-02,
          2.26377957e-02, 2.16535442e-02, 2.46062987e-02, 2.46062987e-02,
          1.67322829e-02, 9.84251965e-04, 1.08267721e-02, 1.47637799e-02,
          9.84251965e-03, 7.87401572e-03, 1.77165363e-02, 1.96850393e-02,
          2.95275589e-03 ]
      - [ 2.16535442e-02, 1.96850393e-02, 1.96850393e-02, 2.36220472e-02,
          2.46062987e-02, 2.46062987e-02, 2.46062987e-02, 2.46062987e-02,
          2.46062987e-02, 2.46062987e-02, 2.46062987e-02, 2.46062987e-02,
          2.46062987e-02, 2.46062987e-02, 2.46062987e-02, 2.46062987e-02,
          2.46062987e-02, 1.37795275e-02, 9.84251965e-03, 1.77165363e-02,
          1.37795275e-02, 4.92125982e-03, 4.92125982e-03, 2.46062987e-02,
          2.46062987e-02, 4.92125982e-03, 0., 7.87401572e-03,
          9.84251965e-03, 0., 0., 2.26377957e-02, 2.36220472e-02,
          2.95275589e-03, 0., 5.90551179e-03, 9.84251965e-03, 0., 0.,
          1.96850393e-02, 1.96850393e-02, 1.27952760e-02, 7.87401572e-03,
          1.67322829e-02, 1.96850393e-02, 8.85826815e-03, 1.08267721e-02,
          2.16535442e-02, 1.18110236e-02, 2.46062987e-02, 2.46062987e-02,
          2.26377957e-02, 2.16535442e-02, 2.46062987e-02, 2.46062987e-02,
          1.67322829e-02, 9.84251965e-04, 1.08267721e-02, 1.47637799e-02,
          9.84251965e-03, 7.87401572e-03, 1.77165363e-02, 1.96850393e-02,
          2.95275589e-03 ]
      - [ 2.16535442e-02, 1.96850393e-02, 1.96850393e-02, 2.36220472e-02,
          2.46062987e-02, 2.46062987e-02, 2.46062987e-02, 2.46062987e-02,
          2.46062987e-02, 2.46062987e-02, 2.46062987e-02, 2.46062987e-02,
          2.46062987e-02, 2.46062987e-02, 2.46062987e-02, 2.46062987e-02,
          2.46062987e-02, 1.37795275e-02, 9.84251965e-03, 1.77165363e-02,
          1.37795275e-02, 4.92125982e-03, 4.92125982e-03, 2.46062987e-02,
          2.46062987e-02, 4.92125982e-03, 0., 7.87401572e-03,
          9.84251965e-03, 0., 0., 2.26377957e-02, 2.36220472e-02,
          2.95275589e-03, 0., 5.90551179e-03, 9.84251965e-03, 0., 0.,
          1.96850393e-02, 1.96850393e-02, 1.27952760e-02, 7.87401572e-03,
          1.67322829e-02, 1.96850393e-02, 8.85826815e-03, 1.08267721e-02,
          2.16535442e-02, 1.18110236e-02, 2.46062987e-02, 2.46062987e-02,
          2.26377957e-02, 2.16535442e-02, 2.46062987e-02, 2.46062987e-02,
          1.67322829e-02, 9.84251965e-04, 1.08267721e-02, 1.47637799e-02,
          9.84251965e-03, 7.87401572e-03, 1.77165363e-02, 1.96850393e-02,
          2.95275589e-03 ]
      - [ 2.16535442e-02, 1.96850393e-02, 1.96850393e-02, 2.36220472e-02,
          2.46062987e-02, 2.46062987e-02, 2.46062987e-02, 2.46062987e-02,
          2.46062987e-02, 2.46062987e-02, 2.46062987e-02, 2.46062987e-02,
          2.46062987e-02, 2.46062987e-02, 2.46062987e-02, 2.46062987e-02,
          2.46062987e-02, 1.37795275e-02, 9.84251965e-03, 1.77165363e-02,
          1.37795275e-02, 4.92125982e-03, 4.92125982e-03, 2.46062987e-02,
          2.46062987e-02, 4.92125982e-03, 0., 7.87401572e-03,
          9.84251965e-03, 0., 0., 2.26377957e-02, 2.36220472e-02,
          2.95275589e-03, 0., 5.90551179e-03, 9.84251965e-03, 0., 0.,
          1.96850393e-02, 1.96850393e-02, 1.27952760e-02, 7.87401572e-03,
          1.67322829e-02, 1.96850393e-02, 8.85826815e-03, 1.08267721e-02,
          2.16535442e-02, 1.18110236e-02, 2.46062987e-02, 2.46062987e-02,
          2.26377957e-02, 2.16535442e-02, 2.46062987e-02, 2.46062987e-02,
          1.67322829e-02, 9.84251965e-04, 1.08267721e-02, 1.47637799e-02,
          9.84251965e-03, 7.87401572e-03, 1.77165363e-02, 1.96850393e-02,
          2.95275589e-03 ]
      - [ 0., 1.74520072e-03, 1.91972069e-02, 2.61780098e-02,
          2.61780098e-02, 1.74520072e-02, 1.74520072e-03, 0.,
          6.98080286e-03, 3.83944139e-02, 4.36300188e-02, 4.36300188e-02,
          4.36300188e-02, 4.36300188e-02, 3.66492160e-02, 3.49040143e-03,
          2.61780098e-02, 3.49040143e-02, 1.74520072e-02, 1.22164050e-02,
          8.72600358e-03, 1.39616057e-02, 3.66492160e-02, 1.91972069e-02,
          4.18848172e-02, 1.04712043e-02, 0., 0., 0., 0., 1.91972069e-02,
          3.31588127e-02, 4.18848172e-02, 1.04712043e-02, 0., 0., 0., 0.,
          2.09424086e-02, 3.31588127e-02, 2.61780098e-02, 3.31588127e-02,
          6.98080286e-03, 0., 0., 1.22164050e-02, 4.01396155e-02,
          1.57068055e-02, 6.98080286e-03, 3.66492160e-02, 1.74520072e-02,
          0., 0., 3.14136110e-02, 3.14136110e-02, 1.74520072e-03, 0.,
          1.74520072e-03, 1.74520072e-03, 0., 0., 3.49040143e-03, 0., 0. ]
      - [ 0., 1.74520072e-03, 1.91972069e-02, 2.61780098e-02,
          2.61780098e-02, 1.74520072e-02, 1.74520072e-03, 0.,
          6.98080286e-03, 3.83944139e-02, 4.36300188e-02, 4.36300188e-02,
          4.36300188e-02, 4.36300188e-02, 3.66492160e-02, 3.49040143e-03,
          2.61780098e-02, 3.49040143e-02, 1.74520072e-02, 1.22164050e-02,
          8.72600358e-03, 1.39616057e-02, 3.66492160e-02, 1.91972069e-02,
          4.18848172e-02, 1.04712043e-02, 0., 0., 0., 0., 1.91972069e-02,
          3.31588127e-02, 4.18848172e-02, 1.04712043e-02, 0., 0., 0., 0.,
          2.09424086e-02, 3.31588127e-02, 2.61780098e-02, 3.31588127e-02,
          6.98080286e-03, 0., 0., 1.22164050e-02, 4.01396155e-02,
          1.57068055e-02, 6.98080286e-03, 3.66492160e-02, 1.74520072e-02,
          0., 0., 3.14136110e-02, 3.14136110e-02, 1.74520072e-03, 0.,
          1.74520072e-03, 1.74520072e-03, 0., 0., 3.49040143e-03, 0., 0. ]
      - [ 0., 1.74520072e-03, 1.91972069e-02, 2.61780098e-02,
          2.61780098e-02, 1.74520072e-02, 1.74520072e-03, 0.,
          6.98080286e-03, 3.83944139e-02, 4.36300188e-02, 4.36300188e-02,
          4.36300188e-02, 4.36300188e-02, 3.66492160e-02, 3.49040143e-03,
          2.61780098e-02, 3.49040143e-02, 1.74520072e-02, 1.22164050e-02,
          8.72600358e-03, 1.39616057e-02, 3.66492160e-02, 1.91972069e-02,
          4.18848172e-02, 1.04712043e-02, 0., 0., 0., 0., 1.91972069e-02,
          3.31588127e-02, 4.18848172e-02, 1.04712043e-02, 0., 0., 0., 0.,
          2.09424086e-02, 3.31588127e-02, 2.61780098e-02, 3.31588127e-02,
          6.98080286e-03, 0., 0., 1.22164050e-02, 4.01396155e-02,
          1.57068055e-02, 6.98080286e-03, 3.66492160e-02, 1.74520072e-02,
          0., 0., 3.14136110e-02, 3.14136110e-02, 1.74520072e-03, 0.,
          1.74520072e-03, 1.74520072e-03, 0., 0., 3.49040143e-03, 0., 0. ]
      - [ 0., 1.74520072e-03, 1.91972069e-02, 2.61780098e-02,
          2.61780098e-02, 1.74520072e-02, 1.74520072e-03, 0.,
          6.98080286e-03, 3.83944139e-02, 4.36300188e-02, 4.36300188e-02,
          4.36300188e-02, 4.36300188e-02, 3.66492160e-02, 3.49040143e-03,
          2.61780098e-02, 3.49040143e-02, 1.74520072e-02, 1.22164050e-02,
          8.72600358e-03, 1.39616057e-02, 3.66492160e-02, 1.91972069e-02,
          4.18848172e-02, 1.04712043e-02, 0., 0., 0., 0., 1.91972069e-02,
          3.31588127e-02, 4.18848172e-02, 1.04712043e-02, 0., 0., 0., 0.,
          2.09424086e-02, 3.31588127e-02, 2.61780098e-02, 3.31588127e-02,
          6.98080286e-03, 0., 0., 1.22164050e-02, 4.01396155e-02,
          1.57068055e-02, 6.98080286e-03, 3.66492160e-02, 1.74520072e-02,
          0., 0., 3.14136110e-02, 3.14136110e-02, 1.74520072e-03, 0.,
          1.74520072e-03, 1.74520072e-03, 0., 0., 3.49040143e-03, 0., 0. ]
      - [ 0., 1.74520072e-03, 1.91972069e-02, 2.61780098e-02,
          2.61780098e-02, 1.74520072e-02, 1.74520072e-03, 0.,
          6.98080286e-03, 3.83944139e-02, 4.36300188e-02, 4.36300188e-02,
          4.36300188e-02, 4.36300188e-02, 3.66492160e-02, 3.49040143e-03,
          2.61780098e-02, 3.49040143e-02, 1.74520072e-02, 1.22164050e-02,
          8.72600358e-03, 1.39616057e-02, 3.66492160e-02, 1.91972069e-02,
          4.18848172e-02, 1.04712043e-02, 0., 0., 0., 0., 1.91972069e-02,
          3.31588127e-02, 4.18848172e-02, 1.04712043e-02, 0., 0., 0., 0.,
          2.09424086e-02, 3.31588127e-02, 2.61780098e-02, 3.31588127e-02,
          6.98080286e-03, 0., 0., 1.22164050e-02, 4.01396155e-02,
          1.57068055e-02, 6.98080286e-03, 3.66492160e-02, 1.74520072e-02,
          0., 0., 3.14136110e-02, 3.14136110e-02, 1.74520072e-03, 0.,
          1.74520072e-03, 1.74520072e-03, 0., 0., 3.49040143e-03, 0., 0. ]
      - [ 1.84049085e-02, 2.30061356e-02, 2.30061356e-02, 2.91411038e-02,
          3.06748468e-02, 3.06748468e-02, 3.06748468e-02, 2.45398767e-02,
          3.06748468e-02, 2.91411038e-02, 2.30061356e-02, 2.30061356e-02,
          2.30061356e-02, 2.30061356e-02, 2.45398767e-02, 3.06748468e-02,
          3.06748468e-02, 0., 0., 0., 0., 0., 0., 3.06748468e-02,
          3.06748468e-02, 0., 0., 0., 0., 0., 0., 3.06748468e-02,
          2.91411038e-02, 1.53374230e-03, 0., 0., 0., 0., 0.,
          3.06748468e-02, 2.14723926e-02, 1.22699384e-02, 0., 0., 0., 0.,
          1.07361963e-02, 2.45398767e-02, 7.66871171e-03, 3.37423310e-02,
          2.30061356e-02, 2.30061356e-02, 2.30061356e-02, 2.30061356e-02,
          3.52760740e-02, 9.20245424e-03, 0., 1.53374234e-02,
          3.06748468e-02, 3.06748468e-02, 3.06748468e-02, 3.06748468e-02,
          1.38036814e-02, 0. ]
      - [ 1.84049085e-02, 2.30061356e-02, 2.30061356e-02, 2.91411038e-02,
          3.06748468e-02, 3.06748468e-02, 3.06748468e-02, 2.45398767e-02,
          3.06748468e-02, 2.91411038e-02, 2.30061356e-02, 2.30061356e-02,
          2.30061356e-02, 2.30061356e-02, 2.45398767e-02, 3.06748468e-02,
          3.06748468e-02, 0., 0., 0., 0., 0., 0., 3.06748468e-02,
          3.06748468e-02, 0., 0., 0., 0., 0., 0., 3.06748468e-02,
          2.91411038e-02, 1.53374230e-03, 0., 0., 0., 0., 0.,
          3.06748468e-02, 2.14723926e-02, 1.22699384e-02, 0., 0., 0., 0.,
          1.07361963e-02, 2.45398767e-02, 7.66871171e-03, 3.37423310e-02,
          2.30061356e-02, 2.30061356e-02, 2.30061356e-02, 2.30061356e-02,
          3.52760740e-02, 9.20245424e-03, 0., 1.53374234e-02,
          3.06748468e-02, 3.06748468e-02, 3.06748468e-02, 3.06748468e-02,
          1.38036814e-02, 0. ]
      - [ 1.84049085e-02, 2.30061356e-02, 2.30061356e-02, 2.91411038e-02,
          3.06748468e-02, 3.06748468e-02, 3.06748468e-02, 2.45398767e-02,
          3.06748468e-02, 2.91411038e-02, 2.30061356e-02, 2.30061356e-02,
          2.30061356e-02, 2.30061356e-02, 2.45398767e-02, 3.06748468e-02,
          3.06748468e-02, 0., 0., 0., 0., 0., 0., 3.06748468e-02,
          3.06748468e-02, 0., 0., 0., 0., 0., 0., 3.06748468e-02,
          2.91411038e-02, 1.53374230e-03, 0., 0., 0., 0., 0.,
          3.06748468e-02, 2.14723926e-02, 1.22699384e-02, 0., 0., 0., 0.,
          1.07361963e-02, 2.45398767e-02, 7.66871171e-03, 3.37423310e-02,
          2.30061356e-02, 2.30061356e-02, 2.30061356e-02, 2.30061356e-02,
          3.52760740e-02, 9.20245424e-03, 0., 1.53374234e-02,
          3.06748468e-02, 3.06748468e-02, 3.06748468e-02, 3.06748468e-02,
          1.38036814e-02, 0. ]
      - [ 1.84049085e-02, 2.30061356e-02, 2.30061356e-02, 2.91411038e-02,
          3.06748468e-02, 3.06748468e-02, 3.06748468e-02, 2.45398767e-02,
