%YAML:1.0
---
opencv_ml_svm:
   format: 3
   svmType: C_SVC
   kernel:
      type: RBF
      gamma: 5.0625000000000009e-01
   C: 6.2500000000000000e+01
   term_criteria: { iterations:100 }
   var_count: 32
   class_count: 30
   class_labels: !!opencv-matrix
      rows: 30
      cols: 1
      dt: i
      data: [ 0, 1, 2, 3, 4, 5, 6, 7, 8, 9, 10, 11, 12, 13, 14, 15, 16,
          17, 18, 19, 20, 21, 22, 23, 24, 25, 26, 27, 28, 29 ]
   sv_total: 153
   support_vectors:
      - [ 7.17703328e-02, 1.18022330e-01, 1.21212125e-01, 6.37958497e-02,
          7.01754391e-02, 0., 0., 7.33652338e-02, 6.85805455e-02, 0., 0.,
          7.49601275e-02, 6.22009560e-02, 1.06858052e-01, 1.10047847e-01,
          5.90111651e-02, 3.74800622e-01, 1.43540680e-01, 1.43540680e-01,
          3.38118017e-01, 2.72727281e-01, 2.24880382e-01, 2.31259972e-01,
          2.71132380e-01, 1.30781502e-01, 1.25996798e-01, 2.59968102e-01,
          2.58373201e-01, 2.37639546e-01, 2.44019136e-01, 0., 1. ]
      - [ 6.06060624e-02, 1.13636367e-01, 1.13636367e-01, 6.06060624e-02,
          7.95454532e-02, 0., 0., 7.95454532e-02, 7.19696954e-02, 0., 0.,
          7.57575780e-02, 5.87121211e-02, 1.13636367e-01, 1.13636367e-01,
          5.87121211e-02, 3.48484874e-01, 1.59090906e-01, 1.47727281e-01,
          3.44696969e-01, 2.70833343e-01, 2.27272734e-01, 2.27272734e-01,
          2.74621218e-01, 1.19318187e-01, 1.19318187e-01, 2.53787875e-01,
          2.53787875e-01, 2.44318187e-01, 2.48106062e-01, 0., 1. ]
      - [ 6.37254938e-02, 1.09477125e-01, 1.04575165e-01, 6.04575165e-02,
          8.49673226e-02, 0., 0., 6.69934675e-02, 8.33333358e-02, 0., 0.,
          7.35294148e-02, 6.04575165e-02, 1.25817001e-01, 1.07843138e-01,
          5.88235296e-02, 3.38235289e-01, 1.51960790e-01, 1.56862751e-01,
          3.52941185e-01, 2.92483658e-01, 2.35294133e-01, 2.12418303e-01,
          2.59803921e-01, 1.22549027e-01, 1.20915033e-01, 2.58169949e-01,
          2.32026145e-01, 2.69607842e-01, 2.40196079e-01, 0., 1. ]
      - [ 5.53191490e-02, 1.27659574e-01, 1.27659574e-01, 5.31914905e-02,
          7.02127665e-02, 0., 0., 7.02127665e-02, 6.59574494e-02, 0., 0.,
          7.44680837e-02, 4.46808524e-02, 1.27659574e-01, 1.27659574e-01,
          5.53191490e-02, 3.63829792e-01, 1.40425533e-01, 1.40425533e-01,
          3.55319142e-01, 2.36170217e-01, 2.55319148e-01, 2.55319148e-01,
          2.53191501e-01, 1.10638298e-01, 9.78723466e-02, 2.53191501e-01,
          2.51063824e-01, 2.38297880e-01, 2.57446796e-01, 0., 1. ]
      - [ 5.00807762e-02, 1.29240707e-01, 1.16316639e-01, 5.65428101e-02,
          9.04684961e-02, 0., 0., 8.07754472e-02, 8.56219679e-02, 0., 0.,
          8.40064585e-02, 4.52342480e-02, 1.22778676e-01, 9.69305336e-02,
          4.20032293e-02, 3.52180928e-01, 1.71243936e-01, 1.69628426e-01,
          3.06946695e-01, 2.71405488e-01, 2.52019376e-01, 2.13247180e-01,
          2.63327956e-01, 9.20840055e-02, 1.01777062e-01, 2.69789994e-01,
          2.53634900e-01, 2.53634900e-01, 2.22940221e-01, 0., 1. ]
      - [ 4.36432622e-02, 9.67741907e-02, 9.86717269e-02, 5.31309284e-02,
          9.29791257e-02, 1.89753319e-03, 0., 9.48766619e-02,
          8.91840607e-02, 0., 0., 9.67741907e-02, 4.74383309e-02,
          1.32827327e-01, 9.86717269e-02, 5.31309284e-02, 2.92220116e-01,
          1.89753324e-01, 1.85958251e-01, 3.32068324e-01, 2.73244768e-01,
          2.31499046e-01, 1.97343454e-01, 2.97912717e-01, 9.86717269e-02,
          1.00569263e-01, 2.35294119e-01, 2.46679321e-01, 2.69449711e-01,
          2.48576850e-01, 1.89753319e-03, 9.98102486e-01 ]
      - [ 4.36137058e-02, 1.21495329e-01, 1.24610595e-01, 4.82866056e-02,
          8.09968859e-02, 6.23052940e-03, 0., 7.32087195e-02,
          8.72274116e-02, 3.11526489e-02, 3.11526489e-02, 7.32087195e-02,
          5.29595017e-02, 9.65732113e-02, 9.34579447e-02, 3.58255468e-02,
          3.38006228e-01, 1.60436139e-01, 2.22741425e-01, 2.78816193e-01,
          2.64797509e-01, 2.55451709e-01, 2.49221191e-01, 2.30529591e-01,
          1.16822429e-01, 1.32398754e-01, 2.52336442e-01, 2.46105924e-01,
          2.67912775e-01, 2.33644858e-01, 6.85358271e-02, 9.31464195e-01 ]
      - [ 4.16024663e-02, 9.24499240e-03, 0., 0., 1.01694912e-01,
          1.54083204e-02, 1.54083204e-02, 3.23574729e-02, 1.38674885e-01,
          1.54083207e-01, 1.54083207e-01, 1.38674885e-01, 7.39599392e-02,
          4.62249629e-02, 4.62249629e-02, 3.23574729e-02, 5.08474596e-02,
          1.64869025e-01, 5.85516214e-01, 1.98767334e-01, 3.55932206e-01,
          2.24961489e-01, 2.15716496e-01, 2.03389823e-01, 2.43451461e-01,
          2.43451461e-01, 1.67950690e-01, 4.77657914e-02, 4.12943006e-01,
          3.71340513e-01, 3.38983059e-01, 6.61016941e-01 ]
      - [ 4.14078683e-02, 0., 0., 0., 9.73084867e-02, 0., 1.65631473e-02,
          2.89855078e-02, 1.57349899e-01, 1.65631473e-01, 1.82194620e-01,
          1.61490679e-01, 3.31262946e-02, 4.14078683e-02, 4.14078683e-02,
          3.31262946e-02, 4.14078683e-02, 1.42857134e-01, 6.66666687e-01,
          1.49068326e-01, 3.29192549e-01, 2.07039341e-01, 2.40165636e-01,
          2.23602474e-01, 2.56728768e-01, 2.15320915e-01, 1.38716355e-01,
          4.55486551e-02, 3.97515535e-01, 4.18219447e-01, 3.64389241e-01,
          6.35610759e-01 ]
      - [ 4.65444289e-02, 5.64174913e-03, 0., 0., 9.16784182e-02,
          1.26939351e-02, 1.41043719e-02, 1.97461210e-02, 1.25528917e-01,
          1.39633283e-01, 1.41043723e-01, 1.26939356e-01, 7.47531727e-02,
          7.05218613e-02, 7.05218613e-02, 6.06488027e-02, 5.21861762e-02,
          1.38222843e-01, 5.33145308e-01, 2.76445687e-01, 3.38504940e-01,
          2.28490829e-01, 2.25669950e-01, 2.07334280e-01, 2.60930896e-01,
          2.28490829e-01, 1.56558529e-01, 3.38504910e-02, 4.10437226e-01,
          3.99153739e-01, 3.07475299e-01, 6.92524672e-01 ]
      - [ 4.02985066e-02, 8.95522349e-03, 0., 0., 9.70149264e-02, 0., 0.,
          4.47761174e-03, 1.32835820e-01, 1.34328365e-01, 1.34328365e-01,
          1.20895520e-01, 8.05970132e-02, 8.95522386e-02, 8.95522386e-02,
          6.71641827e-02, 4.92537320e-02, 1.01492539e-01, 5.22388101e-01,
          3.26865673e-01, 3.50746274e-01, 2.32835829e-01, 2.23880604e-01,
          1.92537308e-01, 2.41791055e-01, 2.14925379e-01, 1.46268651e-01,
          4.47761174e-03, 4.37313437e-01, 4.11940306e-01, 2.68656731e-01,
          7.31343269e-01 ]
      - [ 4.26621176e-02, 0., 0., 0., 1.10921502e-01, 3.41296941e-02,
          6.82593836e-03, 0., 1.36518776e-01, 1.70648471e-01,
          1.43344715e-01, 1.09215014e-01, 2.73037534e-02, 6.48464188e-02,
          8.53242353e-02, 6.82593882e-02, 4.26621176e-02, 1.51877135e-01,
          5.59726954e-01, 2.45733798e-01, 3.17406148e-01, 2.69624591e-01,
          2.35494882e-01, 1.77474409e-01, 2.88395911e-01, 2.04778165e-01,
          1.87713310e-01, 6.82593836e-03, 3.99317414e-01, 4.06143367e-01,
          3.54948819e-01, 6.45051181e-01 ]
      - [ 6.83918670e-02, 2.03327164e-02, 1.84842886e-03, 9.98151600e-02,
          9.79667306e-02, 0., 8.68761539e-02, 1.31238446e-01,
          9.24214423e-02, 4.62107211e-02, 8.13308656e-02, 7.39371553e-02,
          4.43622917e-02, 9.61183012e-02, 0., 5.91497235e-02,
          1.90388173e-01, 3.16081345e-01, 2.93900192e-01, 1.99630320e-01,
          3.03142339e-01, 1.62661731e-01, 1.70055449e-01, 3.64140481e-01,
          2.08872452e-01, 2.77264327e-01, 1.86691314e-01, 3.19778174e-01,
          2.79112756e-01, 2.14417741e-01, 2.14417741e-01, 7.85582244e-01 ]
      - [ 4.57665920e-02, 2.05949657e-02, 2.28832942e-03, 8.69565234e-02,
          1.09839819e-01, 4.57665883e-03, 6.40732273e-02, 1.37299776e-01,
          9.61098373e-02, 2.74599548e-02, 7.78032020e-02, 9.15331841e-02,
          6.63615540e-02, 1.02974832e-01, 2.28832942e-03, 6.40732273e-02,
          1.55606404e-01, 3.15789491e-01, 2.92906165e-01, 2.35697940e-01,
          3.18077803e-01, 1.55606419e-01, 1.46453083e-01, 3.79862726e-01,
          1.92219675e-01, 2.44851261e-01, 1.80778041e-01, 2.90617853e-01,
          2.92906165e-01, 2.35697940e-01, 1.73913047e-01, 8.26086998e-01 ]
      - [ 5.41760735e-02, 3.16027105e-02, 0., 1.01580136e-01,
          1.03837475e-01, 0., 8.57787803e-02, 1.21896163e-01,
          8.80361199e-02, 3.83747183e-02, 7.67494366e-02, 9.02934521e-02,
          4.51467261e-02, 1.12866819e-01, 0., 4.96613979e-02,
          1.87358916e-01, 3.11512411e-01, 2.93453723e-01, 2.07674950e-01,
          2.91196406e-01, 1.82844251e-01, 1.62528217e-01, 3.63431156e-01,
          1.80586904e-01, 2.70880371e-01, 1.89616263e-01, 3.09255064e-01,
          2.84424394e-01, 2.16704279e-01, 2.00902939e-01, 7.99097061e-01 ]
      - [ 6.04575165e-02, 1.96078438e-02, 1.63398695e-03, 1.07843138e-01,
          9.31372568e-02, 1.63398695e-03, 7.84313753e-02, 1.07843138e-01,
          8.82352963e-02, 3.43137272e-02, 7.51634017e-02, 8.16993490e-02,
          7.02614412e-02, 1.14379086e-01, 1.63398695e-03, 6.37254938e-02,
          1.89542487e-01, 2.81045765e-01, 2.79411763e-01, 2.50000000e-01,
          3.12091500e-01, 1.69934645e-01, 1.56862751e-01, 3.61111104e-01,
          2.00980395e-01, 2.90849686e-01, 1.74836606e-01, 2.95751631e-01,
          3.07189554e-01, 2.22222239e-01, 1.89542487e-01, 8.10457528e-01 ]
      - [ 5.82191795e-02, 2.73972601e-02, 3.42465751e-03, 9.58904102e-02,
          8.90410990e-02, 3.42465751e-03, 8.04794505e-02, 1.11301370e-01,
          8.73287693e-02, 5.30821905e-02, 8.39041099e-02, 6.84931502e-02,
          6.67808205e-02, 1.07876711e-01, 1.02739725e-02, 5.30821905e-02,
          1.84931502e-01, 2.84246564e-01, 2.92808235e-01, 2.38013700e-01,
          3.01369876e-01, 1.91780820e-01, 1.78082198e-01, 3.28767121e-01,
          1.98630139e-01, 2.96232879e-01, 1.78082198e-01, 2.91095883e-01,
          3.15068483e-01, 2.15753421e-01, 2.20890403e-01, 7.79109597e-01 ]
      - [ 7.28241578e-02, 1.24333929e-02, 3.55239795e-03, 9.76909399e-02,
          9.23623443e-02, 0., 9.59147438e-02, 1.08348139e-01,
          9.94671434e-02, 6.74955621e-02, 7.28241578e-02, 7.10479543e-02,
          6.21669628e-02, 8.52575526e-02, 0., 5.86145632e-02,
          1.86500892e-01, 2.96625227e-01, 3.10834825e-01, 2.06039071e-01,
          3.26820612e-01, 1.65186509e-01, 1.72291294e-01, 3.35701585e-01,
          2.04262882e-01, 3.23268205e-01, 1.77619889e-01, 3.05506229e-01,
          3.14387232e-01, 2.02486679e-01, 2.36234456e-01, 7.63765574e-01 ]
      - [ 8.36575851e-02, 1.36186769e-02, 1.94552529e-03, 1.05058365e-01,
          9.14396867e-02, 0., 8.75486359e-02, 1.26459137e-01,
          8.94941613e-02, 5.05836569e-02, 7.39299580e-02, 7.78210089e-02,
          5.83657585e-02, 8.17120597e-02, 0., 5.83657585e-02,
          2.04280153e-01, 3.05447459e-01, 2.91828781e-01, 1.98443577e-01,
          3.22957188e-01, 1.45914391e-01, 1.63424119e-01, 3.67704272e-01,
          2.15953305e-01, 3.01556408e-01, 1.88715950e-01, 3.21011662e-01,
          2.80155629e-01, 2.10116729e-01, 2.12062255e-01, 7.87937701e-01 ]
      - [ 6.72645718e-02, 1.94319878e-02, 1.64424516e-02, 7.17488825e-02,
          7.77279511e-02, 2.39162929e-02, 2.54110619e-02, 8.07174891e-02,
          8.37070271e-02, 5.53064272e-02, 5.53064272e-02, 8.22122544e-02,
          5.82959652e-02, 1.09118089e-01, 1.04633778e-01, 6.87593445e-02,
          1.74887896e-01, 2.07772791e-01, 2.76532143e-01, 3.40807170e-01,
          2.86995530e-01, 2.07772791e-01, 2.01793715e-01, 3.03437978e-01,
          2.15246633e-01, 2.10762337e-01, 1.88340798e-01, 1.94319889e-01,
          3.06427509e-01, 3.10911804e-01, 1.59940213e-01, 8.40059817e-01 ]
      - [ 6.66666701e-02, 1.04166670e-02, 1.45833334e-02, 5.20833321e-02,
          8.54166672e-02, 2.70833336e-02, 2.08333340e-02, 8.54166672e-02,
          9.16666687e-02, 8.95833299e-02, 8.54166672e-02, 8.54166672e-02,
          5.41666672e-02, 8.33333358e-02, 1.02083333e-01, 4.58333343e-02,
          1.43749997e-01, 2.18750000e-01, 3.52083325e-01, 2.85416663e-01,
          2.97916681e-01, 2.10416660e-01, 2.22916663e-01, 2.68750012e-01,
          2.25000009e-01, 2.16666669e-01, 1.89583331e-01, 1.72916666e-01,
          3.18749994e-01, 3.18749994e-01, 2.22916663e-01, 7.77083337e-01 ]
      - [ 6.60225451e-02, 1.61030591e-02, 2.41545886e-02, 5.63607067e-02,
          9.33977440e-02, 2.25442834e-02, 1.77133661e-02, 9.50080529e-02,
          8.69565234e-02, 6.28019348e-02, 5.31400964e-02, 8.37359130e-02,
          6.28019348e-02, 9.82286632e-02, 1.03059582e-01, 5.79710156e-02,
          1.62640899e-01, 2.28663445e-01, 2.86634475e-01, 3.22061181e-01,
          3.09178740e-01, 1.99677944e-01, 1.98067635e-01, 2.93075681e-01,
          1.99677944e-01, 1.99677944e-01, 1.98067635e-01, 1.93236709e-01,
          3.10789049e-01, 2.97906607e-01, 1.56199679e-01, 8.43800306e-01 ]
      - [ 7.32436478e-02, 2.24215239e-02, 2.24215239e-02, 6.42750338e-02,
          8.52017924e-02, 2.24215239e-02, 1.64424516e-02, 8.52017924e-02,
          8.66965652e-02, 6.12854995e-02, 5.53064272e-02, 8.07174891e-02,
          6.57698065e-02, 9.86547098e-02, 1.06128551e-01, 5.38116582e-02,
          1.82361722e-01, 2.09267557e-01, 2.84005970e-01, 3.24364722e-01,
          3.10911804e-01, 2.04783261e-01, 2.00298950e-01, 2.84005970e-01,
          2.04783261e-01, 2.07772791e-01, 2.03288496e-01, 1.88340798e-01,
          3.12406570e-01, 2.95964122e-01, 1.55455902e-01, 8.44544113e-01 ]
      - [ 6.01202399e-02, 2.40480956e-02, 2.80561130e-02, 5.61122261e-02,
          9.01803598e-02, 2.00400800e-02, 2.00400800e-02, 1.00200400e-01,
          9.41883773e-02, 5.41082174e-02, 5.41082174e-02, 8.81763548e-02,
          4.60921861e-02, 1.06212422e-01, 1.12224452e-01, 4.60921861e-02,
          1.68336675e-01, 2.30460912e-01, 2.90581167e-01, 3.10621262e-01,
          2.90581167e-01, 2.04408810e-01, 2.14428857e-01, 2.90581167e-01,
          1.80360720e-01, 1.76352710e-01, 1.94388777e-01, 2.04408824e-01,
          3.00601214e-01, 3.00601214e-01, 1.48296595e-01, 8.51703405e-01 ]
      - [ 6.63265288e-02, 1.02040814e-02, 2.04081628e-02, 5.10204099e-02,
          7.90816322e-02, 2.55102050e-02, 1.27551025e-02, 9.18367356e-02,
          7.39795938e-02, 9.69387740e-02, 8.16326514e-02, 7.39795938e-02,
          5.10204099e-02, 1.07142858e-01, 1.12244897e-01, 4.59183678e-02,
          1.47959188e-01, 2.09183678e-01, 3.26530606e-01, 3.16326529e-01,
          2.70408154e-01, 2.39795923e-01, 2.27040812e-01, 2.62755096e-01,
          2.19387755e-01, 2.11734697e-01, 1.81122452e-01, 1.76020414e-01,
          3.29081625e-01, 3.13775510e-01, 2.16836736e-01, 7.83163249e-01 ]
      - [ 6.97050914e-02, 1.07238609e-02, 1.60857905e-02, 5.36193028e-02,
          9.11528170e-02, 1.07238609e-02, 5.36193047e-03, 8.04289579e-02,
          8.04289579e-02, 1.01876676e-01, 8.04289579e-02, 8.31099227e-02,
          5.36193028e-02, 1.07238606e-01, 1.17962465e-01, 3.75335105e-02,
          1.50134042e-01, 1.87667564e-01, 3.45844507e-01, 3.16353887e-01,
          2.94906169e-01, 2.30563000e-01, 2.19839141e-01, 2.54691690e-01,
          1.98391423e-01, 2.14477211e-01, 1.82305634e-01, 1.55495986e-01,
          3.43163550e-01, 3.19034845e-01, 1.98391423e-01, 8.01608562e-01 ]
      - [ 6.52591139e-02, 2.49520149e-02, 2.49520149e-02, 7.10172728e-02,
          7.67754316e-02, 1.53550860e-02, 1.53550860e-02, 8.25335905e-02,
          7.86948204e-02, 5.95009588e-02, 5.95009588e-02, 8.25335905e-02,
          5.95009588e-02, 1.09404989e-01, 1.09404989e-01, 6.52591139e-02,
          1.86180413e-01, 1.90019190e-01, 2.80230343e-01, 3.43570054e-01,
          2.80230314e-01, 2.09213048e-01, 2.09213048e-01, 3.01343560e-01,
          2.05374271e-01, 2.05374271e-01, 1.82341650e-01, 1.93857968e-01,
          3.07101727e-01, 3.16698641e-01, 1.49712086e-01, 8.50287914e-01 ]
      - [ 0., 3.94477323e-03, 1.06508873e-01, 4.53648902e-02,
          4.93096635e-02, 1.34122282e-01, 8.67850110e-02, 5.91715984e-02,
          9.66469422e-02, 3.94477323e-02, 1.40039444e-01, 1.28205135e-01,
          0., 7.88954645e-03, 5.71992099e-02, 4.53648902e-02,
          1.55818537e-01, 3.29388559e-01, 4.04339254e-01, 1.10453650e-01,
          1.45956606e-01, 1.85404330e-01, 3.90532553e-01, 2.78106511e-01,
          3.19526613e-01, 1.71597630e-01, 1.87376723e-01, 2.97830373e-01,
          1.43984228e-01, 3.70808691e-01, 4.00394469e-01, 5.99605501e-01 ]
      - [ 0., 7.79727101e-03, 1.01364523e-01, 4.67836261e-02,
          6.43274859e-02, 1.50097460e-01, 7.01754391e-02, 5.84795326e-02,
          8.77192989e-02, 3.11890841e-02, 1.30604282e-01, 1.42300189e-01,
          0., 5.84795326e-03, 4.09356728e-02, 6.23781681e-02,
          1.55945420e-01, 3.43079925e-01, 3.91812861e-01, 1.09161794e-01,
          1.52046785e-01, 1.94931775e-01, 3.43079925e-01, 3.09941530e-01,
          3.43079925e-01, 1.48148149e-01, 2.22222209e-01, 2.76803136e-01,
          1.24756336e-01, 3.76218319e-01, 3.82066250e-01, 6.17933750e-01 ]
      - [ 0., 1.31086139e-02, 1.12359554e-01, 4.49438207e-02,
          5.61797768e-02, 1.46067411e-01, 5.61797768e-02, 6.17977530e-02,
          8.42696652e-02, 2.99625471e-02, 1.36704117e-01, 1.47940069e-01,
          0., 7.49063678e-03, 3.74531820e-02, 6.55430704e-02,
          1.70411989e-01, 3.20224702e-01, 3.98876399e-01, 1.10486887e-01,
          1.40449435e-01, 1.96629211e-01, 3.42696637e-01, 3.20224702e-01,
          3.48314583e-01, 1.31086141e-01, 2.15355799e-01, 2.75280893e-01,
          1.21722847e-01, 3.87640446e-01, 3.68913859e-01, 6.31086171e-01 ]
      - [ 0., 2.57352944e-02, 1.26838237e-01, 6.43382370e-02,
          9.19117630e-02, 1.26838237e-01, 4.22794111e-02, 6.80147037e-02,
          4.59558815e-02, 2.57352944e-02, 1.34191170e-01, 1.37867644e-01,
          0., 3.67647060e-03, 3.30882370e-02, 7.35294148e-02,
          2.16911763e-01, 3.29044104e-01, 3.43750000e-01, 1.10294126e-01,
          1.37867644e-01, 1.81985304e-01, 3.36397052e-01, 3.43750000e-01,
          3.34558815e-01, 1.32352948e-01, 2.44485289e-01, 3.01470578e-01,
          7.53676444e-02, 3.78676474e-01, 3.29044104e-01, 6.70955896e-01 ]
      - [ 0., 1.77865606e-02, 1.14624508e-01, 4.74308282e-02,
          9.88142267e-02, 1.44268781e-01, 7.11462423e-02, 5.92885390e-02,
          5.73122539e-02, 2.76679844e-02, 1.44268781e-01, 1.36363640e-01,
          0., 3.95256933e-03, 2.96442695e-02, 4.74308282e-02,
          1.79841891e-01, 3.73517781e-01, 3.65612656e-01, 8.10276642e-02,
          1.56126484e-01, 1.93675891e-01, 3.59683812e-01, 2.90513843e-01,
          3.35968375e-01, 1.46245062e-01, 2.60869563e-01, 2.92490125e-01,
          8.89328048e-02, 3.57707530e-01, 3.87351781e-01, 6.12648249e-01 ]
      - [ 9.43738669e-02, 1.08892925e-01, 3.26678753e-02, 6.17059879e-02,
          9.80036333e-02, 8.34845752e-02, 0., 7.62250423e-02,
          9.07441005e-02, 7.62250423e-02, 1.45190563e-02, 8.34845752e-02,
          6.17059879e-02, 1.45190563e-02, 7.25952834e-02, 3.08529940e-02,
          2.97640651e-01, 2.57713258e-01, 2.64972776e-01, 1.79673314e-01,
          3.44827592e-01, 2.83121586e-01, 1.19782217e-01, 2.52268612e-01,
          2.23230496e-01, 1.99637026e-01, 3.84755015e-01, 1.70598909e-01,
          2.43194193e-01, 2.01451913e-01, 1.74228668e-01, 8.25771332e-01 ]
      - [ 8.49909559e-02, 1.37432188e-01, 4.70162742e-02, 6.32911399e-02,
          7.41410479e-02, 7.95660019e-02, 1.80831831e-03, 7.05244094e-02,
          6.14828207e-02, 7.59493634e-02, 2.16998197e-02, 8.31826404e-02,
          3.97830009e-02, 1.98915005e-02, 1.04882456e-01, 3.43580469e-02,
          3.32730561e-01, 2.26039782e-01, 2.42314637e-01, 1.98915005e-01,
          2.60397822e-01, 3.12839061e-01, 1.75406873e-01, 2.51356244e-01,
          2.20614821e-01, 1.80831820e-01, 3.76130193e-01, 1.82640135e-01,
          1.97106689e-01, 2.44122967e-01, 1.79023504e-01, 8.20976496e-01 ]
      - [ 8.93416926e-02, 1.09717868e-01, 5.17241396e-02, 5.95611297e-02,
          6.58307225e-02, 7.68025070e-02, 3.13479616e-03, 7.83699080e-02,
          6.73981160e-02, 7.36677125e-02, 6.26959233e-03, 7.83699080e-02,
          5.79937287e-02, 2.82131657e-02, 1.08150467e-01, 4.54545468e-02,
          3.10344815e-01, 2.24137932e-01, 2.25705326e-01, 2.39811912e-01,
          2.80564249e-01, 2.88401246e-01, 1.69278994e-01, 2.61755496e-01,
          2.17868343e-01, 1.94357365e-01, 3.41692805e-01, 1.92789972e-01,
          2.27272719e-01, 2.38244519e-01, 1.59874603e-01, 8.40125382e-01 ]
      - [ 9.75999981e-02, 1.16800003e-01, 5.92000000e-02, 6.08000010e-02,
          7.19999969e-02, 7.84000009e-02, 0., 7.36000016e-02,
          6.40000030e-02, 7.84000009e-02, 2.08000001e-02, 7.84000009e-02,
          5.27999997e-02, 2.08000001e-02, 9.44000036e-02, 3.20000015e-02,
          3.34399998e-01, 2.24000007e-01, 2.41600007e-01, 2.00000003e-01,
          2.86399990e-01, 2.94400007e-01, 1.74400002e-01, 2.44800001e-01,
          2.28799999e-01, 1.92000002e-01, 3.64800006e-01, 1.93599999e-01,
          2.16000006e-01, 2.25600004e-01, 1.77599996e-01, 8.22400033e-01 ]
      - [ 9.56790149e-02, 1.18827164e-01, 5.40123470e-02, 6.01851866e-02,
          6.17283955e-02, 7.87037015e-02, 0., 6.94444478e-02,
          7.40740746e-02, 7.87037015e-02, 3.24074067e-02, 7.40740746e-02,
          5.55555560e-02, 2.00617276e-02, 9.25925896e-02, 3.39506157e-02,
          3.28703701e-01, 2.09876537e-01, 2.59259254e-01, 2.02160493e-01,
          2.87037045e-01, 2.96296299e-01, 1.79012343e-01, 2.37654328e-01,
          2.40740746e-01, 1.94444448e-01, 3.54938269e-01, 1.83641985e-01,
          2.28395060e-01, 2.33024687e-01, 1.89814806e-01, 8.10185194e-01 ]
      - [ 8.84773657e-02, 1.27572015e-01, 5.96707836e-02, 5.76131679e-02,
          6.58436194e-02, 6.79012313e-02, 0., 6.58436194e-02,
          7.61316866e-02, 7.61316866e-02, 4.11522649e-02, 7.61316866e-02,
          4.52674888e-02, 2.05761325e-02, 1.00823045e-01, 3.08641978e-02,
          3.33333343e-01, 1.99588478e-01, 2.69547313e-01, 1.97530866e-01,
          2.75720149e-01, 2.92181075e-01, 2.01646090e-01, 2.30452672e-01,
          2.28395060e-01, 1.79012343e-01, 3.49794239e-01, 1.83127567e-01,
          2.18107000e-01, 2.48971194e-01, 1.85185179e-01, 8.14814806e-01 ]
      - [ 8.96551758e-02, 9.82758626e-02, 3.96551713e-02, 5.00000007e-02,
          8.96551758e-02, 7.58620724e-02, 5.17241377e-03, 8.44827592e-02,
          8.62068981e-02, 6.55172393e-02, 3.44827585e-03, 8.10344815e-02,
          6.55172393e-02, 2.75862068e-02, 8.96551758e-02, 4.82758619e-02,
          2.77586222e-01, 2.55172431e-01, 2.36206889e-01, 2.31034487e-01,
          3.31034482e-01, 2.67241389e-01, 1.37931034e-01, 2.63793111e-01,
          2.17241392e-01, 1.86206892e-01, 3.53448272e-01, 1.79310352e-01,
          2.44827583e-01, 2.22413793e-01, 1.50000006e-01, 8.50000024e-01 ]
      - [ 9.87261161e-02, 1.14649683e-01, 4.45859879e-02, 6.05095550e-02,
          6.52866215e-02, 7.96178356e-02, 0., 7.32484087e-02,
          7.96178356e-02, 7.48407617e-02, 3.18471342e-03, 7.80254751e-02,
          6.84713349e-02, 1.59235671e-02, 9.87261161e-02, 4.45859879e-02,
          3.18471342e-01, 2.18152866e-01, 2.35668778e-01, 2.27706999e-01,
          3.12101901e-01, 2.85031855e-01, 1.46496817e-01, 2.56369412e-01,
          2.26114661e-01, 2.03821659e-01, 3.58280241e-01, 1.78343952e-01,
          2.38853499e-01, 2.24522293e-01, 1.57643318e-01, 8.42356682e-01 ]
      - [ 8.94039720e-02, 1.12582780e-01, 3.31125818e-02, 6.62251636e-02,
          8.27814564e-02, 6.78807944e-02, 0., 7.45033100e-02,
          8.27814564e-02, 6.78807944e-02, 3.47682126e-02, 7.78145716e-02,
          5.96026480e-02, 1.82119198e-02, 9.60264876e-02, 3.64238396e-02,
          3.01324487e-01, 2.25165561e-01, 2.63245046e-01, 2.10264891e-01,
          3.14569533e-01, 2.66556293e-01, 1.63907290e-01, 2.54966885e-01,
          2.28476822e-01, 1.93708599e-01, 3.52649003e-01, 1.73841059e-01,
          2.28476822e-01, 2.45033115e-01, 1.70529798e-01, 8.29470158e-01 ]
      - [ 4.71204184e-02, 1.22164048e-01, 1.11692846e-01, 5.58464229e-02,
          7.50436336e-02, 6.98080286e-02, 1.74520072e-03, 6.28272220e-02,
          6.63176253e-02, 6.45724237e-02, 1.74520072e-03, 6.45724237e-02,
          5.58464229e-02, 2.96684112e-02, 1.20418847e-01, 5.06108217e-02,
          3.36823732e-01, 2.09424078e-01, 1.97207674e-01, 2.56544501e-01,
          2.44328097e-01, 2.86212921e-01, 2.35602096e-01, 2.33856887e-01,
          1.69284463e-01, 1.78010464e-01, 3.14136118e-01, 2.32111692e-01,
          2.16404885e-01, 2.37347290e-01, 1.37870848e-01, 8.62129152e-01 ]
      - [ 4.56490740e-02, 9.98573452e-02, 9.98573452e-02, 5.56348078e-02,
          7.41797462e-02, 7.56062791e-02, 1.42653356e-03, 7.98858777e-02,
          7.70328119e-02, 7.27532133e-02, 1.42653356e-03, 7.56062791e-02,
          4.56490740e-02, 4.27960046e-02, 9.98573452e-02, 5.27817421e-02,
          3.00998569e-01, 2.31098443e-01, 2.26818845e-01, 2.41084158e-01,
          2.42510706e-01, 2.91012853e-01, 2.02567756e-01, 2.63908714e-01,
          1.75463632e-01, 1.75463632e-01, 2.95292437e-01, 2.36804560e-01,
          2.38231108e-01, 2.29671896e-01, 1.51212558e-01, 8.48787427e-01 ]
      - [ 5.21861762e-02, 1.07193232e-01, 1.12834975e-01, 5.07757403e-02,
          6.62905499e-02, 6.62905499e-02, 1.41043728e-03, 7.47531727e-02,
          6.77009895e-02, 6.48801103e-02, 1.41043728e-03, 6.77009895e-02,
          5.92383631e-02, 3.80818062e-02, 1.10014103e-01, 5.92383631e-02,
          3.22990119e-01, 2.08744705e-01, 2.01692522e-01, 2.66572624e-01,
          2.45416075e-01, 2.76445687e-01, 2.25669950e-01, 2.52468258e-01,
          1.79125533e-01, 1.76304653e-01, 2.91960508e-01, 2.39774331e-01,
          2.29901269e-01, 2.38363892e-01, 1.33991539e-01, 8.66008461e-01 ]
      - [ 3.96825410e-02, 1.28968254e-01, 1.13095239e-01, 5.55555560e-02,
          7.53968284e-02, 6.74603209e-02, 3.96825420e-03, 6.74603209e-02,
          7.93650821e-02, 6.34920672e-02, 3.96825420e-03, 7.14285746e-02,
          4.36507948e-02, 2.97619049e-02, 1.13095239e-01, 4.36507948e-02,
          3.37301582e-01, 2.14285731e-01, 2.18253985e-01, 2.30158731e-01,
          2.38095254e-01, 2.89682537e-01, 2.34126985e-01, 2.38095254e-01,
          1.54761910e-01, 1.66666672e-01, 3.11507940e-01, 2.40079373e-01,
          2.16269851e-01, 2.32142866e-01, 1.38888896e-01, 8.61111104e-01 ]
      - [ 5.56438789e-02, 1.11287758e-01, 1.06518283e-01, 5.72337061e-02,
          6.35930076e-02, 6.67726547e-02, 0., 7.15421289e-02,
          6.83624819e-02, 6.83624819e-02, 0., 6.99523017e-02,
          5.40540554e-02, 3.65659781e-02, 1.12877585e-01, 5.72337061e-02,
          3.30683619e-01, 2.01907784e-01, 2.06677258e-01, 2.60731339e-01,
          2.41653427e-01, 2.82988876e-01, 2.19395876e-01, 2.55961835e-01,
          1.79650247e-01, 1.79650247e-01, 2.97297299e-01, 2.35294119e-01,
          2.27344990e-01, 2.40063593e-01, 1.35135144e-01, 8.64864886e-01 ]
      - [ 5.67823350e-02, 1.11987382e-01, 9.77917984e-02, 5.20504750e-02,
          7.09779188e-02, 6.94006309e-02, 0., 7.41324946e-02,
          7.25552067e-02, 7.09779188e-02, 0., 7.09779188e-02,
          5.52050471e-02, 3.15457396e-02, 1.10410094e-01, 5.52050471e-02,
          3.18611979e-01, 2.14511037e-01, 2.14511037e-01, 2.52365917e-01,
          2.55520523e-01, 2.83911675e-01, 2.08201885e-01, 2.52365947e-01,
          1.81388021e-01, 1.78233445e-01, 3.09148252e-01, 2.23974764e-01,
          2.30283916e-01, 2.36593068e-01, 1.40378550e-01, 8.59621465e-01 ]
      - [ 5.69259971e-02, 1.13851994e-01, 1.02466792e-01, 5.31309284e-02,
          7.21062645e-02, 6.26185983e-02, 0., 6.64136633e-02,
          7.96963945e-02, 7.02087283e-02, 7.59013277e-03, 7.21062645e-02,
          3.98481973e-02, 3.41555960e-02, 1.21442124e-01, 4.74383309e-02,
          3.26375723e-01, 2.01138526e-01, 2.29601517e-01, 2.42884248e-01,
          2.48576850e-01, 2.80834913e-01, 2.31499046e-01, 2.39089191e-01,
          1.74573064e-01, 1.63187861e-01, 3.05502862e-01, 2.22011387e-01,
          2.23908916e-01, 2.48576850e-01, 1.40417457e-01, 8.59582543e-01 ]
      - [ 4.66472320e-02, 1.03498541e-01, 1.04956269e-01, 5.39358594e-02,
          7.87172019e-02, 7.14285746e-02, 1.45772600e-03, 7.28862956e-02,
          7.87172019e-02, 6.70553967e-02, 4.37317789e-03, 7.87172019e-02,
          5.83090372e-02, 3.93586010e-02, 1.00583091e-01, 3.93586010e-02,
          3.09037894e-01, 2.24489793e-01, 2.28862971e-01, 2.37609327e-01,
          2.62390673e-01, 2.81341106e-01, 2.11370260e-01, 2.44897962e-01,
          1.61807582e-01, 1.80758014e-01, 3.00291538e-01, 2.33236149e-01,
          2.43440241e-01, 2.23032072e-01, 1.44314870e-01, 8.55685115e-01 ]
      - [ 3.67132872e-02, 1.22377619e-01, 1.08391605e-01, 4.72027957e-02,
          8.21678340e-02, 6.99300691e-02, 0., 6.81818202e-02,
          8.21678340e-02, 6.29370660e-02, 3.49650346e-03, 6.99300691e-02,
          5.06993011e-02, 4.72027957e-02, 1.01398602e-01, 4.72027957e-02,
          3.14685315e-01, 2.20279723e-01, 2.18531474e-01, 2.46503502e-01,
          2.51748264e-01, 3.02447557e-01, 2.13286713e-01, 2.32517481e-01,
          1.57342657e-01, 1.60839170e-01, 3.11188817e-01, 2.23776221e-01,
          2.43007004e-01, 2.22027972e-01, 1.36363640e-01, 8.63636374e-01 ]
      - [ 1.17903933e-01, 0., 2.18340615e-03, 8.29694346e-02,
          9.82532725e-02, 1.09170303e-02, 1.26637548e-01, 7.64192119e-02,
          1.22270741e-01, 1.50655016e-01, 4.80349362e-02, 0.,
          1.39737993e-01, 2.40174681e-02, 0., 0., 2.03056768e-01,
          3.12227070e-01, 3.20960701e-01, 1.63755462e-01, 4.78165925e-01,
          1.85589522e-01, 1.76855892e-01, 1.59388646e-01, 1.76855892e-01,
          5.00000000e-01, 2.27074236e-01, 2.88209587e-01, 4.36681211e-01,
          4.80349362e-02, 3.36244524e-01, 6.63755476e-01 ]
      - [ 1.29589632e-01, 3.02375816e-02, 0., 5.61555065e-02,
          1.18790500e-01, 2.15982716e-03, 1.12311013e-01, 9.93520543e-02,
          9.50323939e-02, 1.33909285e-01, 6.47948161e-02, 0.,
          1.27429798e-01, 3.02375816e-02, 0., 0., 2.15982720e-01,
          3.32613409e-01, 2.93736488e-01, 1.57667384e-01, 4.70842332e-01,
          1.96544275e-01, 1.77105829e-01, 1.55507565e-01, 1.96544275e-01,
          4.29805607e-01, 2.80777544e-01, 2.67818570e-01, 3.86609048e-01,
          6.47948161e-02, 3.13174933e-01, 6.86825037e-01 ]
      - [ 1.43362835e-01, 0., 5.30973449e-03, 9.38053131e-02,
          9.02654901e-02, 1.76991150e-02, 1.32743359e-01, 7.25663751e-02,
          1.15044251e-01, 1.38053104e-01, 4.24778759e-02, 0.,
          1.25663713e-01, 2.30088495e-02, 0., 0., 2.42477879e-01,
          3.13274324e-01, 2.95575231e-01, 1.48672566e-01, 4.74336296e-01,
          1.78761065e-01, 1.80530965e-01, 1.66371688e-01, 2.03539819e-01,
          4.90265489e-01, 2.51327455e-01, 3.04424793e-01, 4.01769906e-01,
          4.24778759e-02, 3.30973446e-01, 6.69026554e-01 ]
      - [ 1.25944585e-01, 1.25944586e-02, 0., 6.80100769e-02,
          1.00755669e-01, 5.03778318e-03, 1.15869015e-01, 9.06801000e-02,
          1.25944585e-01, 1.51133507e-01, 6.04534000e-02, 0.,
          1.23425692e-01, 2.01511327e-02, 0., 0., 2.06549123e-01,
          3.12342554e-01, 3.37531507e-01, 1.43576831e-01, 4.76070523e-01,
          1.88916877e-01, 1.76322415e-01, 1.58690184e-01, 1.91435769e-01,
          4.58438277e-01, 2.44332492e-01, 2.74559200e-01, 4.20654923e-01,
          6.04534000e-02, 3.32493693e-01, 6.67506278e-01 ]
      - [ 1.49532706e-01, 2.99065430e-02, 1.86915894e-03, 9.15887877e-02,
          9.53271016e-02, 5.60747646e-03, 1.25233650e-01, 5.79439253e-02,
          1.12149529e-01, 1.30841121e-01, 4.11214940e-02, 0.,
          1.32710278e-01, 2.61682235e-02, 0., 0., 2.72897184e-01,
          2.84112155e-01, 2.84112155e-01, 1.58878505e-01, 4.89719629e-01,
          1.92523360e-01, 1.68224305e-01, 1.49532706e-01, 1.96261674e-01,
          4.80373830e-01, 2.80373812e-01, 2.76635528e-01, 4.01869148e-01,
          4.11214940e-02, 3.02803755e-01, 6.97196245e-01 ]
      - [ 1.39165014e-01, 2.58449297e-02, 0., 5.96421473e-02,
          1.09343939e-01, 9.94035788e-03, 1.13320082e-01, 8.34990069e-02,
          1.19284295e-01, 1.35188863e-01, 6.16302192e-02, 0.,
          1.21272363e-01, 2.18687877e-02, 0., 0., 2.24652097e-01,
          3.16103399e-01, 3.16103369e-01, 1.43141150e-01, 4.89065617e-01,
          1.92842931e-01, 1.74950302e-01, 1.43141150e-01, 2.10735589e-01,
          4.29423451e-01, 2.84294248e-01, 2.56461233e-01, 3.97614300e-01,
          6.16302192e-02, 3.20079535e-01, 6.79920495e-01 ]
      - [ 1.21212125e-01, 2.82828286e-02, 0., 3.83838378e-02,
          1.13131315e-01, 6.06060587e-03, 9.89898965e-02, 1.05050504e-01,
          1.17171720e-01, 1.25252530e-01, 7.87878782e-02, 0.,
          1.35353535e-01, 3.23232338e-02, 0., 0., 1.87878788e-01,
          3.23232323e-01, 3.21212113e-01, 1.67676777e-01, 4.86868680e-01,
          1.91919193e-01, 1.77777767e-01, 1.43434346e-01, 2.06060603e-01,
          3.97979796e-01, 2.68686861e-01, 2.42424235e-01, 4.10101026e-01,
          7.87878782e-02, 3.09090912e-01, 6.90909088e-01 ]
      - [ 2.70270277e-02, 5.01930490e-02, 1.11969113e-01, 4.24710438e-02,
          8.30115825e-02, 1.19691119e-01, 7.72200758e-03, 6.17760606e-02,
          8.30115825e-02, 1.11969113e-01, 1.93050187e-02, 6.75675645e-02,
          3.47490348e-02, 5.40540554e-02, 9.65250954e-02, 2.89575290e-02,
          2.31660232e-01, 2.72200763e-01, 2.81853288e-01, 2.14285716e-01,
          2.27799222e-01, 3.35907340e-01, 2.35521242e-01, 2.00772196e-01,
          1.94980696e-01, 1.96911201e-01, 2.79922783e-01, 2.23938227e-01,
          2.83783793e-01, 2.12355211e-01, 2.58687258e-01, 7.41312742e-01 ]
      - [ 3.41753326e-02, 4.75482903e-02, 1.04011886e-01, 4.60624062e-02,
          8.02377388e-02, 8.91530439e-02, 8.91530421e-03, 7.13224337e-02,
          8.32095072e-02, 8.91530439e-02, 8.91530421e-03, 6.98365495e-02,
          4.45765220e-02, 6.24071322e-02, 1.12927191e-01, 4.75482903e-02,
          2.31797919e-01, 2.49628514e-01, 2.51114398e-01, 2.67459124e-01,
          2.42199093e-01, 2.88261503e-01, 2.34769687e-01, 2.34769672e-01,
          1.79791972e-01, 1.88707277e-01, 2.51114398e-01, 2.30312034e-01,
          2.79346198e-01, 2.39227340e-01, 1.96136698e-01, 8.03863287e-01 ]
      - [ 4.76190485e-02, 6.53061196e-02, 9.65986401e-02, 5.44217676e-02,
          8.02721083e-02, 8.16326514e-02, 8.16326495e-03, 7.21088424e-02,
          8.02721083e-02, 9.38775539e-02, 8.16326495e-03, 7.48299286e-02,
          3.67346928e-02, 5.44217676e-02, 9.38775539e-02, 5.17006814e-02,
          2.63945580e-01, 2.42176861e-01, 2.57142842e-01, 2.36734688e-01,
          2.44897962e-01, 2.95238078e-01, 2.06802726e-01, 2.53061235e-01,
          1.89115644e-01, 1.93197280e-01, 2.74829924e-01, 2.31292516e-01,
          2.65306115e-01, 2.28571430e-01, 1.91836730e-01, 8.08163285e-01 ]
      - [ 5.21091819e-02, 7.19603002e-02, 1.07940450e-01, 5.21091819e-02,
          7.32009932e-02, 7.07195997e-02, 7.44416891e-03, 6.69975206e-02,
          7.44416863e-02, 7.81637728e-02, 6.20347401e-03, 6.82382137e-02,
          4.34243195e-02, 6.20347410e-02, 1.07940450e-01, 5.70719615e-02,
          2.84119129e-01, 2.18362287e-01, 2.27047145e-01, 2.70471483e-01,
          2.43176177e-01, 2.82878399e-01, 2.29528546e-01, 2.44416878e-01,
          1.86104223e-01, 1.81141436e-01, 2.67990083e-01, 2.34491318e-01,
          2.58064508e-01, 2.39454105e-01, 1.62531018e-01, 8.37468982e-01 ]
      - [ 4.79274616e-02, 6.47668391e-02, 9.84455943e-02, 5.82901537e-02,
          7.38341957e-02, 7.38341957e-02, 6.47668401e-03, 6.73575103e-02,
          7.90155455e-02, 8.03108811e-02, 7.77202053e-03, 7.12435246e-02,
          4.66321260e-02, 6.47668391e-02, 1.06217615e-01, 5.31088077e-02,
          2.69430041e-01, 2.21502587e-01, 2.38341972e-01, 2.70725399e-01,
          2.47409329e-01, 2.83678770e-01, 2.18911916e-01, 2.50000000e-01,
          1.82642490e-01, 1.91709846e-01, 2.60362685e-01, 2.30569944e-01,
          2.70725399e-01, 2.38341972e-01, 1.68393776e-01, 8.31606209e-01 ]
      - [ 4.57516350e-02, 6.01307191e-02, 1.04575165e-01, 5.09803928e-02,
          7.58169964e-02, 7.71241859e-02, 9.15032718e-03, 7.05882385e-02,
          7.71241859e-02, 7.84313753e-02, 5.22875832e-03, 7.05882385e-02,
          4.96732034e-02, 6.40522912e-02, 1.04575165e-01, 5.62091507e-02,
          2.61437923e-01, 2.32679754e-01, 2.31372565e-01, 2.74509817e-01,
          2.48366028e-01, 2.79738575e-01, 2.23529413e-01, 2.48366028e-01,
          1.84313729e-01, 1.88235298e-01, 2.58823544e-01, 2.35294119e-01,
          2.69281060e-01, 2.36601308e-01, 1.69934645e-01, 8.30065370e-01 ]
      - [ 3.82352956e-02, 6.02941178e-02, 1.07352942e-01, 6.32352978e-02,
          7.64705911e-02, 8.67647082e-02, 5.88235306e-03, 6.32352978e-02,
          7.05882385e-02, 7.35294148e-02, 5.88235306e-03, 6.61764741e-02,
          5.44117652e-02, 6.02941178e-02, 1.08823530e-01, 5.88235296e-02,
          2.69117653e-01, 2.32352957e-01, 2.16176480e-01, 2.82352954e-01,
          2.39705890e-01, 2.80882359e-01, 2.27941185e-01, 2.51470596e-01,
          1.89705893e-01, 1.97058827e-01, 2.61764705e-01, 2.39705890e-01,
          2.58823544e-01, 2.39705890e-01, 1.72058836e-01, 8.27941179e-01 ]
      - [ 5.10638282e-02, 7.23404288e-02, 1.07801415e-01, 5.67375869e-02,
          7.09219873e-02, 7.37588629e-02, 1.41843967e-03, 6.52482286e-02,
          7.37588629e-02, 8.08510631e-02, 2.83687934e-03, 6.80851042e-02,
          4.68085110e-02, 6.52482286e-02, 1.03546098e-01, 5.95744699e-02,
          2.87943244e-01, 2.11347520e-01, 2.25531906e-01, 2.75177300e-01,
          2.42553189e-01, 2.92198598e-01, 2.15602830e-01, 2.49645382e-01,
          1.87234044e-01, 1.85815603e-01, 2.68085122e-01, 2.31205672e-01,
          2.66666651e-01, 2.34042555e-01, 1.58865243e-01, 8.41134727e-01 ]
      - [ 5.29634282e-02, 6.80958405e-02, 1.08448930e-01, 5.54854982e-02,
          7.56620392e-02, 7.18789399e-02, 6.30517025e-03, 6.68348074e-02,
          7.56620392e-02, 7.94451460e-02, 6.30517025e-03, 6.68348074e-02,
          4.28751558e-02, 5.80075644e-02, 1.05926856e-01, 5.92686012e-02,
          2.84993708e-01, 2.20680952e-01, 2.28247166e-01, 2.66078174e-01,
          2.47162670e-01, 2.77427495e-01, 2.26986125e-01, 2.48423710e-01,
          1.90416142e-01, 1.84110969e-01, 2.68600255e-01, 2.37074405e-01,
          2.55989909e-01, 2.38335431e-01, 1.63934425e-01, 8.36065590e-01 ]
      - [ 5.09915017e-02, 7.22379610e-02, 1.07648723e-01, 5.66572249e-02,
          7.22379610e-02, 7.36543909e-02, 1.41643058e-03, 6.51558042e-02,
          7.36543909e-02, 8.07365403e-02, 2.83286115e-03, 6.79886714e-02,
          4.67422083e-02, 6.51558042e-02, 1.03399433e-01, 5.94900846e-02,
          2.87535399e-01, 2.12464586e-01, 2.25212470e-01, 2.74787545e-01,
          2.43626058e-01, 2.91784704e-01, 2.15297446e-01, 2.49291778e-01,
          1.86968833e-01, 1.85552403e-01, 2.69121826e-01, 2.30878189e-01,
          2.66288936e-01, 2.33711049e-01, 1.58640221e-01, 8.41359794e-01 ]
      - [ 5.95238097e-02, 1.04497358e-01, 3.57142873e-02, 4.89417985e-02,
          7.01058209e-02, 3.96825420e-03, 6.08465597e-02, 7.27513209e-02,
          7.01058209e-02, 3.96825420e-03, 6.21693134e-02, 7.27513209e-02,
          5.82010597e-02, 1.07142858e-01, 1.11111112e-01, 5.82010597e-02,
          2.48677254e-01, 2.07671955e-01, 2.08994716e-01, 3.34656090e-01,
          2.57936507e-01, 2.19576731e-01, 2.69841284e-01, 2.52645493e-01,
          1.83862433e-01, 1.71957672e-01, 2.38095239e-01, 2.18253970e-01,
          2.39418000e-01, 3.04232806e-01, 1.30952388e-01, 8.69047642e-01 ]
      - [ 4.25138623e-02, 1.21996306e-01, 2.21811458e-02, 4.99075800e-02,
          7.20887259e-02, 3.69685772e-03, 5.54528646e-02, 7.20887259e-02,
          7.39371553e-02, 0., 5.54528646e-02, 6.65434375e-02,
          6.28465787e-02, 1.14602588e-01, 1.29390016e-01, 5.73012941e-02,
          2.36598894e-01, 2.03327179e-01, 1.95933461e-01, 3.64140481e-01,
          2.51386315e-01, 2.40295753e-01, 2.62476891e-01, 2.45841041e-01,
          1.58964872e-01, 1.68207020e-01, 2.40295753e-01, 1.99630320e-01,
          2.51386315e-01, 3.08687627e-01, 1.14602588e-01, 8.85397434e-01 ]
      - [ 6.27009645e-02, 1.10932477e-01, 1.28617361e-02, 6.27009645e-02,
          7.39549845e-02, 1.60771701e-03, 6.59163967e-02, 6.59163967e-02,
          7.55627006e-02, 1.60771701e-02, 8.36012885e-02, 7.23472685e-02,
          4.98392284e-02, 1.04501605e-01, 9.64630246e-02, 4.50160764e-02,
          2.49196142e-01, 2.07395494e-01, 2.47588426e-01, 2.95819938e-01,
          2.62057871e-01, 2.33118966e-01, 2.58842438e-01, 2.45980710e-01,
          1.92926049e-01, 1.94533765e-01, 2.49196142e-01, 2.07395494e-01,
          2.45980710e-01, 2.97427654e-01, 1.67202577e-01, 8.32797408e-01 ]
      - [ 4.56621014e-02, 1.09589040e-01, 1.82648394e-02, 5.32724522e-02,
          8.06697085e-02, 1.82648394e-02, 5.78386597e-02, 7.00152218e-02,
          8.06697085e-02, 4.56620986e-03, 6.69710785e-02, 7.15372935e-02,
          5.32724522e-02, 1.11111112e-01, 1.12633184e-01, 4.56621014e-02,
          2.26788431e-01, 2.26788431e-01, 2.23744288e-01, 3.22678864e-01,
          2.60273963e-01, 2.43531197e-01, 2.55707771e-01, 2.40487069e-01,
          1.76560119e-01, 1.68949768e-01, 2.54185677e-01, 1.99391171e-01,
          2.49619484e-01, 2.96803653e-01, 1.47640795e-01, 8.52359235e-01 ]
      - [ 2.91545186e-02, 9.03790072e-02, 2.76967939e-02, 5.39358594e-02,
          7.58017525e-02, 1.74927115e-02, 7.72594735e-02, 8.30903798e-02,
          7.72594735e-02, 2.91545200e-03, 8.60058293e-02, 8.01749304e-02,
          5.39358594e-02, 1.02040820e-01, 1.02040820e-01, 4.08163257e-02,
          2.01166183e-01, 2.53644317e-01, 2.46355683e-01, 2.98833817e-01,
          2.36151606e-01, 2.12827995e-01, 2.93002903e-01, 2.58017480e-01,
          1.73469380e-01, 1.88046649e-01, 2.12827995e-01, 2.41982505e-01,
          2.36151606e-01, 3.09037894e-01, 1.83673471e-01, 8.16326559e-01 ]
      - [ 3.41614895e-02, 9.16149095e-02, 3.88198756e-02, 5.59006222e-02,
          8.54037255e-02, 1.55279506e-02, 6.83229789e-02, 8.54037255e-02,
          9.00621116e-02, 1.24223605e-02, 7.45341629e-02, 8.38509351e-02,
          4.81366478e-02, 1.00931674e-01, 8.69565234e-02, 2.79503111e-02,
          2.20496893e-01, 2.54658371e-01, 2.60869563e-01, 2.63975143e-01,
          2.57763982e-01, 2.20496893e-01, 2.68633544e-01, 2.53105581e-01,
          1.52173907e-01, 1.84782609e-01, 2.26708069e-01, 2.48447210e-01,
          2.51552790e-01, 2.73291945e-01, 1.70807451e-01, 8.29192579e-01 ]
      - [ 5.22496365e-02, 1.13207549e-01, 1.88679248e-02, 6.53120428e-02,
          7.40203187e-02, 5.80551522e-03, 5.37010171e-02, 6.96661845e-02,
          7.40203187e-02, 5.80551522e-03, 5.95065318e-02, 7.54716992e-02,
          5.51523939e-02, 1.16110303e-01, 1.16110303e-01, 4.49927449e-02,
          2.49637157e-01, 2.03193039e-01, 2.14804068e-01, 3.32365751e-01,
          2.55442679e-01, 2.40928888e-01, 2.48185784e-01, 2.55442679e-01,
          1.62554428e-01, 1.79970965e-01, 2.45283023e-01, 2.07547173e-01,
          2.51088530e-01, 2.96081275e-01, 1.24818578e-01, 8.75181437e-01 ]
      - [ 5.83090372e-02, 1.15160353e-01, 3.79008763e-02, 5.83090372e-02,
          7.14285746e-02, 4.37317789e-03, 6.55976683e-02, 7.14285746e-02,
          6.41399398e-02, 1.45772600e-03, 6.70553967e-02, 6.70553967e-02,
          5.68513125e-02, 9.91253629e-02, 1.10787176e-01, 5.10204099e-02,
          2.69679308e-01, 2.12827995e-01, 1.99708462e-01, 3.17784250e-01,
          2.50728875e-01, 2.20116615e-01, 2.81341106e-01, 2.47813419e-01,
          1.80758029e-01, 1.82215750e-01, 2.49271140e-01, 2.33236164e-01,
          2.21574336e-01, 2.95918375e-01, 1.38483971e-01, 8.61516058e-01 ]
      - [ 0., 7.90513866e-03, 1.58102773e-02, 9.88142267e-02,
          5.33596836e-02, 1.24505930e-01, 1.34387359e-01, 1.38339922e-02,
          1.12648219e-01, 1.60079047e-01, 1.04743086e-01, 3.95256933e-03,
          0., 1.97628466e-03, 5.92885390e-02, 1.08695649e-01,
          1.22529641e-01, 3.26086968e-01, 3.81422907e-01, 1.69960469e-01,
          1.66007906e-01, 2.94466406e-01, 3.14229250e-01, 2.25296438e-01,
          3.37944657e-01, 3.93280625e-01, 1.85770750e-01, 2.62845844e-01,
          2.74703562e-01, 2.76679844e-01, 5.23715436e-01, 4.76284593e-01 ]
      - [ 0., 0., 4.39932309e-02, 9.30626094e-02, 7.78341815e-02,
          1.31979689e-01, 1.18443318e-01, 2.36886628e-02, 9.13705602e-02,
          1.42131984e-01, 1.15059219e-01, 3.04568522e-02, 0., 0.,
          4.39932309e-02, 8.79864618e-02, 1.37055844e-01, 3.51945847e-01,
          3.79018605e-01, 1.31979689e-01, 1.69204742e-01, 2.74111688e-01,
          3.21489006e-01, 2.35194594e-01, 3.35025370e-01, 3.53637904e-01,
          2.09813863e-01, 2.79187828e-01, 2.33502537e-01, 2.77495772e-01,
          5.07614195e-01, 4.92385805e-01 ]
      - [ 0., 3.23101785e-03, 4.68497574e-02, 1.06623590e-01,
          8.56219679e-02, 1.24394186e-01, 1.09854601e-01, 2.10016146e-02,
          9.36995149e-02, 1.26009688e-01, 1.16316639e-01, 3.23101766e-02,
          0., 0., 4.03877236e-02, 9.36995149e-02, 1.56704366e-01,
          3.40872377e-01, 3.68336022e-01, 1.34087235e-01, 1.79321483e-01,
          2.53634900e-01, 3.13408732e-01, 2.53634900e-01, 3.34410340e-01,
          3.42487872e-01, 2.13247165e-01, 2.84329563e-01, 2.19709203e-01,
          2.82714069e-01, 4.76575106e-01, 5.23424864e-01 ]
      - [ 0., 2.78551527e-03, 3.89972143e-02, 8.91364887e-02,
          7.66016692e-02, 1.22562677e-01, 1.14206128e-01, 4.59610038e-02,
          9.05292481e-02, 1.26740947e-01, 1.07242338e-01, 2.78551541e-02,
          0., 8.35654605e-03, 5.29247895e-02, 9.61002782e-02,
          1.30919218e-01, 3.59331489e-01, 3.52367699e-01, 1.57381609e-01,
          1.67130917e-01, 2.60445684e-01, 3.13370466e-01, 2.59052932e-01,
          3.25905293e-01, 3.30083549e-01, 2.01949865e-01, 2.88300842e-01,
          2.25626737e-01, 2.84122556e-01, 4.70752090e-01, 5.29247880e-01 ]
      - [ 0., 0., 2.86225397e-02, 9.66010764e-02, 6.44007176e-02,
          1.25223607e-01, 1.39534891e-01, 2.14669053e-02, 9.48121622e-02,
          1.48479432e-01, 1.25223607e-01, 2.50447225e-02, 0., 0.,
          3.75670828e-02, 9.30232555e-02, 1.25223622e-01, 3.50626111e-01,
          3.93559933e-01, 1.30590335e-01, 1.59212887e-01, 2.73703039e-01,
          3.30948114e-01, 2.36135960e-01, 3.43470454e-01, 3.84615391e-01,
          1.89624324e-01, 2.86225408e-01, 2.43291587e-01, 2.80858666e-01,
          5.38461566e-01, 4.61538464e-01 ]
      - [ 0., 3.18471342e-03, 5.41401282e-02, 1.05095543e-01,
          9.55414027e-02, 1.13057323e-01, 1.06687896e-01, 4.77707013e-03,
          1.24203824e-01, 9.71337557e-02, 9.71337557e-02, 4.77707013e-03,
          0., 1.59235671e-02, 7.00636953e-02, 1.08280256e-01,
          1.62420392e-01, 3.20063680e-01, 3.23248416e-01, 1.94267511e-01,
          2.19745219e-01, 2.29299366e-01, 3.28025460e-01, 2.22929940e-01,
          3.18471342e-01, 3.08917195e-01, 2.11783439e-01, 2.70700634e-01,
          2.37261146e-01, 2.80254781e-01, 4.14012730e-01, 5.85987270e-01 ]
      - [ 0., 3.18979262e-03, 5.42264767e-02, 1.05263159e-01,
          9.56937820e-02, 1.13237642e-01, 1.06858052e-01, 4.78468882e-03,
          1.24401912e-01, 9.72886756e-02, 9.72886756e-02, 4.78468882e-03,
          0., 1.59489624e-02, 6.85805455e-02, 1.08452953e-01,
          1.62679434e-01, 3.20574164e-01, 3.23763967e-01, 1.92982465e-01,
          2.20095694e-01, 2.29665071e-01, 3.26953739e-01, 2.23285496e-01,
          3.18979263e-01, 3.09409887e-01, 2.12121218e-01, 2.71132380e-01,
          2.37639546e-01, 2.79106855e-01, 4.14673030e-01, 5.85326970e-01 ]
      - [ 9.05511826e-02, 9.25196856e-02, 9.84251946e-02, 9.84251946e-02,
          6.79133832e-02, 3.54330726e-02, 2.85433065e-02, 5.21653555e-02,
          5.90551198e-02, 3.05118114e-02, 3.83858271e-02, 5.21653555e-02,
          4.82283458e-02, 7.18503967e-02, 7.18503967e-02, 6.39763772e-02,
          3.79921257e-01, 1.84055120e-01, 1.80118114e-01, 2.55905509e-01,
          2.65748024e-01, 2.30314970e-01, 2.37204731e-01, 2.66732275e-01,
          2.28346467e-01, 2.05708653e-01, 2.86417335e-01, 2.77559042e-01,
          2.09645674e-01, 2.26377964e-01, 1.32874012e-01, 8.67125988e-01 ]
      - [ 9.05511826e-02, 9.25196856e-02, 9.84251946e-02, 9.84251946e-02,
          6.79133832e-02, 3.54330726e-02, 2.85433065e-02, 5.21653555e-02,
          5.90551198e-02, 3.05118114e-02, 3.83858271e-02, 5.21653555e-02,
          4.82283458e-02, 7.18503967e-02, 7.18503967e-02, 6.39763772e-02,
          3.79921257e-01, 1.84055120e-01, 1.80118114e-01, 2.55905509e-01,
          2.65748024e-01, 2.30314970e-01, 2.37204731e-01, 2.66732275e-01,
          2.28346467e-01, 2.05708653e-01, 2.86417335e-01, 2.77559042e-01,
          2.09645674e-01, 2.26377964e-01, 1.32874012e-01, 8.67125988e-01 ]
      - [ 4.71204184e-02, 1.32635251e-01, 1.30890056e-01, 4.18848172e-02,
          1.13438047e-01, 2.96684112e-02, 2.26876084e-02, 1.08202443e-01,
          1.11692846e-01, 6.98080286e-03, 1.22164050e-02, 1.09947644e-01,
          4.53752168e-02, 1.91972069e-02, 3.49040143e-02, 3.31588127e-02,
          3.52530539e-01, 2.73996502e-01, 2.40837693e-01, 1.32635251e-01,
          3.17626536e-01, 1.88481674e-01, 2.00698078e-01, 2.93193728e-01,
          1.22164048e-01, 1.16928443e-01, 3.22862118e-01, 3.03664923e-01,
          1.83246076e-01, 1.90226883e-01, 7.15532303e-02, 9.28446770e-01 ]
      - [ 1.01226993e-01, 9.81595069e-02, 1.07361965e-01, 1.10429451e-01,
          6.13496937e-02, 0., 0., 6.13496937e-02, 6.44171759e-02, 0., 0.,
          6.59509227e-02, 5.67484647e-02, 1.07361965e-01, 1.07361965e-01,
          5.82822077e-02, 4.17177916e-01, 1.22699387e-01, 1.30368099e-01,
          3.29754591e-01, 2.83742338e-01, 2.05521464e-01, 2.14723930e-01,
          2.96012282e-01, 1.59509197e-01, 1.67177916e-01, 2.60736197e-01,
          2.79141098e-01, 2.28527606e-01, 2.31595099e-01, 0., 1. ]
      - [ 9.98463929e-02, 9.83102918e-02, 1.07526883e-01, 1.10599078e-01,
          6.14439324e-02, 0., 0., 6.14439324e-02, 6.45161271e-02, 0., 0.,
          6.60522282e-02, 5.68356365e-02, 1.07526883e-01, 1.07526883e-01,
          5.83717376e-02, 4.16282654e-01, 1.22887865e-01, 1.30568355e-01,
          3.30261141e-01, 2.82642096e-01, 2.05837175e-01, 2.15053767e-01,
          2.96466976e-01, 1.58218130e-01, 1.67434722e-01, 2.59600610e-01,
          2.79569894e-01, 2.28878647e-01, 2.31950849e-01, 0., 1. ]
      - [ 9.98463929e-02, 9.83102918e-02, 1.07526883e-01, 1.10599078e-01,
          6.14439324e-02, 0., 0., 6.14439324e-02, 6.45161271e-02, 0., 0.,
          6.60522282e-02, 5.68356365e-02, 1.07526883e-01, 1.07526883e-01,
          5.83717376e-02, 4.16282654e-01, 1.22887865e-01, 1.30568355e-01,
          3.30261141e-01, 2.82642096e-01, 2.05837175e-01, 2.15053767e-01,
          2.96466976e-01, 1.58218130e-01, 1.67434722e-01, 2.59600610e-01,
          2.79569894e-01, 2.28878647e-01, 2.31950849e-01, 0., 1. ]
      - [ 1.15340255e-01, 1.10726647e-01, 1.15340255e-01, 1.10726647e-01,
          7.15109557e-02, 3.69088799e-02, 2.99884658e-02, 6.92041516e-02,
          6.92041516e-02, 3.46020758e-02, 2.30680499e-02, 6.92041516e-02,
          6.45905435e-02, 1.03806229e-02, 9.22721997e-03, 5.99769317e-02,
          4.52133805e-01, 2.07612455e-01, 1.96078435e-01, 1.44175321e-01,
          3.20645899e-01, 1.92618221e-01, 1.77623987e-01, 3.09111893e-01,
          2.35294119e-01, 2.39907727e-01, 3.34486723e-01, 3.25259507e-01,
          1.78777397e-01, 1.61476359e-01, 1.24567471e-01, 8.75432551e-01 ]
      - [ 1.11922137e-01, 1.24087594e-01, 1.48418486e-01, 1.07055962e-01,
          9.73236039e-02, 7.29926974e-02, 2.43309010e-02, 0.,
          9.73236039e-02, 7.29926974e-02, 3.89294401e-02, 0.,
          6.81265220e-02, 2.67639905e-02, 9.73236002e-03, 0.,
          4.91484165e-01, 1.94647208e-01, 2.09245741e-01, 1.04622871e-01,
          3.74695867e-01, 2.96836972e-01, 2.21411183e-01, 1.07055962e-01,
          2.23844275e-01, 2.72506088e-01, 4.06326026e-01, 2.79805362e-01,
          2.65206814e-01, 4.86617982e-02, 2.09245741e-01, 7.90754259e-01 ]
      - [ 1.22621566e-01, 1.33192390e-01, 1.41649053e-01, 1.22621566e-01,
          8.66807625e-02, 4.86257933e-02, 2.74841432e-02, 0.,
          8.87949243e-02, 6.34249449e-02, 4.22832966e-02, 0.,
          7.18816072e-02, 2.95983087e-02, 2.11416483e-02, 0.,
          5.20084560e-01, 1.62790701e-01, 1.94503158e-01, 1.22621566e-01,
          3.69978845e-01, 2.74841428e-01, 2.32558146e-01, 1.22621566e-01,
          2.13530660e-01, 2.85412252e-01, 3.91120523e-01, 2.91754752e-01,
          2.53699780e-01, 6.34249449e-02, 1.81818172e-01, 8.18181813e-01 ]
      - [ 1.22580647e-01, 1.35483876e-01, 1.35483876e-01, 1.33333340e-01,
          8.60215053e-02, 6.45161271e-02, 2.15053763e-02, 0.,
          8.60215053e-02, 6.45161271e-02, 2.15053763e-02, 0.,
          6.88172057e-02, 4.73118275e-02, 1.29032256e-02, 0.,
          5.26881754e-01, 1.72043011e-01, 1.72043011e-01, 1.29032254e-01,
          3.63440871e-01, 3.11827958e-01, 1.91397861e-01, 1.33333340e-01,
          2.08602145e-01, 2.88172036e-01, 4.08602148e-01, 2.90322602e-01,
          2.66666651e-01, 3.44086029e-02, 1.72043011e-01, 8.27957034e-01 ]
      - [ 1.06280193e-01, 1.44927531e-01, 1.44927531e-01, 1.11111112e-01,
          9.66183543e-02, 5.31400964e-02, 2.65700482e-02, 1.20772943e-02,
          9.66183543e-02, 7.24637657e-02, 2.41545886e-02, 0.,
          6.76328465e-02, 3.38164233e-02, 9.66183562e-03, 0.,
          5.07246375e-01, 1.88405797e-01, 1.93236709e-01, 1.11111104e-01,
          3.67149740e-01, 3.04347813e-01, 2.05314010e-01, 1.23188406e-01,
          1.83574885e-01, 2.77777761e-01, 4.00966167e-01, 2.94685990e-01,
          2.70531386e-01, 3.38164233e-02, 1.76328495e-01, 8.23671460e-01 ]
      - [ 3.28767113e-02, 1.06849313e-01, 1.06849313e-01, 4.10958901e-02,
          8.49315077e-02, 9.58904065e-03, 0., 8.76712352e-02,
          8.76712352e-02, 1.09589044e-02, 4.65753414e-02, 8.63013715e-02,
          4.52054776e-02, 4.38356176e-02, 1.28767118e-01, 8.08219165e-02,
          2.87671238e-01, 1.82191789e-01, 2.31506854e-01, 2.98630118e-01,
          2.50684917e-01, 1.71232879e-01, 2.82191783e-01, 2.95890421e-01,
          1.69863015e-01, 9.72602740e-02, 2.34246567e-01, 2.35616446e-01,
          1.87671229e-01, 3.42465758e-01, 6.71232864e-02, 9.32876706e-01 ]
      - [ 9.26243588e-02, 1.02915950e-01, 1.02915950e-01, 9.43396240e-02,
          0., 7.20411688e-02, 0., 0., 0., 6.86106309e-02, 0., 0.,
          1.08061753e-01, 1.28644943e-01, 1.21783875e-01, 1.08061753e-01,
          3.92795891e-01, 7.20411688e-02, 6.86106309e-02, 4.66552317e-01,
          2.00686112e-01, 3.72212708e-01, 2.24699825e-01, 2.02401370e-01,
          2.72727281e-01, 2.71012008e-01, 2.67581463e-01, 1.97255582e-01,
          3.05317342e-01, 2.29845628e-01, 1.40651792e-01, 8.59348178e-01 ]
      - [ 9.77701545e-02, 1.28644943e-01, 1.20068610e-01, 9.60548893e-02,
          0., 6.86106309e-02, 0., 0., 0., 6.86106309e-02, 1.71526591e-03,
          0., 1.08061753e-01, 1.02915950e-01, 1.02915950e-01,
          1.04631215e-01, 4.42538589e-01, 6.86106309e-02, 7.03258961e-02,
          4.18524861e-01, 2.05831915e-01, 3.68782163e-01, 2.24699825e-01,
          2.00686097e-01, 2.72727281e-01, 2.72727281e-01, 2.95025736e-01,
          2.16123492e-01, 2.79588342e-01, 2.09262431e-01, 1.38936535e-01,
          8.61063480e-01 ]
      - [ 1.08280256e-01, 1.11464970e-01, 1.11464970e-01, 9.87261161e-02,
          0., 6.36942685e-02, 0., 0., 0., 6.36942685e-02, 0., 0.,
          1.09872609e-01, 1.21019110e-01, 1.11464970e-01, 1.00318469e-01,
          4.29936320e-01, 6.36942685e-02, 6.36942685e-02, 4.42675173e-01,
          2.18152866e-01, 3.59872609e-01, 2.22929940e-01, 1.99044585e-01,
          2.72293001e-01, 2.72293001e-01, 2.83439487e-01, 2.10191086e-01,
          2.94586003e-01, 2.11783439e-01, 1.27388537e-01, 8.72611463e-01 ]
      - [ 1.08280256e-01, 1.11464970e-01, 1.11464970e-01, 9.87261161e-02,
          0., 6.36942685e-02, 0., 0., 0., 6.36942685e-02, 0., 0.,
          1.09872609e-01, 1.21019110e-01, 1.11464970e-01, 1.00318469e-01,
          4.29936320e-01, 6.36942685e-02, 6.36942685e-02, 4.42675173e-01,
          2.18152866e-01, 3.59872609e-01, 2.22929940e-01, 1.99044585e-01,
          2.72293001e-01, 2.72293001e-01, 2.83439487e-01, 2.10191086e-01,
          2.94586003e-01, 2.11783439e-01, 1.27388537e-01, 8.72611463e-01 ]
      - [ 1.06250003e-01, 1.10937499e-01, 1.10937499e-01, 1.09375000e-01,
          0., 6.25000000e-02, 0., 0., 0., 6.25000000e-02, 0., 0.,
          1.01562500e-01, 1.17187500e-01, 1.10937499e-01, 1.07812501e-01,
          4.37500000e-01, 6.25000000e-02, 6.25000000e-02, 4.37500000e-01,
          2.07812503e-01, 3.53125006e-01, 2.21874997e-01, 2.17187494e-01,
          2.76562512e-01, 2.73437500e-01, 2.79687494e-01, 2.20312506e-01,
          2.81250000e-01, 2.18750000e-01, 1.25000000e-01, 8.75000000e-01 ]
      - [ 1.10236220e-01, 1.37795269e-01, 8.46456662e-02, 6.29921257e-02,
          1.96850393e-03, 1.41732290e-01, 1.49606302e-01, 3.34645659e-02,
          9.44881886e-02, 3.14960629e-02, 1.96850393e-02, 6.88976347e-02,
          2.75590550e-02, 0., 0., 3.54330726e-02, 3.95669281e-01,
          3.26771677e-01, 2.14566931e-01, 6.29921257e-02, 2.34251961e-01,
          3.11023623e-01, 2.53937006e-01, 2.00787395e-01, 3.07086617e-01,
          2.71653533e-01, 3.91732275e-01, 3.30708653e-01, 1.53543308e-01,
          1.24015749e-01, 3.42519701e-01, 6.57480299e-01 ]
      - [ 1.09256446e-01, 1.21396057e-01, 1.21396057e-01, 1.09256446e-01,
          1.06221549e-02, 1.10773899e-01, 1.07739002e-01, 7.58725358e-03,
          9.55993906e-02, 1.97268594e-02, 1.82094090e-02, 8.95295888e-02,
          3.94537188e-02, 0., 0., 3.94537188e-02, 4.61305022e-01,
          2.36722305e-01, 2.23065242e-01, 7.89074376e-02, 2.54931718e-01,
          2.51896828e-01, 2.47344464e-01, 2.45827004e-01, 2.77693480e-01,
          2.76176035e-01, 3.52048546e-01, 3.45978767e-01, 1.54779971e-01,
          1.47192717e-01, 2.56449163e-01, 7.43550837e-01 ]
      - [ 1.11801244e-01, 1.21118009e-01, 1.10248446e-01, 1.00931674e-01,
          1.08695654e-02, 1.10248446e-01, 1.08695649e-01, 1.70807447e-02,
          9.78260860e-02, 2.01863348e-02, 1.86335407e-02, 9.00621116e-02,
          3.72670814e-02, 0., 0., 4.50310558e-02, 4.44099367e-01,
          2.46894404e-01, 2.26708069e-01, 8.22981372e-02, 2.57763982e-01,
          2.51552790e-01, 2.37577632e-01, 2.53105581e-01, 2.85714298e-01,
          2.67080724e-01, 3.54037255e-01, 3.36956501e-01, 1.55279502e-01,
          1.53726712e-01, 2.57763982e-01, 7.42236018e-01 ]
      - [ 1.79211468e-01, 1.79211468e-01, 1.79211468e-01, 1.61290318e-01,
          0., 0., 0., 1.07526883e-01, 0., 0., 0., 1.07526883e-01, 0., 0.,
          0., 8.60215053e-02, 6.98924720e-01, 1.07526883e-01,
          1.07526883e-01, 8.60215053e-02, 1.79211468e-01, 1.79211468e-01,
          1.79211468e-01, 4.62365597e-01, 2.65232980e-01, 1.61290318e-01,
          3.58422935e-01, 4.48028684e-01, 0., 1.93548381e-01, 0., 1. ]
      - [ 7.11743757e-02, 8.89679715e-02, 8.89679715e-02, 7.11743757e-02,
          6.22775815e-02, 8.89679715e-02, 0., 0., 5.87188601e-02,
          8.89679715e-02, 0., 0., 9.96441245e-02, 1.20996438e-01,
          8.89679715e-02, 7.11743757e-02, 3.20284694e-01, 1.51245549e-01,
          1.47686839e-01, 3.80782902e-01, 2.91814953e-01, 3.87900352e-01,
          1.77935943e-01, 1.42348751e-01, 2.31316715e-01, 2.59786487e-01,
          3.11387897e-01, 1.60142347e-01, 3.68327379e-01, 1.60142347e-01,
          1.77935943e-01, 8.22064042e-01 ]
      - [ 9.91501436e-02, 9.49008465e-02, 9.91501436e-02, 7.93201104e-02,
          5.38243614e-02, 6.94051012e-02, 0., 0., 5.09915017e-02,
          6.94051012e-02, 0., 2.83286115e-03, 9.77337137e-02,
          1.01983003e-01, 9.91501436e-02, 8.21529776e-02, 3.72521251e-01,
          1.23229459e-01, 1.23229466e-01, 3.81019831e-01, 3.01699728e-01,
          3.35694045e-01, 1.98300287e-01, 1.64305955e-01, 2.50708222e-01,
          2.46458918e-01, 3.17280442e-01, 1.78470254e-01, 3.20113331e-01,
          1.84135988e-01, 1.38810202e-01, 8.61189783e-01 ]
      - [ 9.97229889e-02, 9.97229889e-02, 9.69529077e-02, 8.72576162e-02,
          5.40166199e-02, 7.06371218e-02, 0., 0., 5.67867048e-02,
          6.92520812e-02, 0., 0., 9.83379483e-02, 8.86426568e-02,
          9.27977860e-02, 8.58725756e-02, 3.83656502e-01, 1.24653742e-01,
          1.26038790e-01, 3.65650952e-01, 3.08864266e-01, 3.28254849e-01,
          1.89750701e-01, 1.73130184e-01, 2.56232679e-01, 2.54847646e-01,
          3.24099720e-01, 1.84210524e-01, 3.13019395e-01, 1.78670362e-01,
          1.39889210e-01, 8.60110819e-01 ]
      - [ 8.86699483e-02, 9.85221639e-02, 9.97536927e-02, 9.85221639e-02,
          5.04926108e-02, 5.91133013e-02, 0., 0., 4.43349741e-02,
          6.65024593e-02, 0., 0., 9.97536927e-02, 1.00985222e-01,
          9.97536927e-02, 9.35960561e-02, 3.85467976e-01, 1.09605908e-01,
          1.10837430e-01, 3.94088656e-01, 2.83251226e-01, 3.25123131e-01,
          1.99507385e-01, 1.92118227e-01, 2.41379306e-01, 2.64778316e-01,
          2.96798021e-01, 1.98275864e-01, 3.11576337e-01, 1.93349749e-01,
          1.25615761e-01, 8.74384224e-01 ]
      - [ 9.54907164e-02, 1.06100798e-01, 1.03448279e-01, 9.41644534e-02,
          5.03978767e-02, 5.96816987e-02, 0., 0., 3.97877991e-02,
          6.36604801e-02, 0., 0., 9.54907164e-02, 9.54907164e-02,
          1.03448279e-01, 9.28381979e-02, 3.99204254e-01, 1.10079572e-01,
          1.03448279e-01, 3.87267917e-01, 2.81167120e-01, 3.24933708e-01,
          2.06896558e-01, 1.87002659e-01, 2.48010606e-01, 2.53315657e-01,
          3.11671078e-01, 1.97612733e-01, 2.94429719e-01, 1.96286470e-01,
          1.23342179e-01, 8.76657844e-01 ]
      - [ 9.77080837e-02, 1.02533169e-01, 9.65018123e-02, 8.92641768e-02,
          3.49819064e-02, 8.44390839e-02, 1.56815443e-02, 0., 0.,
          9.65018105e-03, 8.56453553e-02, 4.22195420e-02, 5.66948131e-02,
          9.65018123e-02, 9.40892622e-02, 9.40892622e-02, 3.86007249e-01,
          1.35102540e-01, 1.37515083e-01, 3.41375142e-01, 1.89384803e-01,
          2.93124259e-01, 2.91917980e-01, 2.25572973e-01, 3.61881793e-01,
          1.71290711e-01, 3.19662243e-01, 2.01447532e-01, 1.62846804e-01,
          3.16043437e-01, 1.95416167e-01, 8.04583848e-01 ]
      - [ 9.47368443e-02, 9.94152054e-02, 9.35672522e-02, 8.65497068e-02,
          3.39181274e-02, 8.18713456e-02, 1.52046783e-02, 0., 0.,
          9.35672503e-03, 8.30409378e-02, 4.09356728e-02, 8.53801146e-02,
          9.35672522e-02, 9.12280679e-02, 9.12280679e-02, 3.74269009e-01,
          1.30994156e-01, 1.33333340e-01, 3.61403495e-01, 2.14035094e-01,
          2.84210533e-01, 2.83040941e-01, 2.18713447e-01, 3.50877196e-01,
          1.96491227e-01, 3.09941530e-01, 1.95321634e-01, 1.88304096e-01,
          3.06432754e-01, 1.89473689e-01, 8.10526311e-01 ]
      - [ 7.89074376e-02, 8.34597871e-02, 7.58725330e-02, 6.98027313e-02,
          4.70409729e-02, 9.55993906e-02, 1.36570558e-02, 9.10470448e-03,
          1.21396054e-02, 1.82094090e-02, 1.00151747e-01, 4.55235206e-02,
          9.40819457e-02, 8.04248825e-02, 8.80121365e-02, 8.80121365e-02,
          3.08042496e-01, 1.65402129e-01, 1.76024288e-01, 3.50531101e-01,
          2.32169956e-01, 2.77693480e-01, 2.77693480e-01, 2.12443098e-01,
          3.62670720e-01, 1.95751145e-01, 3.05007577e-01, 1.68437019e-01,
          2.04855844e-01, 3.21699530e-01, 2.27617607e-01, 7.72382379e-01 ]
      - [ 8.01232681e-02, 8.47457647e-02, 7.70416036e-02, 7.08782747e-02,
          4.77657951e-02, 9.70724225e-02, 1.38674881e-02, 9.24499240e-03,
          1.23266568e-02, 1.84899848e-02, 1.01694912e-01, 4.62249629e-02,
          9.55315903e-02, 8.16641003e-02, 8.93682614e-02, 7.39599392e-02,
          3.12788904e-01, 1.67950705e-01, 1.78736523e-01, 3.40523899e-01,
          2.35747308e-01, 2.81972259e-01, 2.81972259e-01, 2.00308174e-01,
          3.52850556e-01, 1.98767334e-01, 3.09707254e-01, 1.71032354e-01,
          2.08012328e-01, 3.11248064e-01, 2.31124803e-01, 7.68875182e-01 ]
      - [ 9.60000008e-02, 9.86666679e-02, 8.79999995e-02, 8.39999989e-02,
          4.39999998e-02, 7.46666640e-02, 9.33333300e-03, 0., 0.,
          9.33333300e-03, 8.26666653e-02, 3.99999991e-02, 8.39999989e-02,
          9.33333337e-02, 1.00000001e-01, 9.60000008e-02, 3.66666675e-01,
          1.27999991e-01, 1.31999999e-01, 3.73333335e-01, 2.24000007e-01,
          2.75999993e-01, 2.80000001e-01, 2.19999999e-01, 3.49333346e-01,
          1.86666667e-01, 3.13333333e-01, 1.81333333e-01, 1.86666667e-01,
          3.18666667e-01, 1.75999999e-01, 8.24000001e-01 ]
      - [ 9.61923823e-02, 1.20240480e-01, 1.16232462e-01, 1.32264525e-01,
          9.01803598e-02, 4.00801599e-02, 5.21042086e-02, 1.40280565e-02,
          9.41883773e-02, 5.21042086e-02, 2.80561130e-02, 0.,
          5.41082174e-02, 1.10220440e-01, 0., 0., 4.64929849e-01,
          1.96392789e-01, 1.74348697e-01, 1.64328665e-01, 3.34669352e-01,
          3.22645277e-01, 1.96392789e-01, 1.46292582e-01, 1.64328650e-01,
          2.90581167e-01, 3.46693397e-01, 3.14629257e-01, 3.10621232e-01,
          2.80561130e-02, 1.72344685e-01, 8.27655315e-01 ]
      - [ 1.00175746e-01, 1.23022847e-01, 1.37082607e-01, 1.24780320e-01,
          6.85413033e-02, 4.92091402e-02, 5.27240783e-02, 1.23022851e-02,
          8.78734589e-02, 5.09666093e-02, 3.51493843e-02, 0.,
          5.62390164e-02, 1.00175746e-01, 1.75746926e-03, 0.,
          4.85061526e-01, 1.82776809e-01, 1.73989445e-01, 1.58172235e-01,
          3.12829524e-01, 3.23374331e-01, 2.26713538e-01, 1.37082607e-01,
          1.84534267e-01, 2.84710020e-01, 3.40949029e-01, 3.26889277e-01,
          2.95254827e-01, 3.69068533e-02, 1.88049212e-01, 8.11950803e-01 ]
      - [ 1.04587153e-01, 1.28440365e-01, 1.28440365e-01, 1.00917429e-01,
          8.07339475e-02, 3.85321118e-02, 4.77064215e-02, 1.28440363e-02,
          8.62385333e-02, 5.13761453e-02, 2.93577984e-02, 0.,
          6.23853207e-02, 1.26605511e-01, 1.83486240e-03, 0.,
          4.62385297e-01, 1.79816514e-01, 1.66972473e-01, 1.90825701e-01,
          3.33944947e-01, 3.44954133e-01, 2.07339451e-01, 1.13761462e-01,
          1.72477067e-01, 2.62385309e-01, 3.52293581e-01, 2.89908260e-01,
          3.26605499e-01, 3.11926603e-02, 1.66972473e-01, 8.33027542e-01 ]
      - [ 1.04779415e-01, 1.28676474e-01, 1.28676474e-01, 1.15808822e-01,
          8.27205852e-02, 3.67647074e-02, 4.77941185e-02, 1.28676472e-02,
          9.00735259e-02, 4.77941185e-02, 2.75735296e-02, 0.,
          6.06617630e-02, 1.13970585e-01, 1.83823530e-03, 0.,
          4.77941185e-01, 1.80147052e-01, 1.65441170e-01, 1.76470578e-01,
          3.38235289e-01, 3.27205896e-01, 2.05882356e-01, 1.28676474e-01,
          1.69117659e-01, 2.72058815e-01, 3.52941185e-01, 3.05147052e-01,
          3.12500000e-01, 2.94117648e-02, 1.59926474e-01, 8.40073526e-01 ]
      - [ 9.90566015e-02, 1.41509429e-01, 1.41509429e-01, 1.29716977e-01,
          7.31132105e-02, 2.59433966e-02, 4.71698120e-02, 0.,
          7.78301880e-02, 5.42452820e-02, 3.30188684e-02, 0.,
          5.42452820e-02, 1.22641511e-01, 0., 0., 5.11792421e-01,
          1.46226421e-01, 1.65094346e-01, 1.76886797e-01, 3.04245293e-01,
          3.44339609e-01, 2.21698105e-01, 1.29716977e-01, 1.58018872e-01,
          2.85377353e-01, 3.39622647e-01, 3.18396211e-01, 3.08962256e-01,
          3.30188684e-02, 1.60377353e-01, 8.39622617e-01 ]
      - [ 9.43025574e-02, 1.17878191e-01, 1.17878191e-01, 1.29666016e-01,
          9.23379138e-02, 3.92927304e-02, 5.69744594e-02, 1.37524558e-02,
          9.62671936e-02, 5.10805510e-02, 2.75049116e-02, 0.,
          5.50098233e-02, 1.08055010e-01, 0., 0., 4.59724963e-01,
          2.02357560e-01, 1.74852654e-01, 1.63064837e-01, 3.37917477e-01,
          3.16306472e-01, 2.02357560e-01, 1.43418476e-01, 1.61100194e-01,
          2.92730838e-01, 3.43811393e-01, 3.18271130e-01, 3.10412586e-01,
          2.75049116e-02, 1.74852654e-01, 8.25147331e-01 ]
      - [ 9.28433239e-02, 1.16054155e-01, 1.16054155e-01, 1.16054155e-01,
          8.89748558e-02, 3.86847183e-02, 5.22243716e-02, 2.32108310e-02,
          9.28433239e-02, 4.83558998e-02, 3.09477765e-02, 0.,
          5.99613152e-02, 1.21856868e-01, 1.93423603e-03, 0.,
          4.41005796e-01, 2.03094780e-01, 1.72147006e-01, 1.83752418e-01,
          3.34622830e-01, 3.24951649e-01, 2.01160535e-01, 1.39264986e-01,
          1.62475824e-01, 2.76595742e-01, 3.36557060e-01, 3.07543516e-01,
          3.23017418e-01, 3.28820124e-02, 1.70212761e-01, 8.29787195e-01 ]
      - [ 7.77626187e-02, 7.91268796e-02, 4.50204648e-02, 7.09413365e-02,
          7.36698508e-02, 7.63983652e-02, 9.54979565e-03, 7.36698508e-02,
          7.63983652e-02, 4.50204648e-02, 3.95634398e-02, 7.09413365e-02,
          6.54843077e-02, 2.72851288e-02, 1.10504776e-01, 5.86630292e-02,
          2.72851288e-01, 2.33287856e-01, 2.31923610e-01, 2.61937231e-01,
          2.93315142e-01, 2.27830842e-01, 2.04638481e-01, 2.74215549e-01,
          2.52387464e-01, 1.90995902e-01, 3.06957722e-01, 1.99181452e-01,
          2.14188263e-01, 2.79672593e-01, 1.70532063e-01, 8.29467952e-01 ]
      - [ 7.77626187e-02, 7.91268796e-02, 4.50204648e-02, 7.09413365e-02,
          7.36698508e-02, 7.63983652e-02, 9.54979565e-03, 7.36698508e-02,
          7.63983652e-02, 4.50204648e-02, 3.95634398e-02, 7.09413365e-02,
          6.54843077e-02, 2.72851288e-02, 1.10504776e-01, 5.86630292e-02,
          2.72851288e-01, 2.33287856e-01, 2.31923610e-01, 2.61937231e-01,
          2.93315142e-01, 2.27830842e-01, 2.04638481e-01, 2.74215549e-01,
          2.52387464e-01, 1.90995902e-01, 3.06957722e-01, 1.99181452e-01,
          2.14188263e-01, 2.79672593e-01, 1.70532063e-01, 8.29467952e-01 ]
      - [ 7.77626187e-02, 7.91268796e-02, 4.50204648e-02, 7.09413365e-02,
          7.36698508e-02, 7.63983652e-02, 9.54979565e-03, 7.36698508e-02,
          7.63983652e-02, 4.50204648e-02, 3.95634398e-02, 7.09413365e-02,
          6.54843077e-02, 2.72851288e-02, 1.10504776e-01, 5.86630292e-02,
          2.72851288e-01, 2.33287856e-01, 2.31923610e-01, 2.61937231e-01,
          2.93315142e-01, 2.27830842e-01, 2.04638481e-01, 2.74215549e-01,
          2.52387464e-01, 1.90995902e-01, 3.06957722e-01, 1.99181452e-01,
          2.14188263e-01, 2.79672593e-01, 1.70532063e-01, 8.29467952e-01 ]
      - [ 8.73362422e-02, 0., 0., 0., 1.46288216e-01, 8.73362422e-02,
          1.06986903e-01, 9.60698724e-02, 1.44104809e-01, 8.73362422e-02,
          8.73362422e-02, 6.98689967e-02, 8.73362422e-02, 0., 0., 0.,
          8.73362422e-02, 4.36681241e-01, 3.88646305e-01, 8.73362422e-02,
          4.65065509e-01, 1.74672484e-01, 1.94323152e-01, 1.65938869e-01,
          2.62008727e-01, 2.81659395e-01, 3.20960701e-01, 2.03056782e-01,
          3.18777293e-01, 1.57205239e-01, 3.68995637e-01, 6.31004393e-01 ]
      - [ 9.22746807e-02, 0., 0., 0., 1.45922750e-01, 1.07296139e-01,
          1.22317597e-01, 1.15879826e-01, 1.37339056e-01, 6.43776804e-02,
          6.43776804e-02, 5.79399131e-02, 9.22746807e-02, 0., 0., 0.,
          9.22746807e-02, 4.91416305e-01, 3.24034333e-01, 9.22746807e-02,
          4.67811167e-01, 1.71673819e-01, 1.86695278e-01, 1.73819736e-01,
          2.63948500e-01, 2.78969944e-01, 3.45493555e-01, 2.38197416e-01,
          2.93991417e-01, 1.22317597e-01, 3.58369112e-01, 6.41630888e-01 ]
      - [ 9.44206044e-02, 0., 0., 0., 1.43776819e-01, 8.58369097e-02,
          8.58369097e-02, 7.72532225e-02, 1.43776819e-01, 8.58369097e-02,
          9.01287571e-02, 9.65665206e-02, 9.65665206e-02, 0., 0., 0.,
          9.44206044e-02, 3.92703861e-01, 4.16308999e-01, 9.65665206e-02,
          4.78540778e-01, 1.71673819e-01, 1.75965667e-01, 1.73819751e-01,
          2.70386279e-01, 2.68240333e-01, 3.24034333e-01, 1.63090140e-01,
          3.26180249e-01, 1.86695278e-01, 3.47639501e-01, 6.52360499e-01 ]
      - [ 9.06976759e-02, 0., 0., 0., 1.39534891e-01, 1.09302327e-01,
          1.16279073e-01, 1.02325581e-01, 1.41860470e-01, 6.97674453e-02,
          6.97674453e-02, 6.27906993e-02, 9.76744220e-02, 0., 0., 0.,
          9.06976759e-02, 4.67441857e-01, 3.44186068e-01, 9.76744220e-02,
          4.69767451e-01, 1.79069772e-01, 1.86046511e-01, 1.65116280e-01,
          2.69767463e-01, 2.83720940e-01, 3.39534879e-01, 2.18604654e-01,
          3.09302330e-01, 1.32558137e-01, 3.65116298e-01, 6.34883761e-01 ]
      - [ 8.37696344e-02, 0., 0., 0., 1.62303671e-01, 8.37696344e-02,
          7.85340294e-02, 7.06806257e-02, 1.41361251e-01, 7.85340294e-02,
          8.90052393e-02, 1.17801048e-01, 9.42408368e-02, 0., 0., 0.,
          8.37696344e-02, 3.95287961e-01, 4.26701576e-01, 9.42408368e-02,
          4.81675386e-01, 1.62303656e-01, 1.67539269e-01, 1.88481674e-01,
          2.56544501e-01, 2.51308888e-01, 3.29842925e-01, 1.49214655e-01,
          3.14136118e-01, 2.06806287e-01, 3.29842925e-01, 6.70157075e-01 ]
      - [ 1.13798007e-01, 1.28022760e-01, 1.16642959e-01, 5.54765277e-02,
          0., 0., 0., 7.82361329e-02, 5.68990037e-03, 0., 0.,
          7.11237565e-02, 1.15220487e-01, 1.28022760e-01, 1.25177816e-01,
          6.25889078e-02, 4.13940251e-01, 7.82361329e-02, 7.68136531e-02,
          4.31009978e-01, 2.34708399e-01, 2.56045520e-01, 2.41820782e-01,
          2.67425328e-01, 1.76386923e-01, 1.70697019e-01, 2.41820768e-01,
          2.50355631e-01, 2.48933151e-01, 2.58890480e-01, 0., 1. ]
      - [ 1.04553118e-01, 1.28161892e-01, 1.23102866e-01, 5.39629012e-02,
          0., 0., 0., 8.26306939e-02, 1.34907253e-02, 0., 0.,
          8.43170285e-02, 1.04553118e-01, 1.18043847e-01, 1.33220911e-01,
          5.39629012e-02, 4.09780771e-01, 8.26306939e-02, 9.78077501e-02,
          4.09780771e-01, 2.22596958e-01, 2.46205747e-01, 2.56323785e-01,
          2.74873525e-01, 1.58516020e-01, 1.58516020e-01, 2.32715011e-01,
          2.59696454e-01, 2.36087695e-01, 2.71500826e-01, 0., 1. ]
      - [ 1.10139862e-01, 1.22377619e-01, 1.24125876e-01, 5.94405606e-02,
          0., 0., 0., 8.21678340e-02, 0., 0., 0., 7.51748234e-02,
          1.17132865e-01, 1.22377619e-01, 1.22377619e-01, 6.46853149e-02,
          4.16083932e-01, 8.21678340e-02, 7.51748234e-02, 4.26573426e-01,
          2.27272719e-01, 2.44755238e-01, 2.46503502e-01, 2.81468540e-01,
          1.74825177e-01, 1.76573426e-01, 2.32517481e-01, 2.65734255e-01,
          2.39510477e-01, 2.62237757e-01, 0., 1. ]
      - [ 1.08695649e-01, 1.22282609e-01, 1.11413047e-01, 5.29891290e-02,
          0., 0., 0., 7.47282580e-02, 3.12500000e-02, 4.07608692e-03,
          1.08695654e-02, 6.92934766e-02, 1.10054351e-01, 1.22282609e-01,
          1.22282609e-01, 5.97826093e-02, 3.95380437e-01, 7.47282580e-02,
          1.15489125e-01, 4.14402187e-01, 2.50000000e-01, 2.48641312e-01,
          2.44565219e-01, 2.56793469e-01, 1.79347828e-01, 1.67119563e-01,
          2.30978251e-01, 2.39130437e-01, 2.67663062e-01, 2.62228251e-01,
          1.49456523e-02, 9.85054374e-01 ]
      - [ 1.01960786e-01, 6.27451017e-02, 1.56862754e-02, 0.,
          1.76470596e-02, 6.66666701e-02, 1.25490203e-01, 1.41176477e-01,
          1.76470596e-02, 8.82352963e-02, 1.33333340e-01, 8.23529437e-02,
          9.80392173e-02, 4.90196086e-02, 0., 0., 1.80392161e-01,
          3.50980401e-01, 3.21568638e-01, 1.47058830e-01, 2.35294119e-01,
          2.66666681e-01, 2.74509817e-01, 2.23529428e-01, 3.01960796e-01,
          3.11764717e-01, 2.49019623e-01, 2.82352954e-01, 2.52941191e-01,
          2.15686291e-01, 4.13725495e-01, 5.86274505e-01 ]
      - [ 1.04693137e-01, 7.76173249e-02, 2.52707582e-02, 0.,
          1.44404331e-02, 6.85920566e-02, 1.04693137e-01, 1.35379061e-01,
          2.16606501e-02, 9.92779806e-02, 1.17328517e-01, 8.84476528e-02,
          9.56678689e-02, 4.33213003e-02, 3.61010828e-03, 0.,
          2.07581222e-01, 3.23104680e-01, 3.26714814e-01, 1.42599285e-01,
          2.36462086e-01, 2.88808674e-01, 2.50902534e-01, 2.23826706e-01,
          2.90613711e-01, 2.99638987e-01, 2.65342951e-01, 2.65342951e-01,
          2.59927809e-01, 2.09386274e-01, 3.89891684e-01, 6.10108316e-01 ]
      - [ 9.96240601e-02, 5.63909784e-02, 3.75939859e-03, 0.,
          2.63157897e-02, 7.70676658e-02, 1.35338351e-01, 1.07142858e-01,
          7.51879718e-03, 7.33082741e-02, 1.33458644e-01, 1.10902257e-01,
          1.03383459e-01, 6.20300770e-02, 3.75939859e-03, 0.,
          1.59774438e-01, 3.45864654e-01, 3.25187981e-01, 1.69172928e-01,
          2.36842111e-01, 2.68796980e-01, 2.76315778e-01, 2.18045115e-01,
          3.10150385e-01, 3.12030077e-01, 2.59398490e-01, 2.46240601e-01,
          2.46240601e-01, 2.48120293e-01, 4.19172943e-01, 5.80827057e-01 ]
      - [ 1.05947956e-01, 7.24907070e-02, 1.67286247e-02, 0.,
          1.67286247e-02, 6.50557652e-02, 1.17100373e-01, 1.44981414e-01,
          5.57620823e-03, 7.43494406e-02, 1.31970257e-01, 9.10780653e-02,
          9.66542736e-02, 5.94795533e-02, 1.85873604e-03, 0.,
          1.95167288e-01, 3.43866169e-01, 3.02973986e-01, 1.57992557e-01,
          2.24907070e-01, 2.71375477e-01, 2.67657995e-01, 2.36059487e-01,
          3.02973986e-01, 2.88104087e-01, 2.60223061e-01, 2.78810412e-01,
          2.36059472e-01, 2.24907055e-01, 3.88475835e-01, 6.11524165e-01 ]
      - [ 1.16239317e-01, 7.00854734e-02, 2.05128212e-02, 0.,
          8.54700897e-03, 5.81196584e-02, 1.07692309e-01, 1.23076923e-01,
          1.19658122e-02, 7.35042766e-02, 1.16239317e-01, 1.12820514e-01,
          1.09401710e-01, 5.81196584e-02, 1.36752138e-02, 0.,
          2.06837609e-01, 2.97435910e-01, 3.14529926e-01, 1.81196585e-01,
          2.46153846e-01, 2.59829074e-01, 2.58119673e-01, 2.35897437e-01,
          2.90598303e-01, 2.90598303e-01, 2.52991468e-01, 2.51282066e-01,
          2.52991468e-01, 2.42735043e-01, 3.55555564e-01, 6.44444466e-01 ]
      - [ 1.01851851e-01, 5.74074090e-02, 0., 0., 1.11111114e-02,
          7.22222254e-02, 1.22222222e-01, 8.51851851e-02, 1.48148146e-02,
          6.11111112e-02, 1.11111112e-01, 1.50000006e-01, 1.12962961e-01,
          7.22222254e-02, 2.77777780e-02, 0., 1.59259260e-01,
          2.90740758e-01, 3.37037057e-01, 2.12962970e-01, 2.40740731e-01,
          2.62962967e-01, 2.61111110e-01, 2.35185191e-01, 2.85185188e-01,
          2.96296299e-01, 2.42592603e-01, 2.07407415e-01, 2.61111110e-01,
          2.88888901e-01, 3.66666675e-01, 6.33333325e-01 ]
      - [ 8.73146653e-02, 3.29489284e-03, 1.64744642e-03, 7.57825375e-02,
          3.95387150e-02, 1.23558484e-01, 1.25205934e-01, 5.60131781e-02,
          6.75453022e-02, 1.12026356e-01, 1.16968699e-01, 4.61285003e-02,
          5.60131781e-02, 0., 1.64744642e-03, 8.73146653e-02,
          1.68039545e-01, 3.44316304e-01, 3.42668861e-01, 1.44975290e-01,
          2.50411868e-01, 2.38879740e-01, 2.45469525e-01, 2.65238881e-01,
          4.15156513e-01, 3.69028002e-01, 2.53706753e-01, 2.58649111e-01,
          2.35584840e-01, 2.52059311e-01, 4.77759480e-01, 5.22240520e-01 ]
      - [ 7.94223845e-02, 0., 7.22021656e-03, 8.30324888e-02,
          3.97111923e-02, 1.31768957e-01, 1.37184113e-01, 3.24909762e-02,
          6.31768927e-02, 1.13718413e-01, 1.04693137e-01, 7.58122727e-02,
          8.12274367e-02, 0., 0., 5.05415164e-02, 1.69675097e-01,
          3.41155231e-01, 3.57400715e-01, 1.31768957e-01, 2.63537914e-01,
          2.45487362e-01, 2.49097466e-01, 2.41877258e-01, 3.66425991e-01,
          4.15162444e-01, 2.50902534e-01, 2.59927809e-01, 2.58122742e-01,
          2.31046930e-01, 4.87364620e-01, 5.12635350e-01 ]
      - [ 9.00383145e-02, 3.83141753e-03, 1.91570877e-03, 7.47126415e-02,
          4.21455950e-02, 1.18773945e-01, 1.24521069e-01, 5.55555560e-02,
          6.89655170e-02, 1.09195404e-01, 1.18773945e-01, 4.59770113e-02,
          5.17241396e-02, 0., 1.91570877e-03, 9.19540226e-02,
          1.70498088e-01, 3.40996176e-01, 3.42911869e-01, 1.45593867e-01,
          2.52873570e-01, 2.31800765e-01, 2.47126430e-01, 2.68199235e-01,
          4.19540226e-01, 3.60153258e-01, 2.54789263e-01, 2.56704986e-01,
          2.29885057e-01, 2.58620679e-01, 4.71264362e-01, 5.28735638e-01 ]
      - [ 6.82819411e-02, 4.40528616e-03, 2.20264308e-03, 6.16740100e-02,
          3.52422893e-02, 1.36563882e-01, 1.45374447e-01, 5.28634377e-02,
          6.60792962e-02, 1.32158592e-01, 1.36563882e-01, 4.40528616e-02,
          4.18502204e-02, 0., 2.20264308e-03, 7.04845786e-02,
          1.36563882e-01, 3.70044053e-01, 3.78854632e-01, 1.14537440e-01,
          2.11453751e-01, 2.73127764e-01, 2.86343604e-01, 2.29074895e-01,
          4.11894292e-01, 3.81057262e-01, 2.44493395e-01, 2.62114525e-01,
          2.40088105e-01, 2.53303975e-01, 5.50660789e-01, 4.49339211e-01 ]
      - [ 8.11455846e-02, 0., 0., 0., 7.39856809e-02, 1.52744636e-01,
          7.15990439e-02, 6.20525070e-02, 9.78520289e-02, 1.64677799e-01,
          1.09785199e-01, 1.02625296e-01, 8.11455846e-02, 2.38663494e-03,
          0., 0., 8.11455846e-02, 3.60381871e-01, 4.74940330e-01,
          8.35322216e-02, 3.34128886e-01, 3.19809079e-01, 1.81384236e-01,
          1.64677799e-01, 3.43675435e-01, 3.17422420e-01, 3.07875901e-01,
          1.33651555e-01, 3.46062034e-01, 2.12410495e-01, 4.98806685e-01,
          5.01193345e-01 ]
      - [ 1.06941842e-01, 7.50469044e-03, 0., 0., 6.00375235e-02,
          1.46341458e-01, 7.50469044e-02, 6.75422102e-02, 7.31707290e-02,
          1.51969984e-01, 9.38086286e-02, 1.01313323e-01, 1.06941842e-01,
          9.38086305e-03, 0., 0., 1.14446536e-01, 3.48968089e-01,
          4.20262665e-01, 1.16322704e-01, 3.47091943e-01, 3.15196991e-01,
          1.68855533e-01, 1.68855533e-01, 3.47091913e-01, 3.33958745e-01,
          3.20825517e-01, 1.42589122e-01, 3.41463417e-01, 1.95121944e-01,
          4.67166960e-01, 5.32833040e-01 ]
      - [ 9.94371474e-02, 5.62851783e-03, 0., 0., 6.56660423e-02,
          1.42589122e-01, 7.50469044e-02, 6.56660423e-02, 7.31707290e-02,
          1.51969984e-01, 1.05065666e-01, 1.01313323e-01, 1.06941842e-01,
          7.50469044e-03, 0., 0., 1.05065666e-01, 3.48968118e-01,
          4.31519687e-01, 1.14446536e-01, 3.45215768e-01, 3.07692319e-01,
          1.80112571e-01, 1.66979373e-01, 3.47091943e-01, 3.33958745e-01,
          3.13320816e-01, 1.40712947e-01, 3.39587241e-01, 2.06378996e-01,
          4.74671662e-01, 5.25328338e-01 ]
      - [ 8.80829021e-02, 5.18134702e-03, 0., 0., 4.92227972e-02,
          1.78756475e-01, 1.29533678e-01, 1.13989636e-01, 5.69948182e-02,
          1.60621762e-01, 7.77202100e-02, 5.18134721e-02, 8.80829021e-02,
          0., 0., 0., 9.32642519e-02, 4.71502602e-01, 3.47150266e-01,
          8.80829021e-02, 2.82383412e-01, 3.44559580e-01, 2.07253888e-01,
          1.65803105e-01, 3.44559580e-01, 3.78238350e-01, 3.21243525e-01,
          2.43523315e-01, 3.05699468e-01, 1.29533678e-01, 5.46632111e-01,
          4.53367889e-01 ]
      - [ 1.19221412e-01, 9.73236002e-03, 0., 0., 4.62287106e-02,
          1.77615568e-01, 1.21654503e-01, 1.21654503e-01, 6.32603392e-02,
          1.43552318e-01, 4.86618020e-02, 4.13625315e-02, 1.04622871e-01,
          2.43309001e-03, 0., 0., 1.28953770e-01, 4.67153281e-01,
          2.96837002e-01, 1.07055962e-01, 3.33333343e-01, 3.33333343e-01,
          1.70316309e-01, 1.63017035e-01, 3.45498770e-01, 3.69829684e-01,
          3.52798045e-01, 2.43309006e-01, 3.13868612e-01, 9.00243372e-02,
          4.91484195e-01, 5.08515835e-01 ]
      - [ 5.51330782e-02, 0., 3.23193930e-02, 1.34980991e-01,
          7.60456249e-02, 1.52091254e-02, 1.12167299e-01, 7.79467672e-02,
          8.17490518e-02, 1.14068441e-01, 1.14068445e-02, 7.60456249e-02,
          1.34980991e-01, 2.66159698e-02, 0., 5.13307974e-02,
          2.22433463e-01, 2.81368822e-01, 2.83269972e-01, 2.12927759e-01,
          3.47908735e-01, 1.55893534e-01, 1.55893534e-01, 3.40304196e-01,
          1.33079842e-01, 4.96197730e-01, 1.46387830e-01, 3.57414454e-01,
          3.57414454e-01, 1.38783261e-01, 2.52851725e-01, 7.47148275e-01 ]
      - [ 4.52488698e-02, 0., 1.58371050e-02, 1.04072399e-01,
          9.04977396e-02, 1.13122175e-02, 1.17647059e-01, 1.04072399e-01,
          1.04072399e-01, 1.06334843e-01, 1.58371050e-02, 9.04977396e-02,
          1.17647059e-01, 2.26244349e-02, 0., 5.42986430e-02,
          1.65158376e-01, 3.23529422e-01, 3.16742092e-01, 1.94570139e-01,
          3.57466072e-01, 1.40271500e-01, 1.49321273e-01, 3.52941185e-01,
          1.26696840e-01, 4.45701361e-01, 1.47058830e-01, 3.41628969e-01,
          3.50678742e-01, 1.60633489e-01, 2.51131237e-01, 7.48868763e-01 ]
      - [ 4.48430479e-02, 0., 1.56950671e-02, 1.03139013e-01,
          8.96860957e-02, 1.12107620e-02, 1.16591930e-01, 1.03139013e-01,
          1.03139013e-01, 1.14349775e-01, 1.56950671e-02, 8.96860957e-02,
          1.16591930e-01, 2.24215239e-02, 0., 5.38116582e-02,
          1.63677126e-01, 3.20627809e-01, 3.22869956e-01, 1.92825109e-01,
          3.54260087e-01, 1.47982061e-01, 1.47982061e-01, 3.49775791e-01,
          1.25560537e-01, 4.50672656e-01, 1.45739913e-01, 3.38565022e-01,
          3.56502235e-01, 1.59192815e-01, 2.57847548e-01, 7.42152452e-01 ]
      - [ 6.32090792e-02, 0., 2.59319283e-02, 1.24797404e-01,
          8.10372755e-02, 1.62074547e-02, 1.10210694e-01, 8.58995169e-02,
          9.23824981e-02, 1.10210694e-01, 9.72447358e-03, 8.10372755e-02,
          1.16693676e-01, 2.10696924e-02, 0., 6.15883321e-02,
          2.13938415e-01, 2.93354928e-01, 2.93354928e-01, 1.99351698e-01,
          3.53322536e-01, 1.47487849e-01, 1.45867094e-01, 3.53322536e-01,
          1.50729343e-01, 4.61912453e-01, 1.60453811e-01, 3.46839547e-01,
          3.40356559e-01, 1.52350083e-01, 2.46353313e-01, 7.53646672e-01 ]
      - [ 5.05050495e-02, 0., 3.36700343e-02, 9.76430997e-02,
          8.41750875e-02, 1.68350171e-02, 1.04377106e-01, 8.58585835e-02,
          8.92255902e-02, 1.16161615e-01, 1.51515156e-02, 8.41750875e-02,
          1.36363640e-01, 1.68350171e-02, 0., 6.90235719e-02,
          1.81818187e-01, 2.91245788e-01, 3.04713815e-01, 2.22222224e-01,
          3.60269368e-01, 1.49831653e-01, 1.53198659e-01, 3.36700350e-01,
          1.51515156e-01, 4.54545468e-01, 1.51515156e-01, 3.21548820e-01,
          3.58585864e-01, 1.68350175e-01, 2.52525240e-01, 7.47474790e-01 ]
      - [ 5.31732403e-02, 0., 2.91595198e-02, 1.30360201e-01,
          6.86106309e-02, 2.22984571e-02, 1.18353345e-01, 8.06174949e-02,
          8.40480253e-02, 1.20068610e-01, 1.88679248e-02, 6.86106309e-02,
          1.20068610e-01, 2.40137223e-02, 0., 6.17495701e-02,
          2.12692961e-01, 2.89879918e-01, 2.91595191e-01, 2.05831900e-01,
          3.25900495e-01, 1.66380793e-01, 1.66380793e-01, 3.41337889e-01,
          1.56089187e-01, 4.88850772e-01, 1.44082323e-01, 3.58490556e-01,
          3.48198980e-01, 1.49228126e-01, 2.79588342e-01, 7.20411658e-01 ]
   decision_functions:
      -
         sv_count: 3
         rho: 1.9465536793096510e-03
         alpha: [ 4.5974555174399363e+00, -3.6553229165556400e-01,
             -4.2319232257843726e+00 ]
         index: [ 6, 9, 10 ]
      -
         sv_count: 4
         rho: -2.7873765931911838e-02
         alpha: [ 3.4383540177099428e+00, 7.2963058556522471e+00,
             -2.8837330658955813e+00, -7.8509268074666068e+00 ]
         index: [ 5, 6, 13, 15 ]
      -
         sv_count: 3
         rho: -7.5144864815101672e-02
         alpha: [ 7.0261218127828453e+00, 1.4149275021115884e+01,
             -2.1175396833898716e+01 ]
         index: [ 5, 6, 23 ]
      -
         sv_count: 2
         rho: 0.
         alpha: [ 5.0772213730201070e+00, -5.0772213730201070e+00 ]
         index: [ 6, 30 ]
      -
         sv_count: 3
         rho: 7.7972175499992004e-04
         alpha: [ 2.5489106610779505e+01, -2.5351861053379778e+01,
             -1.3724555739972730e-01 ]
         index: [ 6, 34, 37 ]
      -
         sv_count: 3
         rho: 4.1056487130766622e-02
         alpha: [ 6.1520704392938541e+01, -3.4414866489826913e+01,
             -2.7105837903111613e+01 ]
         index: [ 6, 43, 49 ]
      -
         sv_count: 4
         rho: 1.8109402940017802e-03
         alpha: [ 4.8487909536032543e+00, -4.9167943616015519e-01,
             -3.0445854481423618e-02, -4.3266656629616760e+00 ]
         index: [ 6, 51, 54, 56 ]
      -
         sv_count: 3
         rho: 3.6307618745275000e-03
         alpha: [ 4.3926863261282968e+01, -2.6081813835864882e+01,
             -1.7845049425418097e+01 ]
         index: [ 6, 60, 66 ]
      -
         sv_count: 4
         rho: -8.6782387595312149e-02
         alpha: [ 7.0801950641654390e+00, 3.6322193895190594e+01,
             -4.0565243167192385e+01, -2.8371457921636352e+00 ]
         index: [ 5, 6, 73, 74 ]
      -
         sv_count: 2
         rho: 2.7755575615628914e-16
         alpha: [ 4.6347846649914590e+00, -4.6347846649914590e+00 ]
         index: [ 6, 80 ]
      -
         sv_count: 3
         rho: -5.5017846819333659e-02
         alpha: [ 4.0961926842157634e+00, 3.6051567166319714e+01,
             -4.0147759850535479e+01 ]
         index: [ 0, 6, 82 ]
      -
         sv_count: 3
         rho: -4.2255867774735972e-02
         alpha: [ 4.9205684563989474e+00, 1.9953161298174422e+01,
             -2.4873729754573372e+01 ]
         index: [ 4, 6, 84 ]
      -
         sv_count: 4
         rho: 9.7105115652084351e-02
         alpha: [ 6.2500000000000000e+01, 6.2500000000000000e+01,
             -6.2500000000000000e+01, -6.2500000000000000e+01 ]
         index: [ 0, 1, 86, 87 ]
      -
         sv_count: 3
         rho: -2.4925876179787417e-02
         alpha: [ 1.9108026751054621e+00, 1.3030874007775600e+01,
             -1.4941676682881063e+01 ]
         index: [ 0, 6, 88 ]
      -
         sv_count: 3
         rho: 4.1518199640313115e-03
         alpha: [ 9.1550079999771814e+00, -7.5836668840114685e+00,
             -1.5713411159657122e+00 ]
         index: [ 6, 90, 92 ]
      -
         sv_count: 4
         rho: -1.7954986762974628e-01
         alpha: [ 6.8097584647016189e+00, 1.1340846959257352e+01,
             2.8757494890733902e+01, -4.6908100314692852e+01 ]
         index: [ 1, 5, 6, 93 ]
      -
         sv_count: 3
         rho: -3.1106792564481914e-02
         alpha: [ 9.9424729793302600e+00, 2.6297350182864148e+00,
             -1.2572207997616673e+01 ]
         index: [ 0, 6, 98 ]
      -
         sv_count: 2
         rho: -2.2204460492503131e-16
         alpha: [ 7.7891438087619598e+00, -7.7891438087619598e+00 ]
         index: [ 6, 101 ]
      -
         sv_count: 2
         rho: 0.
         alpha: [ 5.2949575622994534e+00, -5.2949575622994534e+00 ]
         index: [ 0, 102 ]
      -
         sv_count: 4
         rho: -6.9910316939455847e-02
         alpha: [ 4.9855613874753546e+00, 3.6500150220938008e+00,
             9.8320698177020489e+00, -1.8467646227271199e+01 ]
         index: [ 0, 2, 6, 107 ]
      -
         sv_count: 3
         rho: -4.1021595758614915e-02
         alpha: [ 3.8793197247440929e+00, 9.3590009411244530e+00,
             -1.3238320665868544e+01 ]
         index: [ 0, 6, 112 ]
      -
         sv_count: 2
         rho: 7.2164496600635175e-16
         alpha: [ 1.2016203796547245e+01, -1.2016203796547245e+01 ]
         index: [ 6, 119 ]
      -
         sv_count: 2
         rho: 0.
         alpha: [ 2.2639728386132141e+01, -2.2639728386132141e+01 ]
         index: [ 6, 120 ]
      -
         sv_count: 3
         rho: 4.8548713915809449e-04
         alpha: [ 4.2307159369457565e+00, -2.0262280259212697e-02,
             -4.2104536566865427e+00 ]
         index: [ 6, 124, 127 ]
      -
         sv_count: 4
         rho: -7.2851026280243598e-03
         alpha: [ 4.5178589418600488e+01, 2.3805851554266841e+01,
             -4.1486844804008918e+01, -2.7497596168858415e+01 ]
         index: [ 0, 3, 129, 131 ]
      -
         sv_count: 2
         rho: 5.8980598183211441e-17
         alpha: [ 6.2167792703076552e+00, -6.2167792703076552e+00 ]
         index: [ 6, 136 ]
      -
         sv_count: 2
         rho: -2.0816681711721685e-17
         alpha: [ 3.5094923674701000e+00, -3.5094923674701000e+00 ]
         index: [ 6, 140 ]
      -
         sv_count: 2
         rho: -9.0205620750793969e-17
         alpha: [ 3.3277919114493848e+00, -3.3277919114493848e+00 ]
         index: [ 6, 143 ]
      -
         sv_count: 3
         rho: 3.6171984507595493e-03
         alpha: [ 6.0052619747679046e+00, -2.2796483874852802e+00,
             -3.7256135872826235e+00 ]
         index: [ 6, 150, 151 ]
      -
         sv_count: 2
         rho: -3.4694469519536142e-16
         alpha: [ 7.2259273807308793e+00, -7.2259273807308793e+00 ]
         index: [ 9, 16 ]
      -
         sv_count: 3
         rho: 7.4072883985333224e-03
         alpha: [ 1.6617588403235651e+01, -1.4270388406324184e+01,
             -2.3471999969114665e+00 ]
         index: [ 9, 20, 25 ]
      -
         sv_count: 6
         rho: -2.3199385858427648e-02
         alpha: [ 1.6919333745386378e+00, 1.5928916081272977e+00,
             8.9899335184608162e-03, 2.6065552914568975e+00,
             -4.8992615707597453e+00, -1.0011086368815487e+00 ]
         index: [ 7, 8, 9, 11, 27, 29 ]
      -
         sv_count: 2
         rho: -2.8449465006019636e-16
         alpha: [ 6.0081191108513590e+00, -6.0081191108513590e+00 ]
         index: [ 9, 40 ]
      -
         sv_count: 3
         rho: 6.1261020589371048e-04
         alpha: [ 5.2021589663814378e+00, -4.5058718755280358e+00,
             -6.9628709085340190e-01 ]
         index: [ 9, 42, 48 ]
      -
         sv_count: 2
         rho: 1.0408340855860843e-16
         alpha: [ 6.1161874736610331e+00, -6.1161874736610331e+00 ]
         index: [ 7, 56 ]
      -
         sv_count: 3
         rho: 1.7122538961741759e-02
         alpha: [ 7.0049816518472419e+00, -4.2078605325885308e+00,
             -2.7971211192587111e+00 ]
         index: [ 9, 57, 58 ]
      -
         sv_count: 4
         rho: 6.6036617900452066e-03
         alpha: [ 6.5764042133936460e+00, 4.9109248459200039e-01,
             -5.2139495616129619e+00, -1.8535471363726859e+00 ]
         index: [ 9, 10, 69, 71 ]
      -
         sv_count: 4
         rho: 1.8174847100447227e-03
         alpha: [ 2.0544891823170190e+00, 4.9009303220839424e+00,
             -7.6597220551144707e-01, -6.1894472988895153e+00 ]
         index: [ 7, 11, 75, 80 ]
      -
         sv_count: 2
         rho: 0.
         alpha: [ 4.3434426174335048e+00, -4.3434426174335048e+00 ]
         index: [ 9, 82 ]
      -
         sv_count: 2
         rho: 2.7755575615628914e-17
         alpha: [ 3.5783516034443186e+00, -3.5783516034443186e+00 ]
         index: [ 9, 84 ]
      -
         sv_count: 2
         rho: 2.3245294578089215e-16
         alpha: [ 3.3206113155444643e+00, -3.3206113155444643e+00 ]
         index: [ 10, 86 ]
      -
         sv_count: 2
         rho: -3.3653635433950058e-16
         alpha: [ 3.3977733398221721e+00, -3.3977733398221726e+00 ]
         index: [ 9, 88 ]
      -
         sv_count: 3
         rho: -6.7316575793063384e-03
         alpha: [ 1.7387320854762054e+00, 1.5113981792592963e+00,
             -3.2501302647355015e+00 ]
         index: [ 7, 9, 89 ]
      -
         sv_count: 3
         rho: -5.0265022123267347e-03
         alpha: [ 1.1432812741073530e+00, 3.6196546201695510e+00,
             -4.7629358942769020e+00 ]
         index: [ 9, 10, 93 ]
      -
         sv_count: 2
         rho: 0.
         alpha: [ 3.6570663281320841e+00, -3.6570663281320841e+00 ]
         index: [ 10, 94 ]
      -
         sv_count: 4
         rho: 3.0922898394747736e-04
         alpha: [ 1.9678216722399835e+00, 1.5066445759549696e+00,
             -4.2451295265056010e-01, -3.0499532955443933e+00 ]
         index: [ 7, 9, 99, 101 ]
      -
         sv_count: 2
         rho: 2.0816681711721685e-17
         alpha: [ 1.8451679125724794e+00, -1.8451679125724794e+00 ]
         index: [ 9, 102 ]
      -
         sv_count: 3
         rho: -8.0559058211598694e-04
         alpha: [ 1.4353526054803722e-01, 4.6637567990756894e+00,
             -4.8072920596237267e+00 ]
         index: [ 9, 10, 103 ]
      -
         sv_count: 2
         rho: -6.6786853825107073e-17
         alpha: [ 5.5650734028275783e+00, -5.5650734028275783e+00 ]
         index: [ 9, 111 ]
      -
         sv_count: 3
         rho: -6.1671350682420756e-04
         alpha: [ 7.5788879429145417e-02, 3.2758384404316545e+00,
             -3.3516273198608002e+00 ]
         index: [ 7, 9, 119 ]
      -
         sv_count: 2
         rho: 0.
         alpha: [ 6.2159224414622649e+00, -6.2159224414622649e+00 ]
         index: [ 9, 120 ]
      -
         sv_count: 2
         rho: 5.5511151231257827e-17
         alpha: [ 9.5651719793157337e+00, -9.5651719793157337e+00 ]
         index: [ 7, 127 ]
      -
         sv_count: 2
         rho: -2.0816681711721685e-17
         alpha: [ 3.5552044497016144e+00, -3.5552044497016144e+00 ]
         index: [ 10, 131 ]
      -
         sv_count: 3
         rho: -1.8583639541011943e-02
         alpha: [ 3.8967115307886160e+00, 5.2253192214470587e+00,
             -9.1220307522356752e+00 ]
         index: [ 7, 9, 137 ]
      -
         sv_count: 4
         rho: 2.1450945026919919e-03
         alpha: [ 5.2409128877394364e+00, 8.6768976040035750e-01,
             -3.1521347714220838e+00, -2.9564678767177091e+00 ]
         index: [ 7, 11, 139, 140 ]
      -
         sv_count: 4
         rho: 5.8538570511678014e-03
         alpha: [ 8.7648083195640201e+00, 2.2247991067935097e-01,
             -4.0509543107971000e+00, -4.9363339194462696e+00 ]
         index: [ 7, 11, 142, 144 ]
      -
         sv_count: 3
         rho: -1.1645861335225645e-02
         alpha: [ 3.2727827659493660e+00, 2.4429554148861445e+00,
             -5.7157381808355074e+00 ]
         index: [ 7, 9, 151 ]
      -
         sv_count: 4
         rho: -1.6606290967386195e-02
         alpha: [ 1.4233433985398735e+01, 2.0438354221686055e+01,
             -7.2623028323803789e+00, -2.7409485374704410e+01 ]
         index: [ 13, 16, 20, 21 ]
      -
         sv_count: 3
         rho: 2.2383131542475131e-02
         alpha: [ 7.9316024719656300e+00, -1.1912253132320392e+00,
             -6.7403771587335912e+00 ]
         index: [ 12, 27, 30 ]
      -
         sv_count: 4
         rho: -3.0202734513599980e-02
         alpha: [ 5.6249189225129603e+00, 9.6636984433873270e+00,
             -1.4617784943736837e+01, -6.7083242216345484e-01 ]
         index: [ 13, 16, 38, 40 ]
      -
         sv_count: 3
         rho: -1.4885477631700584e-02
         alpha: [ 5.6888318429614610e+00, 9.5350351637014086e+00,
             -1.5223867006662877e+01 ]
         index: [ 14, 16, 42 ]
      -
         sv_count: 3
         rho: 1.1329845689000069e-02
         alpha: [ 1.4262311737941715e+01, -7.5452324450120933e+00,
             -6.7170792929296184e+00 ]
         index: [ 17, 51, 56 ]
      -
         sv_count: 3
         rho: 1.2697115906742891e-02
         alpha: [ 2.0222913063924317e+01, -6.9641288766805980e+00,
             -1.3258784187243712e+01 ]
         index: [ 16, 58, 59 ]
      -
         sv_count: 4
         rho: -3.7304269546643093e-02
         alpha: [ 2.7502232590914204e+00, 5.6316822646032323e+00,
             2.1068838648988407e+01, -2.9450744172683052e+01 ]
         index: [ 13, 14, 16, 72 ]
      -
         sv_count: 3
         rho: -1.6069262919874629e-03
         alpha: [ 5.2113757302868713e-01, 9.9244430321030919e+00,
             -1.0445580605131783e+01 ]
         index: [ 16, 17, 81 ]
      -
         sv_count: 3
         rho: -7.1380227933295201e-03
         alpha: [ 1.0753964638705241e+01, 3.2383156273930633e+00,
             -1.3992280266098303e+01 ]
         index: [ 15, 16, 82 ]
      -
         sv_count: 3
         rho: -9.2514984470218851e-03
         alpha: [ 2.6528292701858107e+00, 8.5090942256076119e+00,
             -1.1161923495793426e+01 ]
         index: [ 13, 14, 84 ]
      -
         sv_count: 2
         rho: 4.1633363423443370e-16
         alpha: [ 7.9733025880939472e+00, -7.9733025880939472e+00 ]
         index: [ 15, 86 ]
      -
         sv_count: 2
         rho: 0.
